FANN_FLO_2.1
num_layers=3
learning_rate=0.000100
connection_rate=1.000000
network_type=0
learning_momentum=0.000000
training_algorithm=0
train_error_function=1
train_stop_function=0
cascade_output_change_fraction=0.010000
quickprop_decay=-0.000100
quickprop_mu=1.750000
rprop_increase_factor=1.200000
rprop_decrease_factor=0.500000
rprop_delta_min=0.000000
rprop_delta_max=50.000000
rprop_delta_zero=0.100000
cascade_output_stagnation_epochs=12
cascade_candidate_change_fraction=0.010000
cascade_candidate_stagnation_epochs=12
cascade_max_out_epochs=150
cascade_min_out_epochs=50
cascade_max_cand_epochs=150
cascade_min_cand_epochs=50
cascade_num_candidate_groups=2
bit_fail_limit=3.49999994039535522461e-01
cascade_candidate_limit=1.00000000000000000000e+03
cascade_weight_multiplier=4.00000005960464477539e-01
cascade_activation_functions_count=10
cascade_activation_functions=3 5 7 8 10 11 14 15 16 17 
cascade_activation_steepnesses_count=4
cascade_activation_steepnesses=2.50000000000000000000e-01 5.00000000000000000000e-01 7.50000000000000000000e-01 1.00000000000000000000e+00 
layer_sizes=101 201 4 
scale_included=1
scale_mean_in=0.000000 0.000000 0.000000 0.000000 0.000000 0.000000 0.000000 0.000000 0.000000 0.000000 0.000000 0.000000 0.000000 0.000000 0.000000 0.000000 0.000000 0.000000 0.000000 0.000000 0.000000 0.000000 0.000000 0.000000 0.000000 0.000000 0.000000 0.000000 0.000000 0.000000 0.000000 0.000000 0.000000 0.000000 0.000000 0.000000 0.000000 0.000000 0.000000 0.000000 0.000000 0.000000 0.000000 0.000000 0.000000 0.000000 0.000000 0.000000 0.000000 0.000000 0.000000 0.000000 0.000000 0.000000 0.000000 0.000000 0.000000 0.000000 0.000000 0.000000 0.000000 0.000000 0.000000 0.000000 0.000000 0.000000 0.000000 0.000000 0.000000 0.000000 0.000000 0.000000 0.000000 0.000000 0.000000 0.000000 0.000000 0.000000 0.000000 0.000000 0.000000 0.000000 0.000000 0.000000 0.000000 0.000000 0.000000 0.000000 0.000000 0.000000 0.000000 0.000000 0.000000 0.000000 0.000000 0.000000 0.000000 0.000000 0.000000 0.000000 
scale_deviation_in=1.000000 1.000000 1.000000 1.000000 1.000000 1.000000 1.000000 1.000000 1.000000 1.000000 1.000000 1.000000 1.000000 1.000000 1.000000 1.000000 1.000000 1.000000 1.000000 1.000000 1.000000 1.000000 1.000000 1.000000 1.000000 1.000000 1.000000 1.000000 1.000000 1.000000 1.000000 1.000000 1.000000 1.000000 1.000000 1.000000 1.000000 1.000000 1.000000 1.000000 1.000000 1.000000 1.000000 1.000000 1.000000 1.000000 1.000000 1.000000 1.000000 1.000000 1.000000 1.000000 1.000000 1.000000 1.000000 1.000000 1.000000 1.000000 1.000000 1.000000 1.000000 1.000000 1.000000 1.000000 1.000000 1.000000 1.000000 1.000000 1.000000 1.000000 1.000000 1.000000 1.000000 1.000000 1.000000 1.000000 1.000000 1.000000 1.000000 1.000000 1.000000 1.000000 1.000000 1.000000 1.000000 1.000000 1.000000 1.000000 1.000000 1.000000 1.000000 1.000000 1.000000 1.000000 1.000000 1.000000 1.000000 1.000000 1.000000 1.000000 
scale_new_min_in=-1.000000 -1.000000 -1.000000 -1.000000 -1.000000 -1.000000 -1.000000 -1.000000 -1.000000 -1.000000 -1.000000 -1.000000 -1.000000 -1.000000 -1.000000 -1.000000 -1.000000 -1.000000 -1.000000 -1.000000 -1.000000 -1.000000 -1.000000 -1.000000 -1.000000 -1.000000 -1.000000 -1.000000 -1.000000 -1.000000 -1.000000 -1.000000 -1.000000 -1.000000 -1.000000 -1.000000 -1.000000 -1.000000 -1.000000 -1.000000 -1.000000 -1.000000 -1.000000 -1.000000 -1.000000 -1.000000 -1.000000 -1.000000 -1.000000 -1.000000 -1.000000 -1.000000 -1.000000 -1.000000 -1.000000 -1.000000 -1.000000 -1.000000 -1.000000 -1.000000 -1.000000 -1.000000 -1.000000 -1.000000 -1.000000 -1.000000 -1.000000 -1.000000 -1.000000 -1.000000 -1.000000 -1.000000 -1.000000 -1.000000 -1.000000 -1.000000 -1.000000 -1.000000 -1.000000 -1.000000 -1.000000 -1.000000 -1.000000 -1.000000 -1.000000 -1.000000 -1.000000 -1.000000 -1.000000 -1.000000 -1.000000 -1.000000 -1.000000 -1.000000 -1.000000 -1.000000 -1.000000 -1.000000 -1.000000 -1.000000 
scale_factor_in=1.000000 1.000000 1.000000 1.000000 1.000000 1.000000 1.000000 1.000000 1.000000 1.000000 1.000000 1.000000 1.000000 1.000000 1.000000 1.000000 1.000000 1.000000 1.000000 1.000000 1.000000 1.000000 1.000000 1.000000 1.000000 1.000000 1.000000 1.000000 1.000000 1.000000 1.000000 1.000000 1.000000 1.000000 1.000000 1.000000 1.000000 1.000000 1.000000 1.000000 1.000000 1.000000 1.000000 1.000000 1.000000 1.000000 1.000000 1.000000 1.000000 1.000000 1.000000 1.000000 1.000000 1.000000 1.000000 1.000000 1.000000 1.000000 1.000000 1.000000 1.000000 1.000000 1.000000 1.000000 1.000000 1.000000 1.000000 1.000000 1.000000 1.000000 1.000000 1.000000 1.000000 1.000000 1.000000 1.000000 1.000000 1.000000 1.000000 1.000000 1.000000 1.000000 1.000000 1.000000 1.000000 1.000000 1.000000 1.000000 1.000000 1.000000 1.000000 1.000000 1.000000 1.000000 1.000000 1.000000 1.000000 1.000000 1.000000 1.000000 
scale_mean_out=0.442429 0.159676 0.356923 
scale_deviation_out=0.364629 0.235560 0.203459 
scale_new_min_out=0.000000 0.000000 0.000000 
scale_factor_out=0.500000 0.500000 0.500000 
neurons (num_inputs, activation_function, activation_steepness)=(0, 0, 0.00000000000000000000e+00) (0, 0, 0.00000000000000000000e+00) (0, 0, 0.00000000000000000000e+00) (0, 0, 0.00000000000000000000e+00) (0, 0, 0.00000000000000000000e+00) (0, 0, 0.00000000000000000000e+00) (0, 0, 0.00000000000000000000e+00) (0, 0, 0.00000000000000000000e+00) (0, 0, 0.00000000000000000000e+00) (0, 0, 0.00000000000000000000e+00) (0, 0, 0.00000000000000000000e+00) (0, 0, 0.00000000000000000000e+00) (0, 0, 0.00000000000000000000e+00) (0, 0, 0.00000000000000000000e+00) (0, 0, 0.00000000000000000000e+00) (0, 0, 0.00000000000000000000e+00) (0, 0, 0.00000000000000000000e+00) (0, 0, 0.00000000000000000000e+00) (0, 0, 0.00000000000000000000e+00) (0, 0, 0.00000000000000000000e+00) (0, 0, 0.00000000000000000000e+00) (0, 0, 0.00000000000000000000e+00) (0, 0, 0.00000000000000000000e+00) (0, 0, 0.00000000000000000000e+00) (0, 0, 0.00000000000000000000e+00) (0, 0, 0.00000000000000000000e+00) (0, 0, 0.00000000000000000000e+00) (0, 0, 0.00000000000000000000e+00) (0, 0, 0.00000000000000000000e+00) (0, 0, 0.00000000000000000000e+00) (0, 0, 0.00000000000000000000e+00) (0, 0, 0.00000000000000000000e+00) (0, 0, 0.00000000000000000000e+00) (0, 0, 0.00000000000000000000e+00) (0, 0, 0.00000000000000000000e+00) (0, 0, 0.00000000000000000000e+00) (0, 0, 0.00000000000000000000e+00) (0, 0, 0.00000000000000000000e+00) (0, 0, 0.00000000000000000000e+00) (0, 0, 0.00000000000000000000e+00) (0, 0, 0.00000000000000000000e+00) (0, 0, 0.00000000000000000000e+00) (0, 0, 0.00000000000000000000e+00) (0, 0, 0.00000000000000000000e+00) (0, 0, 0.00000000000000000000e+00) (0, 0, 0.00000000000000000000e+00) (0, 0, 0.00000000000000000000e+00) (0, 0, 0.00000000000000000000e+00) (0, 0, 0.00000000000000000000e+00) (0, 0, 0.00000000000000000000e+00) (0, 0, 0.00000000000000000000e+00) (0, 0, 0.00000000000000000000e+00) (0, 0, 0.00000000000000000000e+00) (0, 0, 0.00000000000000000000e+00) (0, 0, 0.00000000000000000000e+00) (0, 0, 0.00000000000000000000e+00) (0, 0, 0.00000000000000000000e+00) (0, 0, 0.00000000000000000000e+00) (0, 0, 0.00000000000000000000e+00) (0, 0, 0.00000000000000000000e+00) (0, 0, 0.00000000000000000000e+00) (0, 0, 0.00000000000000000000e+00) (0, 0, 0.00000000000000000000e+00) (0, 0, 0.00000000000000000000e+00) (0, 0, 0.00000000000000000000e+00) (0, 0, 0.00000000000000000000e+00) (0, 0, 0.00000000000000000000e+00) (0, 0, 0.00000000000000000000e+00) (0, 0, 0.00000000000000000000e+00) (0, 0, 0.00000000000000000000e+00) (0, 0, 0.00000000000000000000e+00) (0, 0, 0.00000000000000000000e+00) (0, 0, 0.00000000000000000000e+00) (0, 0, 0.00000000000000000000e+00) (0, 0, 0.00000000000000000000e+00) (0, 0, 0.00000000000000000000e+00) (0, 0, 0.00000000000000000000e+00) (0, 0, 0.00000000000000000000e+00) (0, 0, 0.00000000000000000000e+00) (0, 0, 0.00000000000000000000e+00) (0, 0, 0.00000000000000000000e+00) (0, 0, 0.00000000000000000000e+00) (0, 0, 0.00000000000000000000e+00) (0, 0, 0.00000000000000000000e+00) (0, 0, 0.00000000000000000000e+00) (0, 0, 0.00000000000000000000e+00) (0, 0, 0.00000000000000000000e+00) (0, 0, 0.00000000000000000000e+00) (0, 0, 0.00000000000000000000e+00) (0, 0, 0.00000000000000000000e+00) (0, 0, 0.00000000000000000000e+00) (0, 0, 0.00000000000000000000e+00) (0, 0, 0.00000000000000000000e+00) (0, 0, 0.00000000000000000000e+00) (0, 0, 0.00000000000000000000e+00) (0, 0, 0.00000000000000000000e+00) (0, 0, 0.00000000000000000000e+00) (0, 0, 0.00000000000000000000e+00) (0, 0, 0.00000000000000000000e+00) (0, 0, 0.00000000000000000000e+00) (0, 0, 0.00000000000000000000e+00) (101, 5, 5.00000000000000000000e-01) (101, 5, 5.00000000000000000000e-01) (101, 5, 5.00000000000000000000e-01) (101, 5, 5.00000000000000000000e-01) (101, 5, 5.00000000000000000000e-01) (101, 5, 5.00000000000000000000e-01) (101, 5, 5.00000000000000000000e-01) (101, 5, 5.00000000000000000000e-01) (101, 5, 5.00000000000000000000e-01) (101, 5, 5.00000000000000000000e-01) (101, 5, 5.00000000000000000000e-01) (101, 5, 5.00000000000000000000e-01) (101, 5, 5.00000000000000000000e-01) (101, 5, 5.00000000000000000000e-01) (101, 5, 5.00000000000000000000e-01) (101, 5, 5.00000000000000000000e-01) (101, 5, 5.00000000000000000000e-01) (101, 5, 5.00000000000000000000e-01) (101, 5, 5.00000000000000000000e-01) (101, 5, 5.00000000000000000000e-01) (101, 5, 5.00000000000000000000e-01) (101, 5, 5.00000000000000000000e-01) (101, 5, 5.00000000000000000000e-01) (101, 5, 5.00000000000000000000e-01) (101, 5, 5.00000000000000000000e-01) (101, 5, 5.00000000000000000000e-01) (101, 5, 5.00000000000000000000e-01) (101, 5, 5.00000000000000000000e-01) (101, 5, 5.00000000000000000000e-01) (101, 5, 5.00000000000000000000e-01) (101, 5, 5.00000000000000000000e-01) (101, 5, 5.00000000000000000000e-01) (101, 5, 5.00000000000000000000e-01) (101, 5, 5.00000000000000000000e-01) (101, 5, 5.00000000000000000000e-01) (101, 5, 5.00000000000000000000e-01) (101, 5, 5.00000000000000000000e-01) (101, 5, 5.00000000000000000000e-01) (101, 5, 5.00000000000000000000e-01) (101, 5, 5.00000000000000000000e-01) (101, 5, 5.00000000000000000000e-01) (101, 5, 5.00000000000000000000e-01) (101, 5, 5.00000000000000000000e-01) (101, 5, 5.00000000000000000000e-01) (101, 5, 5.00000000000000000000e-01) (101, 5, 5.00000000000000000000e-01) (101, 5, 5.00000000000000000000e-01) (101, 5, 5.00000000000000000000e-01) (101, 5, 5.00000000000000000000e-01) (101, 5, 5.00000000000000000000e-01) (101, 5, 5.00000000000000000000e-01) (101, 5, 5.00000000000000000000e-01) (101, 5, 5.00000000000000000000e-01) (101, 5, 5.00000000000000000000e-01) (101, 5, 5.00000000000000000000e-01) (101, 5, 5.00000000000000000000e-01) (101, 5, 5.00000000000000000000e-01) (101, 5, 5.00000000000000000000e-01) (101, 5, 5.00000000000000000000e-01) (101, 5, 5.00000000000000000000e-01) (101, 5, 5.00000000000000000000e-01) (101, 5, 5.00000000000000000000e-01) (101, 5, 5.00000000000000000000e-01) (101, 5, 5.00000000000000000000e-01) (101, 5, 5.00000000000000000000e-01) (101, 5, 5.00000000000000000000e-01) (101, 5, 5.00000000000000000000e-01) (101, 5, 5.00000000000000000000e-01) (101, 5, 5.00000000000000000000e-01) (101, 5, 5.00000000000000000000e-01) (101, 5, 5.00000000000000000000e-01) (101, 5, 5.00000000000000000000e-01) (101, 5, 5.00000000000000000000e-01) (101, 5, 5.00000000000000000000e-01) (101, 5, 5.00000000000000000000e-01) (101, 5, 5.00000000000000000000e-01) (101, 5, 5.00000000000000000000e-01) (101, 5, 5.00000000000000000000e-01) (101, 5, 5.00000000000000000000e-01) (101, 5, 5.00000000000000000000e-01) (101, 5, 5.00000000000000000000e-01) (101, 5, 5.00000000000000000000e-01) (101, 5, 5.00000000000000000000e-01) (101, 5, 5.00000000000000000000e-01) (101, 5, 5.00000000000000000000e-01) (101, 5, 5.00000000000000000000e-01) (101, 5, 5.00000000000000000000e-01) (101, 5, 5.00000000000000000000e-01) (101, 5, 5.00000000000000000000e-01) (101, 5, 5.00000000000000000000e-01) (101, 5, 5.00000000000000000000e-01) (101, 5, 5.00000000000000000000e-01) (101, 5, 5.00000000000000000000e-01) (101, 5, 5.00000000000000000000e-01) (101, 5, 5.00000000000000000000e-01) (101, 5, 5.00000000000000000000e-01) (101, 5, 5.00000000000000000000e-01) (101, 5, 5.00000000000000000000e-01) (101, 5, 5.00000000000000000000e-01) (101, 5, 5.00000000000000000000e-01) (101, 5, 5.00000000000000000000e-01) (101, 5, 5.00000000000000000000e-01) (101, 5, 5.00000000000000000000e-01) (101, 5, 5.00000000000000000000e-01) (101, 5, 5.00000000000000000000e-01) (101, 5, 5.00000000000000000000e-01) (101, 5, 5.00000000000000000000e-01) (101, 5, 5.00000000000000000000e-01) (101, 5, 5.00000000000000000000e-01) (101, 5, 5.00000000000000000000e-01) (101, 5, 5.00000000000000000000e-01) (101, 5, 5.00000000000000000000e-01) (101, 5, 5.00000000000000000000e-01) (101, 5, 5.00000000000000000000e-01) (101, 5, 5.00000000000000000000e-01) (101, 5, 5.00000000000000000000e-01) (101, 5, 5.00000000000000000000e-01) (101, 5, 5.00000000000000000000e-01) (101, 5, 5.00000000000000000000e-01) (101, 5, 5.00000000000000000000e-01) (101, 5, 5.00000000000000000000e-01) (101, 5, 5.00000000000000000000e-01) (101, 5, 5.00000000000000000000e-01) (101, 5, 5.00000000000000000000e-01) (101, 5, 5.00000000000000000000e-01) (101, 5, 5.00000000000000000000e-01) (101, 5, 5.00000000000000000000e-01) (101, 5, 5.00000000000000000000e-01) (101, 5, 5.00000000000000000000e-01) (101, 5, 5.00000000000000000000e-01) (101, 5, 5.00000000000000000000e-01) (101, 5, 5.00000000000000000000e-01) (101, 5, 5.00000000000000000000e-01) (101, 5, 5.00000000000000000000e-01) (101, 5, 5.00000000000000000000e-01) (101, 5, 5.00000000000000000000e-01) (101, 5, 5.00000000000000000000e-01) (101, 5, 5.00000000000000000000e-01) (101, 5, 5.00000000000000000000e-01) (101, 5, 5.00000000000000000000e-01) (101, 5, 5.00000000000000000000e-01) (101, 5, 5.00000000000000000000e-01) (101, 5, 5.00000000000000000000e-01) (101, 5, 5.00000000000000000000e-01) (101, 5, 5.00000000000000000000e-01) (101, 5, 5.00000000000000000000e-01) (101, 5, 5.00000000000000000000e-01) (101, 5, 5.00000000000000000000e-01) (101, 5, 5.00000000000000000000e-01) (101, 5, 5.00000000000000000000e-01) (101, 5, 5.00000000000000000000e-01) (101, 5, 5.00000000000000000000e-01) (101, 5, 5.00000000000000000000e-01) (101, 5, 5.00000000000000000000e-01) (101, 5, 5.00000000000000000000e-01) (101, 5, 5.00000000000000000000e-01) (101, 5, 5.00000000000000000000e-01) (101, 5, 5.00000000000000000000e-01) (101, 5, 5.00000000000000000000e-01) (101, 5, 5.00000000000000000000e-01) (101, 5, 5.00000000000000000000e-01) (101, 5, 5.00000000000000000000e-01) (101, 5, 5.00000000000000000000e-01) (101, 5, 5.00000000000000000000e-01) (101, 5, 5.00000000000000000000e-01) (101, 5, 5.00000000000000000000e-01) (101, 5, 5.00000000000000000000e-01) (101, 5, 5.00000000000000000000e-01) (101, 5, 5.00000000000000000000e-01) (101, 5, 5.00000000000000000000e-01) (101, 5, 5.00000000000000000000e-01) (101, 5, 5.00000000000000000000e-01) (101, 5, 5.00000000000000000000e-01) (101, 5, 5.00000000000000000000e-01) (101, 5, 5.00000000000000000000e-01) (101, 5, 5.00000000000000000000e-01) (101, 5, 5.00000000000000000000e-01) (101, 5, 5.00000000000000000000e-01) (101, 5, 5.00000000000000000000e-01) (101, 5, 5.00000000000000000000e-01) (101, 5, 5.00000000000000000000e-01) (101, 5, 5.00000000000000000000e-01) (101, 5, 5.00000000000000000000e-01) (101, 5, 5.00000000000000000000e-01) (101, 5, 5.00000000000000000000e-01) (101, 5, 5.00000000000000000000e-01) (101, 5, 5.00000000000000000000e-01) (101, 5, 5.00000000000000000000e-01) (101, 5, 5.00000000000000000000e-01) (101, 5, 5.00000000000000000000e-01) (101, 5, 5.00000000000000000000e-01) (101, 5, 5.00000000000000000000e-01) (101, 5, 5.00000000000000000000e-01) (101, 5, 5.00000000000000000000e-01) (101, 5, 5.00000000000000000000e-01) (101, 5, 5.00000000000000000000e-01) (101, 5, 5.00000000000000000000e-01) (101, 5, 5.00000000000000000000e-01) (101, 5, 5.00000000000000000000e-01) (101, 5, 5.00000000000000000000e-01) (0, 5, 0.00000000000000000000e+00) (201, 3, 5.00000000000000000000e-01) (201, 3, 5.00000000000000000000e-01) (201, 3, 5.00000000000000000000e-01) (0, 3, 0.00000000000000000000e+00) 
connections (connected_to_neuron, weight)=(0, 3.17682512104511260986e-02) (1, -5.20232738927006721497e-03) (2, -3.74142117798328399658e-02) (3, -8.53620544075965881348e-02) (4, -4.79913540184497833252e-02) (5, -1.01998724043369293213e-01) (6, -8.08138027787208557129e-02) (7, 3.68896014988422393799e-02) (8, 7.39309145137667655945e-03) (9, -1.26454681158065795898e-01) (10, 4.30150516331195831299e-02) (11, -9.33458283543586730957e-02) (12, 3.14971082843840122223e-04) (13, -1.11255429685115814209e-01) (14, -5.73604740202426910400e-02) (15, -3.83716411888599395752e-02) (16, 2.32324060052633285522e-02) (17, 7.27359876036643981934e-02) (18, -2.50157881528139114380e-02) (19, 3.52566801011562347412e-02) (20, -3.35308872163295745850e-02) (21, -7.28923752903938293457e-02) (22, -2.61402372270822525024e-02) (23, 2.52669211477041244507e-02) (24, -4.24826703965663909912e-02) (25, -3.17482836544513702393e-02) (26, 1.97680760174989700317e-02) (27, -3.57700400054454803467e-02) (28, -1.98465604335069656372e-02) (29, 8.22140797972679138184e-02) (30, 7.30699673295021057129e-02) (31, -5.50339855253696441650e-02) (32, 1.59103032201528549194e-02) (33, -3.18932943046092987061e-02) (34, -3.32723255269229412079e-03) (35, 9.91530343890190124512e-02) (36, 3.79806687124073505402e-03) (37, 4.69293035566806793213e-02) (38, 7.27854147553443908691e-02) (39, -5.73112554848194122314e-02) (40, 6.12438060343265533447e-02) (41, 3.78964059054851531982e-02) (42, -2.78314743191003799438e-02) (43, -2.70109269767999649048e-02) (44, 3.94500754773616790771e-02) (45, 2.86707077175378799438e-02) (46, 4.91438321769237518311e-02) (47, -2.08164658397436141968e-02) (48, 1.58606618642807006836e-02) (49, -5.66439814865589141846e-02) (50, -6.97635933756828308105e-02) (51, 8.56275334954261779785e-02) (52, -2.69170682877302169800e-02) (53, 4.52570011839270591736e-03) (54, 1.03791551664471626282e-02) (55, 2.99612861126661300659e-02) (56, 7.15240612626075744629e-02) (57, -6.87282159924507141113e-02) (58, 9.27540138363838195801e-02) (59, -4.60312999784946441650e-02) (60, -8.23046788573265075684e-02) (61, 6.60336688160896301270e-02) (62, -2.15959060005843639374e-03) (63, 2.82526444643735885620e-02) (64, -7.06163719296455383301e-02) (65, 8.82984921336174011230e-02) (66, 2.31224652379751205444e-02) (67, 2.76616681367158889771e-02) (68, 2.95827109366655349731e-02) (69, -9.54861845821142196655e-03) (70, 6.52866140007972717285e-02) (71, -1.95703785866498947144e-02) (72, -7.57313296198844909668e-02) (73, -6.98836371302604675293e-02) (74, 4.92655448615550994873e-02) (75, 5.86160309612751007080e-02) (76, 5.04741482436656951904e-02) (77, -9.93102882057428359985e-03) (78, -6.69198259711265563965e-02) (79, -3.67222167551517486572e-02) (80, 2.72632408887147903442e-02) (81, -4.50736545026302337646e-02) (82, -6.45176395773887634277e-02) (83, 8.86456742882728576660e-02) (84, 5.13767190277576446533e-02) (85, 3.40137816965579986572e-02) (86, 1.40856252983212471008e-02) (87, 1.39894345775246620178e-02) (88, 5.79125098884105682373e-02) (89, -3.69273941032588481903e-03) (90, 5.22196181118488311768e-02) (91, 5.82797117531299591064e-02) (92, -5.69676421582698822021e-02) (93, -6.20763190090656280518e-02) (94, -2.68083941191434860229e-02) (95, -4.11273948848247528076e-02) (96, -8.84681269526481628418e-02) (97, 8.64748284220695495605e-02) (98, 7.10151568055152893066e-02) (99, 3.26620228588581085205e-02) (100, -3.80037240684032440186e-02) (0, -7.91415721178054809570e-02) (1, -2.11986228823661804199e-02) (2, -1.29997327923774719238e-01) (3, -6.73588663339614868164e-02) (4, -6.71908557415008544922e-02) (5, -1.82519450783729553223e-01) (6, -1.22912257909774780273e-01) (7, -1.97324708104133605957e-01) (8, -1.63400873541831970215e-01) (9, -6.18779845535755157471e-02) (10, -7.00098127126693725586e-02) (11, -1.12779080867767333984e-01) (12, -3.49200330674648284912e-02) (13, -7.71158784627914428711e-02) (14, -1.58359721302986145020e-01) (15, -9.29208099842071533203e-02) (16, -1.63192555308341979980e-01) (17, -6.64092004299163818359e-02) (18, -1.56312540173530578613e-01) (19, -7.88863152265548706055e-02) (20, -7.17538744211196899414e-02) (21, -1.62861064076423645020e-01) (22, -1.96477514691650867462e-03) (23, -4.78247366845607757568e-02) (24, -8.14966410398483276367e-02) (25, -1.54326692223548889160e-01) (26, -3.88766936957836151123e-02) (27, -9.08789932727813720703e-02) (28, 2.75573357939720153809e-02) (29, -1.10282495617866516113e-01) (30, -8.09798389673233032227e-03) (31, -8.63017141819000244141e-03) (32, -6.11019991338253021240e-02) (33, 6.25943243503570556641e-02) (34, -6.10301233828067779541e-02) (35, 7.13627338409423828125e-02) (36, -9.92589443922042846680e-02) (37, 1.36141851544380187988e-02) (38, -9.07569229602813720703e-02) (39, -6.27256631851196289062e-02) (40, -4.66361222788691520691e-03) (41, 5.91886527836322784424e-02) (42, 5.97427003085613250732e-02) (43, -4.69361729919910430908e-02) (44, -1.91454812884330749512e-02) (45, 7.39064067602157592773e-02) (46, 5.40541894733905792236e-02) (47, -3.58379515819251537323e-03) (48, 1.63422934710979461670e-02) (49, 9.14821326732635498047e-02) (50, -5.65591566264629364014e-02) (51, 1.36333331465721130371e-01) (52, 1.31696090102195739746e-01) (53, 1.06847122311592102051e-01) (54, 4.59004528820514678955e-02) (55, 3.49675700999796390533e-03) (56, 1.09262451529502868652e-01) (57, -2.08434723317623138428e-02) (58, 5.98945207893848419189e-02) (59, 1.05889797210693359375e-01) (60, 4.86169122159481048584e-02) (61, -6.88996678218245506287e-03) (62, 2.70802639424800872803e-02) (63, 9.55344140529632568359e-02) (64, -3.35435606539249420166e-02) (65, 7.65560269355773925781e-02) (66, 8.10455828905105590820e-02) (67, -3.06056067347526550293e-02) (68, 3.03887552581727504730e-03) (69, 8.14235210418701171875e-02) (70, 2.35617905855178833008e-02) (71, 9.61549580097198486328e-02) (72, 5.77634461224079132080e-02) (73, -3.41869555413722991943e-02) (74, 1.45865812897682189941e-01) (75, 1.17126703262329101562e-01) (76, 1.39424666762351989746e-01) (77, 7.19055384397506713867e-02) (78, 1.58374570310115814209e-02) (79, 3.35013158619403839111e-02) (80, 6.12069480121135711670e-02) (81, 1.83183476328849792480e-02) (82, 1.90996900200843811035e-02) (83, 4.61509339511394500732e-02) (84, -1.22735053300857543945e-02) (85, 1.24914363026618957520e-01) (86, 1.10033482313156127930e-01) (87, 1.52522847056388854980e-01) (88, 1.52539774775505065918e-01) (89, 2.47870050370693206787e-02) (90, 9.40392762422561645508e-02) (91, 2.62449271976947784424e-02) (92, 4.61289174854755401611e-02) (93, -4.53520752489566802979e-02) (94, -3.18730808794498443604e-02) (95, 3.76968197524547576904e-02) (96, 6.41631186008453369141e-02) (97, 9.27696824073791503906e-02) (98, 4.82376851141452789307e-02) (99, 1.14690110087394714355e-01) (100, -3.26516292989253997803e-02) (0, 1.01628288626670837402e-01) (1, 2.73278355598449707031e-02) (2, 7.29823559522628784180e-02) (3, 1.09817564487457275391e-01) (4, -2.74267559871077537537e-03) (5, 2.32959650456905364990e-02) (6, 8.05206000804901123047e-02) (7, 1.19321405887603759766e-01) (8, 7.17367976903915405273e-02) (9, -4.67193312942981719971e-02) (10, 4.64570559561252593994e-02) (11, -4.79014478623867034912e-02) (12, 3.90471331775188446045e-02) (13, 1.36835187673568725586e-01) (14, -3.15685905516147613525e-02) (15, -2.17137188883498311043e-04) (16, 8.64158719778060913086e-02) (17, -2.91215777397155761719e-02) (18, 5.37903921213001012802e-04) (19, -4.75744046270847320557e-02) (20, 1.07540011405944824219e-01) (21, 7.35674500465393066406e-02) (22, 3.16523276269435882568e-02) (23, 1.13354623317718505859e-01) (24, 7.82275646924972534180e-02) (25, 1.25506252050399780273e-01) (26, 2.78093516826629638672e-02) (27, 1.02843428030610084534e-02) (28, 3.46369855105876922607e-02) (29, -4.93980338796973228455e-03) (30, 6.50238841772079467773e-02) (31, -1.16657195612788200378e-02) (32, 6.04520179331302642822e-02) (33, 1.56691782176494598389e-02) (34, -2.85913236439228057861e-02) (35, -6.60800486803054809570e-02) (36, 1.05658710002899169922e-01) (37, -7.05551356077194213867e-02) (38, -8.61844271421432495117e-02) (39, 5.46943135559558868408e-02) (40, -6.14258013665676116943e-02) (41, 4.83986036852002143860e-03) (42, 4.25037704408168792725e-02) (43, 3.18631120026111602783e-02) (44, -4.43621771410107612610e-03) (45, 7.77319520711898803711e-02) (46, 8.70631635189056396484e-02) (47, -5.20492829382419586182e-02) (48, 9.60860252380371093750e-02) (49, -5.43500073254108428955e-02) (50, -6.41566365957260131836e-02) (51, 4.58859913051128387451e-02) (52, 5.37683032453060150146e-02) (53, 2.31892280280590057373e-02) (54, 2.14883089065551757812e-02) (55, -4.62784292176365852356e-03) (56, 1.04475682601332664490e-02) (57, -9.82638150453567504883e-02) (58, 7.19210952520370483398e-02) (59, -1.00858911871910095215e-01) (60, -5.41192106902599334717e-02) (61, 7.46286520734429359436e-03) (62, -3.52649949491024017334e-02) (63, -1.06479763984680175781e-01) (64, -9.10196453332901000977e-02) (65, 2.16595940291881561279e-02) (66, -8.68878364562988281250e-02) (67, -9.43671464920043945312e-02) (68, 3.55557985603809356689e-02) (69, -7.56263285875320434570e-02) (70, 4.46121059358119964600e-02) (71, 6.65391087532043457031e-02) (72, 1.41290137544274330139e-02) (73, -1.18527999147772789001e-02) (74, -7.38057726994156837463e-03) (75, -8.48148167133331298828e-02) (76, -4.23567481338977813721e-02) (77, -1.25176021829247474670e-02) (78, -4.46489639580249786377e-02) (79, -3.88313569128513336182e-02) (80, 2.73823440074920654297e-02) (81, 8.28009005635976791382e-03) (82, -7.39513039588928222656e-02) (83, -5.46392868272960186005e-04) (84, -5.39687089622020721436e-02) (85, 6.16343393921852111816e-02) (86, -8.86244475841522216797e-02) (87, -1.25959306955337524414e-01) (88, -1.14431560039520263672e-01) (89, -9.98862832784652709961e-02) (90, -9.96563583612442016602e-02) (91, -3.62149737775325775146e-02) (92, 3.78436855971813201904e-02) (93, -5.26032736524939537048e-03) (94, -2.04065330326557159424e-02) (95, -1.20189025998115539551e-01) (96, -5.54825402796268463135e-02) (97, 1.80975757539272308350e-02) (98, -9.15715098381042480469e-02) (99, -9.74937677383422851562e-02) (100, 8.91964137554168701172e-02) (0, 7.81353861093521118164e-02) (1, -9.68179553747177124023e-02) (2, 2.11183968931436538696e-02) (3, -7.53695610910654067993e-03) (4, 2.88895424455404281616e-02) (5, 6.50142431259155273438e-02) (6, -1.16655647754669189453e-01) (7, -6.04756996035575866699e-02) (8, -4.69765737652778625488e-02) (9, -3.02029531449079513550e-02) (10, -1.11986145377159118652e-01) (11, -1.15920692682266235352e-01) (12, 1.52764813974499702454e-02) (13, 1.04231666773557662964e-02) (14, -3.88830751180648803711e-02) (15, 7.30968825519084930420e-03) (16, 4.75664585828781127930e-02) (17, -4.00707796216011047363e-02) (18, 1.60069670528173446655e-02) (19, 7.62552171945571899414e-02) (20, -1.03886350989341735840e-02) (21, -8.98772180080413818359e-02) (22, 4.99967113137245178223e-02) (23, -9.20360833406448364258e-02) (24, 1.86980795115232467651e-02) (25, 4.80360388755798339844e-02) (26, -2.55433339625597000122e-02) (27, -3.44282314181327819824e-02) (28, 7.77423381805419921875e-02) (29, 6.04785105679184198380e-04) (30, -3.97519245743751525879e-02) (31, 8.20597708225250244141e-02) (32, 3.35516184568405151367e-02) (33, -1.01784661412239074707e-01) (34, -5.94614446163177490234e-03) (35, -1.99088659137487411499e-02) (36, 8.54883491992950439453e-02) (37, -7.66258221119642257690e-03) (38, 4.02204170823097229004e-02) (39, -4.62669953703880310059e-02) (40, 8.95849913358688354492e-02) (41, 5.58426603674888610840e-02) (42, -3.32934707403182983398e-02) (43, 2.42168959230184555054e-02) (44, -1.35113038122653961182e-02) (45, 4.49541658163070678711e-02) (46, -4.75867465138435363770e-02) (47, -4.52377200126647949219e-02) (48, -7.44734108448028564453e-02) (49, 9.14861112833023071289e-02) (50, -4.05920147895812988281e-02) (51, 3.97204607725143432617e-02) (52, -7.51612484455108642578e-02) (53, -7.22695589065551757812e-02) (54, 6.18552640080451965332e-02) (55, 5.96195384860038757324e-02) (56, 9.22412276268005371094e-02) (57, -4.62786257266998291016e-02) (58, -6.18385300040245056152e-02) (59, 9.04251784086227416992e-02) (60, 7.71103948354721069336e-02) (61, 1.11844465136528015137e-02) (62, 8.26398134231567382812e-02) (63, 1.46839655935764312744e-02) (64, 1.34326294064521789551e-02) (65, -1.95308607071638107300e-02) (66, 9.92714911699295043945e-02) (67, 2.85784364677965641022e-03) (68, 7.76907652616500854492e-02) (69, 4.08752635121345520020e-02) (70, 6.18087276816368103027e-02) (71, 6.49946928024291992188e-02) (72, 5.14299084898084402084e-04) (73, -7.34907537698745727539e-02) (74, -8.88924859464168548584e-03) (75, 8.62914919853210449219e-02) (76, 7.19118118286132812500e-02) (77, 4.06306013464927673340e-02) (78, -5.78078329563140869141e-02) (79, 9.83079522848129272461e-02) (80, 3.30398529767990112305e-02) (81, -4.41218819469213485718e-03) (82, 2.65611577779054641724e-02) (83, 4.86208721995353698730e-02) (84, 1.76104810088872909546e-02) (85, -2.00594421476125717163e-02) (86, 3.94193641841411590576e-03) (87, 1.77876942325383424759e-03) (88, 2.69281845539808273315e-02) (89, 3.48233580589294433594e-02) (90, -2.23838668316602706909e-02) (91, -1.30835715681314468384e-02) (92, -7.30843544006347656250e-02) (93, -5.26005104184150695801e-02) (94, 9.02738571166992187500e-02) (95, 2.69823875278234481812e-02) (96, 1.42404511570930480957e-02) (97, 7.95368403196334838867e-02) (98, -8.29258412122726440430e-02) (99, -1.66143272072076797485e-02) (100, 7.95879773795604705811e-03) (0, 1.64033398032188415527e-01) (1, 3.50599363446235656738e-02) (2, 1.84851035475730895996e-01) (3, 1.84960708022117614746e-01) (4, 1.03207647800445556641e-01) (5, 1.60093948245048522949e-01) (6, 1.44653722643852233887e-01) (7, 4.75003495812416076660e-02) (8, 1.91752180457115173340e-01) (9, 1.22228920459747314453e-01) (10, 1.22097611427307128906e-01) (11, 3.41866165399551391602e-02) (12, -1.28933193627744913101e-03) (13, 5.73342218995094299316e-02) (14, 1.35535493493080139160e-01) (15, 6.54502138495445251465e-02) (16, -5.00070452690124511719e-02) (17, 3.37359309196472167969e-02) (18, -2.43544043041765689850e-03) (19, 7.30643570423126220703e-02) (20, 5.59195801615715026855e-02) (21, 3.20365726947784423828e-02) (22, 4.97907921671867370605e-02) (23, -9.38801020383834838867e-02) (24, 1.13257989287376403809e-02) (25, -1.72868352383375167847e-02) (26, 1.73074509948492050171e-02) (27, -2.23061870783567428589e-02) (28, -1.09993126243352890015e-02) (29, 9.24585014581680297852e-02) (30, 8.50165039300918579102e-02) (31, -4.42947074770927429199e-02) (32, -8.61151516437530517578e-02) (33, 8.05375427007675170898e-02) (34, -6.14501461386680603027e-02) (35, 3.24414148926734924316e-02) (36, 3.84257361292839050293e-02) (37, 9.78483706712722778320e-02) (38, 6.77980184555053710938e-02) (39, 4.01986539363861083984e-02) (40, 1.01617369800806045532e-02) (41, 3.43857556581497192383e-02) (42, -8.82861912250518798828e-02) (43, 7.26887434720993041992e-02) (44, -5.00876680016517639160e-02) (45, -8.76674205064773559570e-02) (46, -3.42440162785351276398e-03) (47, -3.75694110989570617676e-02) (48, -4.17234282940626144409e-03) (49, 4.65432181954383850098e-02) (50, -1.11936673521995544434e-01) (51, -5.85814863443374633789e-02) (52, -3.64399477839469909668e-02) (53, 3.45987677574157714844e-02) (54, -5.28387725353240966797e-02) (55, -1.22934117913246154785e-01) (56, -8.21760147809982299805e-02) (57, 5.64697906374931335449e-02) (58, -4.14242148399353027344e-02) (59, 5.81422704271972179413e-04) (60, 3.76432463526725769043e-02) (61, -5.69837838411331176758e-02) (62, 6.03219643235206604004e-02) (63, -1.32869258522987365723e-01) (64, -6.41897097229957580566e-02) (65, -8.54338556528091430664e-02) (66, 6.31258450448513031006e-03) (67, -1.07678443193435668945e-01) (68, -7.57040828466415405273e-02) (69, -5.26364240795373916626e-03) (70, 4.09557595849037170410e-02) (71, 5.09912297129631042480e-02) (72, -6.69350326061248779297e-02) (73, -1.24584227800369262695e-01) (74, 3.59164923429489135742e-02) (75, 7.61415110900998115540e-04) (76, -9.93939042091369628906e-02) (77, -4.03890833258628845215e-02) (78, -1.24386295676231384277e-01) (79, 1.53753459453582763672e-02) (80, -7.98859000205993652344e-02) (81, -1.12831398844718933105e-01) (82, -1.08702525496482849121e-01) (83, 1.26656815409660339355e-02) (84, 4.33169230818748474121e-02) (85, -3.35608050227165222168e-02) (86, 9.88800078630447387695e-03) (87, -1.12114802002906799316e-01) (88, -4.96062785387039184570e-02) (89, -1.01282879710197448730e-01) (90, 2.88385134190320968628e-02) (91, -6.67915493249893188477e-02) (92, -1.57515984028577804565e-02) (93, 2.58538480848073959351e-02) (94, -6.85733854770660400391e-02) (95, 6.08874186873435974121e-02) (96, -1.20770812034606933594e-01) (97, 6.78077638149261474609e-02) (98, -1.09213441610336303711e-01) (99, -6.93470835685729980469e-02) (100, 2.28578876703977584839e-02) (0, 1.33764043450355529785e-01) (1, -6.51350012049078941345e-03) (2, 1.45958155393600463867e-01) (3, 1.44625574350357055664e-01) (4, -4.09072861075401306152e-02) (5, 8.29409435391426086426e-02) (6, -2.75026969611644744873e-02) (7, 5.81646114587783813477e-02) (8, 9.71439853310585021973e-02) (9, 1.20435081422328948975e-01) (10, 6.79117813706398010254e-02) (11, 7.93896391987800598145e-02) (12, 1.05786852538585662842e-01) (13, 6.68924403726123273373e-05) (14, 5.52523359656333923340e-02) (15, -4.44816006347537040710e-03) (16, -6.07678964734077453613e-02) (17, 7.36717358231544494629e-02) (18, 8.32956656813621520996e-02) (19, -3.07961814105510711670e-02) (20, -6.45513692870736122131e-03) (21, -8.97988602519035339355e-02) (22, 5.73562905192375183105e-02) (23, -4.90518882870674133301e-02) (24, -3.28682735562324523926e-02) (25, 4.53588068485260009766e-02) (26, -4.56157252192497253418e-02) (27, -3.84292602539062500000e-02) (28, 4.52562496066093444824e-02) (29, 7.18613294884562492371e-03) (30, 8.39431658387184143066e-02) (31, 2.72924229502677917480e-02) (32, 4.71376106142997741699e-02) (33, 7.75095596909523010254e-02) (34, 1.30456518381834030151e-02) (35, 6.49909302592277526855e-02) (36, 6.59482041373848915100e-03) (37, 4.26619648933410644531e-02) (38, -3.81539165973663330078e-02) (39, -4.81981933116912841797e-02) (40, 6.49015931412577629089e-03) (41, -8.54240730404853820801e-02) (42, -8.82794931530952453613e-02) (43, 1.19471247307956218719e-03) (44, 1.56474951654672622681e-03) (45, 5.60489892959594726562e-02) (46, -1.13841123878955841064e-01) (47, 3.21203842759132385254e-02) (48, 1.13704297691583633423e-02) (49, 5.31025901436805725098e-02) (50, -1.08779005706310272217e-01) (51, -8.13926383852958679199e-02) (52, 7.23607465624809265137e-02) (53, 6.19118213653564453125e-02) (54, -1.84556730091571807861e-02) (55, -4.53633219003677368164e-02) (56, 2.06576995551586151123e-02) (57, 4.58759292960166931152e-02) (58, 3.09791341423988342285e-02) (59, -2.04706080257892608643e-02) (60, -3.53247374296188354492e-02) (61, 2.66316868364810943604e-02) (62, -7.94884935021400451660e-02) (63, -7.18221589922904968262e-02) (64, 1.87741629779338836670e-02) (65, 4.86779883503913879395e-02) (66, -9.57763716578483581543e-02) (67, -5.63006699085235595703e-02) (68, 5.60720311477780342102e-03) (69, -1.68718323111534118652e-02) (70, 7.23881972953677177429e-03) (71, -7.47619196772575378418e-02) (72, 5.33564155921339988708e-03) (73, 3.52566167712211608887e-02) (74, 3.87851893901824951172e-02) (75, -7.75121077895164489746e-02) (76, 2.70504830405116081238e-03) (77, 4.30331230163574218750e-02) (78, 6.58772215247154235840e-02) (79, -6.76337406039237976074e-02) (80, 9.52935777604579925537e-03) (81, 7.14966580271720886230e-02) (82, -3.19794714450836181641e-02) (83, -1.64833385497331619263e-03) (84, 4.78115603327751159668e-02) (85, 6.53725489974021911621e-02) (86, 6.77556023001670837402e-02) (87, -1.52451433241367340088e-02) (88, 2.87347696721553802490e-02) (89, 1.69541500508785247803e-02) (90, -1.14532090723514556885e-01) (91, -8.43468233942985534668e-02) (92, -3.73261645436286926270e-02) (93, -7.54527524113655090332e-02) (94, -4.07933890819549560547e-02) (95, -9.64596197009086608887e-02) (96, -1.07063509523868560791e-01) (97, -1.99601650238037109375e-02) (98, -3.42913568019866943359e-02) (99, 1.45165156573057174683e-02) (100, 1.06452815234661102295e-01) (0, -7.71248266100883483887e-02) (1, 9.29301902651786804199e-02) (2, 3.94116379320621490479e-02) (3, 7.79352411627769470215e-02) (4, 4.99081723392009735107e-02) (5, 8.10276940464973449707e-02) (6, 8.41676024720072746277e-04) (7, 1.40485977753996849060e-02) (8, 7.06993415951728820801e-02) (9, 4.79387827217578887939e-02) (10, -6.84586837887763977051e-02) (11, 5.34969680011272430420e-02) (12, -7.27256610989570617676e-02) (13, 4.58475537598133087158e-02) (14, 2.18423102051019668579e-02) (15, -8.88802632689476013184e-02) (16, 3.09197399765253067017e-02) (17, -7.42828175425529479980e-02) (18, 6.02412335574626922607e-02) (19, -3.22331152856349945068e-02) (20, -7.96508416533470153809e-02) (21, 8.80246236920356750488e-02) (22, 4.69742529094219207764e-02) (23, -3.49480994045734405518e-02) (24, -3.30692119896411895752e-02) (25, 6.82363286614418029785e-02) (26, -2.46836896985769271851e-02) (27, 6.65899291634559631348e-02) (28, -5.12974821031093597412e-02) (29, -9.15125980973243713379e-02) (30, 6.76367953419685363770e-02) (31, -4.34605814516544342041e-02) (32, 8.60019102692604064941e-02) (33, -6.44869264215230941772e-03) (34, -8.01835134625434875488e-02) (35, 2.49113719910383224487e-02) (36, -3.73726226389408111572e-02) (37, 7.93817173689603805542e-03) (38, -8.14387872815132141113e-02) (39, -8.21147486567497253418e-02) (40, -5.53435347974300384521e-02) (41, -5.18896542489528656006e-02) (42, 6.61583617329597473145e-02) (43, -3.51428873836994171143e-02) (44, 8.58863070607185363770e-02) (45, -1.57421324402093887329e-02) (46, -2.92470250278711318970e-02) (47, 1.54926730319857597351e-02) (48, -5.72702731005847454071e-04) (49, -7.22248777747154235840e-02) (50, 7.77512118220329284668e-02) (51, 2.13175434619188308716e-02) (52, -8.68322476744651794434e-02) (53, 2.53688115626573562622e-02) (54, 8.52326080203056335449e-02) (55, -1.93354692310094833374e-02) (56, -7.61836860328912734985e-03) (57, -4.10769097506999969482e-02) (58, -5.16686551272869110107e-02) (59, 4.26783226430416107178e-02) (60, -3.13209481537342071533e-02) (61, -8.44065174460411071777e-02) (62, 9.92915555834770202637e-02) (63, -4.61393408477306365967e-02) (64, 7.64038041234016418457e-03) (65, -8.19646343588829040527e-02) (66, 7.48151466250419616699e-02) (67, 7.07953199744224548340e-02) (68, 2.28301268070936203003e-02) (69, 9.47206988930702209473e-02) (70, 8.56629535555839538574e-02) (71, 6.01393468677997589111e-02) (72, -6.26213923096656799316e-02) (73, 5.13939522206783294678e-02) (74, -7.59037658572196960449e-02) (75, -7.64703527092933654785e-02) (76, -7.11845234036445617676e-02) (77, -4.72587160766124725342e-03) (78, 3.68931479752063751221e-02) (79, 3.25841493904590606689e-02) (80, 2.00969856232404708862e-02) (81, 1.29254190251231193542e-02) (82, -4.99365068972110748291e-02) (83, 2.97970417886972427368e-02) (84, -6.39716163277626037598e-02) (85, -6.84802904725074768066e-02) (86, -8.74294117093086242676e-02) (87, 2.69374493509531021118e-02) (88, -8.17529577761888504028e-03) (89, -4.08176220953464508057e-02) (90, -3.38620282709598541260e-02) (91, 5.69468028843402862549e-02) (92, -3.33747453987598419189e-02) (93, -3.51500324904918670654e-02) (94, -9.42644104361534118652e-02) (95, 7.43204876780509948730e-02) (96, -2.07159984856843948364e-02) (97, 8.09262618422508239746e-02) (98, 4.09368686378002166748e-02) (99, -9.75878015160560607910e-02) (100, 7.83626660704612731934e-02) (0, 2.51581240445375442505e-02) (1, 6.12953603267669677734e-02) (2, -9.09055545926094055176e-02) (3, -2.38129924982786178589e-02) (4, 8.72706621885299682617e-02) (5, -6.70228376984596252441e-02) (6, 8.01528431475162506104e-03) (7, -1.80586967617273330688e-02) (8, 7.11353123188018798828e-02) (9, -6.06551989912986755371e-02) (10, -9.03346687555313110352e-02) (11, -9.00704041123390197754e-03) (12, -1.50382926221936941147e-03) (13, 4.37698215246200561523e-02) (14, 2.90119815617799758911e-02) (15, 3.49914729595184326172e-02) (16, 5.71874752640724182129e-02) (17, -4.07988876104354858398e-02) (18, -7.01914057135581970215e-02) (19, -8.19391161203384399414e-02) (20, 3.40750664472579956055e-02) (21, 9.51183289289474487305e-02) (22, -4.62164357304573059082e-03) (23, -9.72001925110816955566e-02) (24, -9.21512022614479064941e-02) (25, -2.54183467477560043335e-02) (26, -1.20436102151870727539e-02) (27, 9.38440561294555664062e-02) (28, -7.67920985817909240723e-02) (29, -4.25122212618589401245e-03) (30, 7.33340680599212646484e-02) (31, 5.56061565876007080078e-02) (32, -3.54989916086196899414e-02) (33, 9.16808545589447021484e-02) (34, -5.86368218064308166504e-02) (35, -4.03411686420440673828e-02) (36, -6.59364238381385803223e-02) (37, 5.76816424727439880371e-02) (38, 5.05251362919807434082e-02) (39, -8.64814668893814086914e-02) (40, -9.34817269444465637207e-02) (41, 6.25505000352859497070e-02) (42, 6.40836171805858612061e-03) (43, 6.70864339917898178101e-03) (44, 8.28073546290397644043e-03) (45, -6.20287954807281494141e-02) (46, -5.60681894421577453613e-02) (47, -3.17258164286613464355e-02) (48, -5.52250712644308805466e-04) (49, -2.35641915351152420044e-02) (50, -1.20468344539403915405e-02) (51, -6.79500326514244079590e-02) (52, -3.03967464715242385864e-02) (53, 8.16165953874588012695e-02) (54, -6.66385516524314880371e-02) (55, -2.41362955421209335327e-02) (56, -4.52013760805130004883e-02) (57, 1.95740852504968643188e-02) (58, -3.14646661281585693359e-02) (59, -2.38660071045160293579e-02) (60, -8.56473520398139953613e-02) (61, -5.89707568287849426270e-02) (62, -6.83684721589088439941e-02) (63, -2.21356581896543502808e-02) (64, -6.76041916012763977051e-02) (65, -2.81192194670438766479e-02) (66, 3.73166799545288085938e-02) (67, -3.45145612955093383789e-02) (68, -7.09290429949760437012e-02) (69, -1.21887568384408950806e-02) (70, -2.18029711395502090454e-02) (71, -6.50711283087730407715e-02) (72, -5.03000244498252868652e-02) (73, 8.44135284423828125000e-02) (74, 4.10822108387947082520e-02) (75, 5.84732219576835632324e-02) (76, -7.77670741081237792969e-02) (77, 8.52295458316802978516e-02) (78, -7.32980296015739440918e-02) (79, 2.17845123261213302612e-02) (80, -3.87798324227333068848e-02) (81, 1.46460570394992828369e-02) (82, 5.35806268453598022461e-02) (83, 3.11830732971429824829e-02) (84, -3.39581002481281757355e-03) (85, 8.67655128240585327148e-02) (86, -9.23271328210830688477e-02) (87, 5.17460256814956665039e-02) (88, 6.83266483247280120850e-03) (89, -2.39976178854703903198e-02) (90, -7.16542452573776245117e-02) (91, 2.08110418170690536499e-02) (92, 1.72501672059297561646e-02) (93, -4.03502956032752990723e-02) (94, 9.88249480724334716797e-02) (95, 4.98340949416160583496e-02) (96, 3.17015573382377624512e-02) (97, 3.62620204687118530273e-02) (98, -8.48516300320625305176e-02) (99, 6.08033612370491027832e-02) (100, -7.47023001313209533691e-02) (0, -1.39646947383880615234e-01) (1, -5.37133812904357910156e-02) (2, -1.55331507325172424316e-01) (3, -1.62094816565513610840e-01) (4, -9.35599431395530700684e-02) (5, -1.95433780550956726074e-01) (6, -1.37177571654319763184e-01) (7, -1.24117068946361541748e-01) (8, -1.71893909573554992676e-01) (9, -2.00977042317390441895e-01) (10, -3.32801342010498046875e-02) (11, -3.60637158155441284180e-02) (12, -3.38642597198486328125e-02) (13, -9.04116407036781311035e-02) (14, -1.25372320413589477539e-01) (15, -3.31533029675483703613e-02) (16, -7.57334008812904357910e-02) (17, -1.83650508522987365723e-01) (18, -1.41119375824928283691e-01) (19, -1.95969238877296447754e-01) (20, -9.89087000489234924316e-02) (21, 2.99496501684188842773e-02) (22, -3.23640331625938415527e-02) (23, -5.00642359256744384766e-02) (24, 4.13116961717605590820e-02) (25, -9.21438559889793395996e-02) (26, -1.16316370666027069092e-01) (27, -1.16442600265145301819e-02) (28, -6.41354545950889587402e-02) (29, -1.52561679482460021973e-01) (30, 2.93186493217945098877e-02) (31, 5.99997192621231079102e-02) (32, -1.13149113953113555908e-01) (33, -9.93205085396766662598e-02) (34, -5.93593865633010864258e-02) (35, 1.75071544945240020752e-02) (36, -4.91542071104049682617e-02) (37, 2.59331874549388885498e-02) (38, -4.01782765984535217285e-02) (39, 5.21659851074218750000e-03) (40, 9.07350853085517883301e-02) (41, -4.52749654650688171387e-02) (42, 1.30648827180266380310e-02) (43, 5.68592175841331481934e-02) (44, 7.03459009528160095215e-02) (45, 6.93778619170188903809e-02) (46, 2.57853083312511444092e-02) (47, -1.66823118925094604492e-02) (48, 1.00135169923305511475e-01) (49, 8.74481722712516784668e-02) (50, 1.37741798534989356995e-02) (51, -1.30228670313954353333e-02) (52, 1.16650871932506561279e-01) (53, -5.73761835694313049316e-02) (54, 9.20240208506584167480e-02) (55, 1.08879543840885162354e-01) (56, 5.68928755819797515869e-03) (57, -5.66527768969535827637e-02) (58, 4.25121188163757324219e-02) (59, 1.07084341347217559814e-01) (60, -3.44903841614723205566e-02) (61, 1.31992390379309654236e-02) (62, 9.77199152112007141113e-02) (63, -3.79750728607177734375e-02) (64, 2.67568826675415039062e-02) (65, 1.49804547429084777832e-01) (66, 9.81969162821769714355e-02) (67, 8.13979580998420715332e-02) (68, 9.05788317322731018066e-02) (69, -4.89006713032722473145e-02) (70, 5.19129633903503417969e-03) (71, 8.26465710997581481934e-02) (72, 2.72379070520401000977e-02) (73, 1.04694403707981109619e-01) (74, 4.06140536069869995117e-02) (75, -1.81623287498950958252e-02) (76, 7.86321833729743957520e-02) (77, 1.41910448670387268066e-01) (78, 7.12690427899360656738e-02) (79, 6.05580136179924011230e-02) (80, 1.31001219153404235840e-01) (81, 1.51147767901420593262e-01) (82, 1.02484039962291717529e-01) (83, 1.07022888958454132080e-01) (84, -3.68799865245819091797e-02) (85, 6.04837387800216674805e-02) (86, 8.37326869368553161621e-02) (87, 3.29902693629264831543e-02) (88, 6.12367838621139526367e-02) (89, -1.39058036729693412781e-02) (90, -1.92978158593177795410e-02) (91, 5.85907772183418273926e-02) (92, 3.58670875430107116699e-02) (93, 1.19636707007884979248e-01) (94, 7.46731385588645935059e-02) (95, 9.54220071434974670410e-02) (96, 1.09666727483272552490e-01) (97, 2.36842557787895202637e-02) (98, 2.36669890582561492920e-02) (99, 5.53587302565574645996e-02) (100, -9.72714927047491073608e-03) (0, 6.22668936848640441895e-02) (1, -5.18791154026985168457e-02) (2, 5.38579300045967102051e-02) (3, 1.28124719485640525818e-02) (4, 2.55446173250675201416e-02) (5, 7.58171901106834411621e-02) (6, -6.98214694857597351074e-02) (7, 2.29903869330883026123e-02) (8, -1.25162722542881965637e-02) (9, 3.79250496625900268555e-02) (10, -1.00817577913403511047e-02) (11, -2.90049985051155090332e-02) (12, -2.49395780265331268311e-02) (13, -4.73097115755081176758e-02) (14, -2.13195942342281341553e-02) (15, 8.56755897402763366699e-02) (16, 8.74213054776191711426e-02) (17, 5.76003566384315490723e-02) (18, -3.45363374799489974976e-03) (19, -8.11082199215888977051e-02) (20, -1.09737835824489593506e-01) (21, -9.36827138066291809082e-02) (22, -5.51033392548561096191e-03) (23, 6.74062743782997131348e-02) (24, 3.39141637086868286133e-02) (25, -4.76310849189758300781e-02) (26, 3.35882753133773803711e-02) (27, -9.22223553061485290527e-02) (28, 4.51162606477737426758e-02) (29, -5.51976338028907775879e-02) (30, -5.08941803127527236938e-03) (31, 8.31074197776615619659e-04) (32, -1.12685943022370338440e-02) (33, -6.38686567544937133789e-02) (34, -9.95017215609550476074e-02) (35, -9.58143398165702819824e-02) (36, -9.71470698714256286621e-02) (37, -8.08564051985740661621e-02) (38, 1.50433303788304328918e-02) (39, -2.35481485724449157715e-02) (40, 5.01385107636451721191e-02) (41, -8.83947387337684631348e-02) (42, 5.49628958106040954590e-02) (43, -7.12515637278556823730e-02) (44, -3.22471261024475097656e-02) (45, -6.56751766800880432129e-02) (46, -8.15297886729240417480e-02) (47, -4.19554561376571655273e-02) (48, 9.47210118174552917480e-02) (49, 1.81578062474727630615e-02) (50, -1.46591989323496818542e-02) (51, 1.00607655942440032959e-01) (52, 3.98253947496414184570e-02) (53, 9.21162888407707214355e-02) (54, 7.69392326474189758301e-02) (55, -1.68176032602787017822e-02) (56, -4.61860746145248413086e-02) (57, 2.17891372740268707275e-02) (58, -9.11375973373651504517e-05) (59, -8.80015566945075988770e-02) (60, 7.98828676342964172363e-02) (61, 1.02266646921634674072e-01) (62, 1.86263136565685272217e-02) (63, -2.81963385641574859619e-02) (64, -5.86736872792243957520e-02) (65, 2.29077935218811035156e-02) (66, -2.28465422987937927246e-02) (67, -5.30525222420692443848e-02) (68, 4.43488806486129760742e-02) (69, 9.27063599228858947754e-02) (70, 2.61835083365440368652e-02) (71, -6.19351956993341445923e-03) (72, 1.06417961418628692627e-01) (73, -1.88910812139511108398e-02) (74, 2.43599303066730499268e-02) (75, -2.71811150014400482178e-02) (76, 1.46764786913990974426e-02) (77, 4.12813723087310791016e-02) (78, 3.23349088430404663086e-02) (79, 9.72261186689138412476e-03) (80, -3.99037152528762817383e-02) (81, -8.63795056939125061035e-02) (82, 4.64348960667848587036e-03) (83, 9.40007045865058898926e-02) (84, 1.01617209613323211670e-01) (85, -2.22604610025882720947e-02) (86, -2.48567610979080200195e-02) (87, -4.91501912474632263184e-02) (88, 9.48466435074806213379e-02) (89, 7.08557888865470886230e-02) (90, -4.46907654404640197754e-02) (91, 6.62832334637641906738e-02) (92, 6.25955089926719665527e-02) (93, 6.76024779677391052246e-02) (94, -6.83807209134101867676e-02) (95, 9.63587388396263122559e-02) (96, -1.74831785261631011963e-02) (97, 3.77136841416358947754e-03) (98, -6.27893730998039245605e-02) (99, -7.72532001137733459473e-02) (100, -1.24352993443608283997e-02) (0, -1.07012793421745300293e-01) (1, -1.77993610501289367676e-01) (2, -1.73845931887626647949e-01) (3, -2.38851830363273620605e-01) (4, -2.33247473835945129395e-01) (5, -1.08735457062721252441e-01) (6, -1.28944888710975646973e-01) (7, -1.21615484356880187988e-01) (8, -1.84264674782752990723e-01) (9, -2.07575753331184387207e-01) (10, -2.42610022425651550293e-01) (11, -1.64101615548133850098e-01) (12, -1.06970563530921936035e-01) (13, -2.37526580691337585449e-01) (14, -1.49518057703971862793e-01) (15, -2.10384741425514221191e-01) (16, -1.58318653702735900879e-01) (17, -1.24064818024635314941e-01) (18, -2.40736111998558044434e-01) (19, -1.94001093506813049316e-01) (20, -6.63148413877934217453e-04) (21, -2.05815304070711135864e-02) (22, -1.75943657755851745605e-01) (23, -4.91503402590751647949e-02) (24, -1.70305117964744567871e-01) (25, -1.93033590912818908691e-01) (26, -1.64385154843330383301e-01) (27, -5.59669956564903259277e-02) (28, -1.40284076333045959473e-01) (29, -1.44230291247367858887e-01) (30, 6.08122944831848144531e-02) (31, 7.03848451375961303711e-02) (32, 3.63764315843582153320e-02) (33, -5.66710457205772399902e-02) (34, -9.28728282451629638672e-02) (35, 5.48488944768905639648e-02) (36, -7.52189159393310546875e-02) (37, 3.10020092874765396118e-02) (38, 4.68470901250839233398e-02) (39, -3.15921381115913391113e-03) (40, -5.87800145149230957031e-02) (41, 8.08611065149307250977e-02) (42, -6.35883659124374389648e-02) (43, 7.53752142190933227539e-02) (44, 8.99729728698730468750e-02) (45, -1.38638669159263372421e-03) (46, 1.05664774775505065918e-01) (47, -4.74575832486152648926e-02) (48, -5.96030429005622863770e-02) (49, -9.45793837308883666992e-02) (50, 4.52595353126525878906e-02) (51, -2.21886765211820602417e-02) (52, 1.40603050589561462402e-01) (53, 6.78567290306091308594e-02) (54, 1.15371197462081909180e-01) (55, 1.49248167872428894043e-01) (56, 6.03599622845649719238e-02) (57, 1.58832028508186340332e-01) (58, 6.65510892868041992188e-02) (59, 1.24509215354919433594e-01) (60, 3.55593338608741760254e-02) (61, 9.26348716020584106445e-02) (62, 1.41924276947975158691e-01) (63, -1.15353250876069068909e-02) (64, 1.55995264649391174316e-01) (65, 1.68560013175010681152e-01) (66, 1.68428704142570495605e-01) (67, -1.14469910040497779846e-02) (68, 1.24004796147346496582e-01) (69, 1.06837540864944458008e-01) (70, 1.15129068493843078613e-01) (71, 1.67704150080680847168e-01) (72, 1.19579911231994628906e-01) (73, 1.30984351038932800293e-01) (74, 1.45959034562110900879e-01) (75, 8.46822410821914672852e-02) (76, 3.71029078960418701172e-02) (77, 1.14636868238449096680e-01) (78, 1.45136579871177673340e-01) (79, 4.86810281872749328613e-02) (80, 1.22818484902381896973e-01) (81, 3.83499711751937866211e-02) (82, 5.76500967144966125488e-02) (83, 1.01244494318962097168e-01) (84, 1.56926110386848449707e-01) (85, 2.20338460057973861694e-02) (86, 1.01163834333419799805e-01) (87, 6.10046386718750000000e-02) (88, 1.35212438181042671204e-02) (89, 7.41868512704968452454e-03) (90, -4.63266158476471900940e-03) (91, 4.42000031471252441406e-02) (92, 1.01259693503379821777e-01) (93, 1.46825149655342102051e-01) (94, 6.14671707153320312500e-02) (95, 5.46834915876388549805e-02) (96, 1.25209912657737731934e-01) (97, 5.57609349489212036133e-02) (98, 6.41301125288009643555e-02) (99, 8.12134295701980590820e-02) (100, -7.36553370952606201172e-02) (0, -7.66656398773193359375e-02) (1, -3.74942198395729064941e-02) (2, 5.15665905550122261047e-03) (3, -1.28554403781890869141e-01) (4, -8.50684046745300292969e-02) (5, -1.02958142757415771484e-01) (6, -8.40028673410415649414e-02) (7, 5.56621626019477844238e-02) (8, 4.80769574642181396484e-02) (9, -9.14745405316352844238e-03) (10, 4.40182015299797058105e-02) (11, -5.77992796897888183594e-02) (12, 1.08816176652908325195e-01) (13, -1.90242696553468704224e-02) (14, -9.00828838348388671875e-02) (15, -4.84976544976234436035e-02) (16, 1.05224788188934326172e-01) (17, -5.64511539414525032043e-03) (18, -1.37919522821903228760e-02) (19, -7.01413005590438842773e-02) (20, 4.38213348388671875000e-02) (21, 8.18698704242706298828e-02) (22, 6.05142489075660705566e-02) (23, 1.98774207383394241333e-02) (24, -3.42722088098526000977e-02) (25, -4.22547087073326110840e-02) (26, -1.89324487000703811646e-02) (27, 4.31192368268966674805e-02) (28, 7.49149322509765625000e-02) (29, 9.60781872272491455078e-02) (30, 5.35279214382171630859e-02) (31, -8.16608220338821411133e-02) (32, -2.35888939350843429565e-02) (33, -1.05599369853734970093e-02) (34, -7.66359865665435791016e-02) (35, 1.73778738826513290405e-02) (36, 1.30865722894668579102e-02) (37, -3.22386994957923889160e-02) (38, 7.03301141038537025452e-03) (39, -6.50775292888283729553e-03) (40, 7.80541002750396728516e-02) (41, -6.54345899820327758789e-02) (42, 2.05893237143754959106e-02) (43, 7.99732208251953125000e-02) (44, 9.58656333386898040771e-03) (45, 2.50736903399229049683e-02) (46, -7.61891305446624755859e-02) (47, 6.58427225425839424133e-03) (48, -8.32950174808502197266e-02) (49, 1.76268920768052339554e-03) (50, 1.82175617665052413940e-02) (51, 2.67178546637296676636e-02) (52, -4.71891611814498901367e-02) (53, -4.68037873506546020508e-02) (54, -7.40508139133453369141e-02) (55, -4.12135897204279899597e-03) (56, -1.06037352234125137329e-02) (57, -1.63318645209074020386e-02) (58, -8.28718990087509155273e-02) (59, -6.18905723094940185547e-02) (60, -4.78176623582839965820e-02) (61, 5.58670088648796081543e-02) (62, -5.77803552150726318359e-02) (63, 2.00893972069025039673e-02) (64, -6.26825243234634399414e-02) (65, -4.42898049950599670410e-02) (66, -6.60917311906814575195e-02) (67, 4.11660224199295043945e-02) (68, 1.72792617231607437134e-02) (69, 3.38067933917045593262e-02) (70, -7.18224644660949707031e-02) (71, -9.00874554645270109177e-04) (72, 6.78797960281372070312e-02) (73, 4.68506366014480590820e-02) (74, -2.41788048297166824341e-02) (75, -2.23477464169263839722e-02) (76, -2.49506030231714248657e-02) (77, -1.10629003029316663742e-03) (78, 8.20776969194412231445e-02) (79, -1.32645890116691589355e-02) (80, -1.00294515490531921387e-01) (81, 8.56037996709346771240e-03) (82, -7.55902826786041259766e-02) (83, -3.57264354825019836426e-02) (84, 7.10418224334716796875e-02) (85, -4.12043854594230651855e-02) (86, 6.43510073423385620117e-02) (87, -3.08510717004537582397e-02) (88, 5.00899404287338256836e-02) (89, 8.97343009710311889648e-02) (90, 2.03703027218580245972e-02) (91, -8.16701203584671020508e-02) (92, 6.63786381483078002930e-02) (93, 7.46371299028396606445e-02) (94, 5.26350662112236022949e-02) (95, -8.34632366895675659180e-02) (96, -5.40342554450035095215e-02) (97, 9.66821461915969848633e-02) (98, 7.00980871915817260742e-02) (99, 7.18848705291748046875e-02) (100, 4.58172485232353210449e-02) (0, -9.49877649545669555664e-02) (1, -9.71143133938312530518e-03) (2, 2.33638305217027664185e-02) (3, 6.49895220994949340820e-02) (4, 7.27065950632095336914e-02) (5, -8.86101871728897094727e-02) (6, -5.17597310245037078857e-02) (7, -1.93185973912477493286e-02) (8, -9.75843518972396850586e-02) (9, 4.72693331539630889893e-02) (10, 5.27896769344806671143e-02) (11, 7.93282836675643920898e-02) (12, 1.40637040138244628906e-01) (13, 1.18468120694160461426e-01) (14, 5.08948750793933868408e-02) (15, 1.20565237011760473251e-03) (16, 8.59264731407165527344e-02) (17, 1.36731132864952087402e-01) (18, 1.55832052230834960938e-01) (19, 8.81736278533935546875e-02) (20, 7.68152177333831787109e-02) (21, -4.86956094391644001007e-04) (22, 7.06212297081947326660e-02) (23, 5.45062683522701263428e-02) (24, 1.39067977666854858398e-01) (25, 8.76252353191375732422e-02) (26, 9.91845875978469848633e-02) (27, 1.34527489542961120605e-01) (28, 5.81171624362468719482e-02) (29, 7.94010460376739501953e-02) (30, 5.58873079717159271240e-02) (31, 2.48119737952947616577e-02) (32, 1.15526914596557617188e-01) (33, -1.80909689515829086304e-02) (34, -1.03018563240766525269e-02) (35, 8.32960754632949829102e-02) (36, -2.13996563106775283813e-02) (37, 3.57422940433025360107e-02) (38, -4.78564836084842681885e-02) (39, -1.53078250586986541748e-02) (40, -4.72065247595310211182e-02) (41, 2.37001534551382064819e-02) (42, 7.55585730075836181641e-02) (43, -6.73836171627044677734e-02) (44, -2.04319078475236892700e-02) (45, -1.90031696110963821411e-02) (46, -3.01068853586912155151e-02) (47, 1.13906651735305786133e-01) (48, -4.56034131348133087158e-02) (49, -2.89881434291601181030e-02) (50, 1.13824084401130676270e-02) (51, 2.48393472284078598022e-02) (52, -4.45779152214527130127e-02) (53, -1.03377014398574829102e-01) (54, -9.39646661281585693359e-02) (55, -7.46812373399734497070e-02) (56, 1.24263092875480651855e-02) (57, 2.36387792974710464478e-02) (58, -1.06439203023910522461e-01) (59, -1.17476880550384521484e-01) (60, -9.03641581535339355469e-02) (61, -7.00561515986919403076e-03) (62, -4.05234582722187042236e-02) (63, -1.07178986072540283203e-01) (64, 4.17335741221904754639e-02) (65, 1.29528921097517013550e-02) (66, 4.97574843466281890869e-02) (67, -1.12188115715980529785e-01) (68, -8.62392187118530273438e-02) (69, 8.24577808380126953125e-02) (70, -6.27863034605979919434e-02) (71, -5.10398931801319122314e-02) (72, -2.55515407770872116089e-02) (73, -9.95984971523284912109e-02) (74, -3.90780083835124969482e-02) (75, 5.14709688723087310791e-02) (76, -3.56474108994007110596e-02) (77, 2.86155324429273605347e-02) (78, 4.29248325526714324951e-02) (79, 1.22041199356317520142e-02) (80, -1.21640637516975402832e-01) (81, -3.36419232189655303955e-02) (82, -4.51319552958011627197e-02) (83, -4.57949377596378326416e-02) (84, -2.34283562749624252319e-02) (85, -2.87628453224897384644e-02) (86, -9.62146744132041931152e-03) (87, -9.62577164173126220703e-02) (88, -8.58802944421768188477e-02) (89, -1.06743059586733579636e-03) (90, -8.34818184375762939453e-02) (91, -3.80550958216190338135e-02) (92, -6.96692317724227905273e-02) (93, 7.30311218649148941040e-03) (94, -1.97795536369085311890e-02) (95, -9.28765088319778442383e-02) (96, -4.78060506284236907959e-02) (97, -4.78950850665569305420e-02) (98, -8.06328952312469482422e-02) (99, -1.27307903021574020386e-02) (100, -3.66790778934955596924e-02) (0, -1.14495428279042243958e-02) (1, 8.90881195664405822754e-02) (2, 8.73918309807777404785e-02) (3, 1.84799190610647201538e-02) (4, -1.96072664111852645874e-02) (5, 6.69180229306221008301e-02) (6, -8.71330425143241882324e-02) (7, -6.85723945498466491699e-02) (8, 3.87900844216346740723e-02) (9, 4.98394891619682312012e-02) (10, -2.54221055656671524048e-02) (11, -2.97813694924116134644e-02) (12, -3.01863979548215866089e-02) (13, 4.34189215302467346191e-02) (14, 6.66073933243751525879e-02) (15, 5.71535155177116394043e-02) (16, -4.52960953116416931152e-02) (17, 1.01800031960010528564e-01) (18, 9.58462283015251159668e-02) (19, 7.99042060971260070801e-02) (20, 1.40055045485496520996e-01) (21, -1.48064922541379928589e-02) (22, 1.37940838932991027832e-01) (23, 6.60015717148780822754e-02) (24, 7.51179829239845275879e-02) (25, -3.85655835270881652832e-02) (26, 1.29436299204826354980e-01) (27, -5.30124679207801818848e-02) (28, -1.24960513785481452942e-02) (29, 3.79593595862388610840e-02) (30, 1.84458878356963396072e-03) (31, 4.70265895128250122070e-02) (32, -1.04982284829020500183e-02) (33, -1.20921554043889045715e-02) (34, -3.73482257127761840820e-02) (35, 6.31692335009574890137e-02) (36, -5.74403479695320129395e-02) (37, -2.81145889312028884888e-02) (38, 8.22462216019630432129e-02) (39, 7.97967538237571716309e-02) (40, 9.77538749575614929199e-02) (41, 1.01051948964595794678e-01) (42, 8.92383381724357604980e-02) (43, -7.61532112956047058105e-02) (44, 1.64681801106780767441e-03) (45, 2.54697743803262710571e-02) (46, 3.93687859177589416504e-02) (47, 1.93002168089151382446e-02) (48, -1.52249885722994804382e-02) (49, -2.78683262877166271210e-03) (50, -6.14069625735282897949e-02) (51, -4.19076904654502868652e-02) (52, 7.57464673370122909546e-03) (53, -7.53045156598091125488e-02) (54, 7.96753838658332824707e-02) (55, -6.30376115441322326660e-02) (56, -6.32618591189384460449e-02) (57, 5.74579387903213500977e-02) (58, -6.20171502232551574707e-02) (59, -3.31751182675361633301e-02) (60, -6.65710940957069396973e-02) (61, 2.77366419322788715363e-03) (62, -1.18445880711078643799e-01) (63, 2.64109182171523571014e-03) (64, 7.03303888440132141113e-02) (65, -7.88550004363059997559e-02) (66, -5.29919117689132690430e-02) (67, -1.08953990042209625244e-01) (68, -2.80553828924894332886e-02) (69, -8.22548791766166687012e-02) (70, 5.12622296810150146484e-02) (71, -4.08653244376182556152e-02) (72, -1.01187892258167266846e-01) (73, 3.33715230226516723633e-02) (74, -3.01473978906869888306e-02) (75, 2.91846605250611901283e-04) (76, -5.31256645917892456055e-02) (77, -9.23767760396003723145e-02) (78, -9.62613746523857116699e-02) (79, 2.85898502916097640991e-02) (80, -6.11896906048059463501e-03) (81, -4.66633811593055725098e-02) (82, -1.00566215813159942627e-01) (83, -8.55132713913917541504e-02) (84, -1.16870729252696037292e-02) (85, -1.14351220428943634033e-01) (86, -4.07207235693931579590e-02) (87, 3.76321300864219665527e-02) (88, 5.86543381214141845703e-02) (89, 8.94583668559789657593e-03) (90, -7.57861956954002380371e-02) (91, -8.27501490712165832520e-02) (92, -6.13092333078384399414e-02) (93, -7.15853348374366760254e-02) (94, 3.83583381772041320801e-02) (95, -6.68193176388740539551e-02) (96, -2.55757775157690048218e-02) (97, -9.90068539977073669434e-02) (98, -5.74738681316375732422e-02) (99, 6.17995336651802062988e-02) (100, -5.79663887619972229004e-02) (0, -1.15405553951859474182e-02) (1, 4.25968617200851440430e-02) (2, 4.86781671643257141113e-02) (3, 1.45707532763481140137e-01) (4, 1.20088838040828704834e-01) (5, 1.67710617184638977051e-01) (6, 1.28284832462668418884e-02) (7, 1.54446080327033996582e-01) (8, -3.14812990836799144745e-03) (9, 1.50203242897987365723e-01) (10, 9.09289345145225524902e-02) (11, 9.57497581839561462402e-02) (12, 1.99194028973579406738e-01) (13, 1.10071264207363128662e-01) (14, 1.87270209193229675293e-01) (15, 1.88427701592445373535e-01) (16, 1.75264850258827209473e-01) (17, 1.58176138997077941895e-01) (18, 1.75397619605064392090e-01) (19, 1.07280008494853973389e-01) (20, 1.65581449866294860840e-01) (21, 1.82112887501716613770e-01) (22, 1.38603910803794860840e-01) (23, 1.42385447397828102112e-02) (24, 1.19214914739131927490e-01) (25, -1.25126177445054054260e-02) (26, 9.63464006781578063965e-02) (27, 1.24741189181804656982e-01) (28, 2.65321377664804458618e-02) (29, 7.05404207110404968262e-02) (30, -5.39132058620452880859e-02) (31, -7.44636682793498039246e-03) (32, 6.10709041357040405273e-02) (33, 2.41466928273439407349e-02) (34, -4.36453893780708312988e-02) (35, 9.00636520236730575562e-03) (36, -1.82244193274527788162e-03) (37, -9.48903558310121297836e-04) (38, -4.14057672023773193359e-02) (39, 2.53265928477048873901e-02) (40, -6.93186894059181213379e-02) (41, 2.06713359802961349487e-02) (42, 7.66952559351921081543e-02) (43, -6.54285326600074768066e-02) (44, -7.23046734929084777832e-02) (45, 9.11386534571647644043e-02) (46, -7.35904648900032043457e-02) (47, -7.83300027251243591309e-02) (48, 3.88777405023574829102e-02) (49, -9.41869989037513732910e-02) (50, -8.53823591023683547974e-03) (51, -1.45699838176369667053e-02) (52, -1.42100945115089416504e-01) (53, -5.82959353923797607422e-02) (54, 2.36939359456300735474e-02) (55, 4.97762626037001609802e-03) (56, -4.83312383294105529785e-02) (57, -7.36677423119544982910e-02) (58, -3.66140902042388916016e-02) (59, -1.52211459353566169739e-02) (60, -7.28785013779997825623e-03) (61, -4.83665764331817626953e-02) (62, -1.66046187281608581543e-01) (63, -6.64351657032966613770e-02) (64, -1.45729735493659973145e-01) (65, -1.33474454283714294434e-01) (66, 2.06016208976507186890e-02) (67, -6.16760402917861938477e-02) (68, -5.82850277423858642578e-02) (69, -1.20986022055149078369e-01) (70, 3.68820279836654663086e-02) (71, -3.12415603548288345337e-02) (72, -2.57223118096590042114e-02) (73, 2.34923120588064193726e-02) (74, -2.45583360083401203156e-03) (75, 1.91177781671285629272e-02) (76, 8.65923520177602767944e-03) (77, -1.52401342988014221191e-01) (78, -1.69115707278251647949e-01) (79, -3.64997461438179016113e-02) (80, -1.51674047112464904785e-01) (81, -3.76897454261779785156e-02) (82, -9.89706143736839294434e-02) (83, -1.45032271742820739746e-01) (84, -1.57659307122230529785e-01) (85, -1.37295469641685485840e-01) (86, -3.71232000179588794708e-03) (87, -6.24008253216743469238e-02) (88, -5.97640052437782287598e-02) (89, -9.57270786166191101074e-02) (90, -1.09488792717456817627e-01) (91, -8.75445976853370666504e-02) (92, 3.51272374391555786133e-02) (93, -1.07813231647014617920e-01) (94, 2.48046615161001682281e-03) (95, -1.33116170763969421387e-01) (96, -7.05645903944969177246e-02) (97, -2.01699156314134597778e-02) (98, -3.52142304182052612305e-02) (99, 2.35665757209062576294e-02) (100, 6.21808022260665893555e-02) (0, -2.52236090600490570068e-02) (1, -1.06196757405996322632e-02) (2, 3.38225765153765678406e-03) (3, -4.13290001451969146729e-02) (4, -3.80709357559680938721e-02) (5, -8.67062993347644805908e-03) (6, -6.28174766898155212402e-02) (7, -3.93912680447101593018e-02) (8, -1.05953514575958251953e-02) (9, 6.44546076655387878418e-02) (10, -2.91289128363132476807e-02) (11, -8.25258716940879821777e-02) (12, -7.47073218226432800293e-02) (13, -2.40021795034408569336e-02) (14, -7.37129822373390197754e-02) (15, -5.26332296431064605713e-02) (16, -6.83114603161811828613e-02) (17, 2.18859203159809112549e-02) (18, 4.45484407246112823486e-02) (19, -1.49850035086274147034e-03) (20, 6.51922598481178283691e-02) (21, -9.33787152171134948730e-02) (22, -3.14565608277916908264e-03) (23, -9.64448526501655578613e-02) (24, 6.45468607544898986816e-02) (25, 3.06050293147563934326e-03) (26, -1.94173380732536315918e-02) (27, 1.39507785206660628319e-04) (28, -9.83570888638496398926e-02) (29, -4.96400333940982818604e-02) (30, -3.65880094468593597412e-02) (31, -3.64506570622324943542e-03) (32, 6.18812255561351776123e-02) (33, 8.14676210284233093262e-02) (34, 7.11702480912208557129e-02) (35, -6.30478337407112121582e-02) (36, -1.29348337650299072266e-02) (37, -7.75493457913398742676e-02) (38, 2.02497243881225585938e-02) (39, 9.26841869950294494629e-02) (40, -9.91099104285240173340e-02) (41, 9.76866260170936584473e-02) (42, -7.87519291043281555176e-02) (43, -6.24889396131038665771e-02) (44, -1.43162142485380172729e-02) (45, -4.73516695201396942139e-02) (46, -6.18787808343768119812e-03) (47, 2.09214836359024047852e-02) (48, 8.86394158005714416504e-02) (49, -5.65648339688777923584e-02) (50, -6.86542317271232604980e-02) (51, 5.82696013152599334717e-02) (52, -3.99594865739345550537e-02) (53, 3.12387105077505111694e-02) (54, 6.63714632391929626465e-02) (55, -7.32893273234367370605e-02) (56, -6.10315911471843719482e-02) (57, -4.70042414963245391846e-02) (58, 2.80647054314613342285e-02) (59, -5.65199963748455047607e-02) (60, 6.78089214488863945007e-03) (61, 9.30952057242393493652e-02) (62, 3.98950167000293731689e-02) (63, -3.13710458576679229736e-02) (64, 7.54147097468376159668e-02) (65, 1.17123872041702270508e-02) (66, 8.55344347655773162842e-03) (67, -3.91719676554203033447e-02) (68, 3.66566292941570281982e-02) (69, -7.44967535138130187988e-02) (70, -4.35344614088535308838e-02) (71, 4.36683483421802520752e-02) (72, -7.23312720656394958496e-02) (73, -2.49694027006626129150e-02) (74, 7.94351920485496520996e-02) (75, 9.01392102241516113281e-03) (76, 3.24392952024936676025e-02) (77, -3.01783606410026550293e-02) (78, -6.92835226655006408691e-02) (79, 1.33537296205759048462e-02) (80, 1.41472946852445602417e-02) (81, -4.16662730276584625244e-02) (82, -2.94096171855926513672e-02) (83, 7.21483007073402404785e-02) (84, 8.62800702452659606934e-02) (85, -6.32178112864494323730e-02) (86, 9.11549702286720275879e-02) (87, -7.73354396224021911621e-02) (88, -1.79657675325870513916e-02) (89, 1.64112150669097900391e-02) (90, -3.69318686425685882568e-02) (91, 8.50436910986900329590e-02) (92, 1.16413608193397521973e-02) (93, 9.60969403386116027832e-02) (94, -4.61026914417743682861e-02) (95, -1.93827822804450988770e-02) (96, 5.77928917482495307922e-03) (97, 5.56505955755710601807e-02) (98, 3.95008139312267303467e-02) (99, -6.31069317460060119629e-02) (100, 6.35279491543769836426e-02) (0, 2.42721617221832275391e-01) (1, 2.43069320917129516602e-01) (2, 2.44792014360427856445e-01) (3, 1.23955845832824707031e-01) (4, 1.93050384521484375000e-01) (5, 1.50292187929153442383e-01) (6, 2.39531666040420532227e-01) (7, 2.75638431310653686523e-01) (8, 1.77095472812652587891e-01) (9, 1.34314149618148803711e-01) (10, 1.28726691007614135742e-01) (11, 1.77885562181472778320e-01) (12, 1.53306096792221069336e-01) (13, 7.71510899066925048828e-02) (14, 1.43065989017486572266e-01) (15, 1.62409007549285888672e-01) (16, 5.37910088896751403809e-02) (17, 1.67648762464523315430e-01) (18, 5.75675368309020996094e-02) (19, 1.60393774509429931641e-01) (20, -6.02508708834648132324e-02) (21, -3.99159118533134460449e-02) (22, -8.13548732548952102661e-03) (23, 1.40603035688400268555e-01) (24, -1.25074507668614387512e-02) (25, 7.42962360382080078125e-02) (26, 3.34083139896392822266e-02) (27, 1.18414357304573059082e-01) (28, -1.56788639724254608154e-02) (29, 5.54464757442474365234e-02) (30, 7.21794962882995605469e-02) (31, -6.49851858615875244141e-02) (32, -2.69226823002099990845e-02) (33, 5.96545338630676269531e-02) (34, -2.31557171791791915894e-02) (35, 1.13954842090606689453e-01) (36, -7.35418051481246948242e-02) (37, -3.48561555147171020508e-02) (38, 8.57560038566589355469e-02) (39, 4.13102880120277404785e-02) (40, -4.23655379563570022583e-03) (41, -1.88562367111444473267e-02) (42, -3.20693701505661010742e-02) (43, -5.32389953732490539551e-02) (44, 4.57638725638389587402e-02) (45, -7.54195153713226318359e-02) (46, -9.65101867914199829102e-02) (47, -9.29699242115020751953e-02) (48, 6.55465126037597656250e-02) (49, -5.10691404342651367188e-02) (50, 3.54852527379989624023e-02) (51, 3.23162600398063659668e-02) (52, -7.84512013196945190430e-02) (53, -1.21733739972114562988e-01) (54, 2.99085024744272232056e-02) (55, -2.92469840496778488159e-02) (56, 8.37460625916719436646e-03) (57, -9.62292701005935668945e-02) (58, -4.23203855752944946289e-02) (59, 3.89192551374435424805e-02) (60, -6.84736669063568115234e-03) (61, -1.02795526385307312012e-01) (62, -1.46341085433959960938e-01) (63, -1.32607221603393554688e-01) (64, -1.46246314048767089844e-01) (65, -7.09856599569320678711e-02) (66, -1.29844993352890014648e-01) (67, -1.12153217196464538574e-01) (68, -1.21191916987299919128e-02) (69, -1.26218616962432861328e-01) (70, 1.77946221083402633667e-02) (71, -1.10931918025016784668e-01) (72, -6.28879293799400329590e-02) (73, -9.02196913957595825195e-02) (74, -5.87757751345634460449e-02) (75, -9.34657454490661621094e-02) (76, -6.53603374958038330078e-02) (77, -1.98175404220819473267e-02) (78, -8.53324979543685913086e-02) (79, -7.10198283195495605469e-02) (80, 3.44383716583251953125e-02) (81, -1.09568625688552856445e-01) (82, -8.50929766893386840820e-02) (83, -9.66993421316146850586e-02) (84, -9.59817916154861450195e-02) (85, -1.13349735736846923828e-01) (86, 1.27571420744061470032e-02) (87, -1.43621832132339477539e-01) (88, -5.93360438942909240723e-02) (89, -8.16589295864105224609e-02) (90, -1.36164456605911254883e-01) (91, -8.72927010059356689453e-02) (92, -1.37202488258481025696e-02) (93, -1.15922898054122924805e-01) (94, -6.77523165941238403320e-02) (95, 1.66779961436986923218e-02) (96, -1.99959855526685714722e-02) (97, -4.19471263885498046875e-02) (98, -1.34076982736587524414e-01) (99, -7.98754692077636718750e-02) (100, 3.59400361776351928711e-02) (0, 1.14905409514904022217e-01) (1, 6.39295056462287902832e-02) (2, -1.18567151948809623718e-02) (3, -1.45627586171030998230e-02) (4, -2.79141627252101898193e-02) (5, 6.51415362954139709473e-02) (6, 9.14376899600028991699e-02) (7, 1.12200729548931121826e-01) (8, -4.99839596450328826904e-02) (9, -2.63306088745594024658e-02) (10, 7.38864764571189880371e-02) (11, -2.21069604158401489258e-02) (12, 2.41386182606220245361e-02) (13, -7.47375264763832092285e-02) (14, 4.87993620336055755615e-02) (15, 6.87497332692146301270e-02) (16, 9.49273928999900817871e-02) (17, 6.41505643725395202637e-02) (18, -2.97606773674488067627e-02) (19, -2.38184891641139984131e-02) (20, 5.88250271975994110107e-02) (21, 1.77076421678066253662e-02) (22, -8.56816247105598449707e-02) (23, -1.01296462118625640869e-01) (24, -9.06399562954902648926e-02) (25, 7.76285752654075622559e-02) (26, 2.97345407307147979736e-02) (27, 2.63705328106880187988e-02) (28, 7.77251794934272766113e-02) (29, -9.92682203650474548340e-02) (30, -3.07935215532779693604e-02) (31, 5.92897422611713409424e-02) (32, 2.97229439020156860352e-02) (33, 2.45356112718582153320e-02) (34, -8.95763263106346130371e-02) (35, 7.28168413043022155762e-02) (36, -4.27858345210552215576e-02) (37, 6.89476057887077331543e-02) (38, 4.30676452815532684326e-02) (39, -2.63245441019535064697e-02) (40, -8.74509885907173156738e-02) (41, 1.10523989424109458923e-02) (42, 4.24888394773006439209e-02) (43, 2.71267332136631011963e-02) (44, 2.55949497222900390625e-02) (45, -1.62805393338203430176e-02) (46, -1.27752022817730903625e-02) (47, 1.49181382730603218079e-02) (48, -6.60652592778205871582e-02) (49, 4.98162545263767242432e-02) (50, 8.40265378355979919434e-02) (51, -9.92001965641975402832e-02) (52, -2.80600488185882568359e-02) (53, -9.54364165663719177246e-02) (54, -9.71568748354911804199e-02) (55, -1.36768454685807228088e-02) (56, 8.61804559826850891113e-02) (57, 3.59667055308818817139e-02) (58, -8.11877325177192687988e-02) (59, 7.11503699421882629395e-02) (60, 4.27357070147991180420e-02) (61, -8.32394231110811233521e-03) (62, 3.48222963511943817139e-02) (63, -2.42017991840839385986e-02) (64, -8.15787985920906066895e-02) (65, 4.81536500155925750732e-02) (66, -5.22108636796474456787e-02) (67, -2.00852230191230773926e-02) (68, 1.81476138532161712646e-02) (69, 9.52358916401863098145e-02) (70, 5.36201409995555877686e-02) (71, 2.65156216919422149658e-02) (72, 4.02210978791117668152e-03) (73, -8.88531212694942951202e-04) (74, -4.38414476811885833740e-02) (75, -6.81932792067527770996e-02) (76, 7.89136216044425964355e-02) (77, 4.63512875139713287354e-02) (78, 4.74030040204524993896e-02) (79, -8.07501897215843200684e-02) (80, -3.66503698751330375671e-03) (81, 3.11259515583515167236e-02) (82, -8.15809294581413269043e-02) (83, 6.56352415680885314941e-02) (84, 3.44613082706928253174e-02) (85, -8.01104828715324401855e-02) (86, -4.43644411861896514893e-02) (87, 2.02495753765106201172e-02) (88, 5.72733767330646514893e-02) (89, -2.55726575851440429688e-02) (90, -9.54157952219247817993e-03) (91, -1.38990976847708225250e-03) (92, 5.90563304722309112549e-02) (93, -7.37071260809898376465e-02) (94, 7.06026032567024230957e-02) (95, 7.82456174492835998535e-02) (96, 7.14186653494834899902e-02) (97, -8.00461545586585998535e-02) (98, -4.29815389215946197510e-02) (99, -8.67604184895753860474e-03) (100, -8.06616470217704772949e-02) (0, -1.45928651094436645508e-01) (1, -1.48135125637054443359e-01) (2, -3.81727479398250579834e-02) (3, -5.12783341109752655029e-02) (4, -8.07231292128562927246e-02) (5, -4.82795108109712600708e-03) (6, -6.66607096791267395020e-02) (7, -1.40954375267028808594e-01) (8, -5.67083172500133514404e-02) (9, -4.14823181927204132080e-02) (10, -3.62156294286251068115e-02) (11, -1.17920644581317901611e-01) (12, -1.91416796296834945679e-02) (13, -5.96264638006687164307e-02) (14, 2.71598640829324722290e-02) (15, 1.39010744169354438782e-02) (16, 2.72325216792523860931e-03) (17, -5.75625561177730560303e-02) (18, -3.39061059057712554932e-02) (19, -1.21051557362079620361e-01) (20, -1.32188260555267333984e-01) (21, -1.04804344475269317627e-01) (22, -1.29537194967269897461e-01) (23, -1.07019610702991485596e-01) (24, -1.17941133677959442139e-01) (25, 4.97974492609500885010e-02) (26, -1.26907214522361755371e-01) (27, -8.56254324316978454590e-02) (28, -7.92765244841575622559e-02) (29, -3.06881461292505264282e-02) (30, -5.30636273324489593506e-02) (31, -3.78234945237636566162e-02) (32, 2.66645718365907669067e-02) (33, 7.20486417412757873535e-02) (34, 8.31816717982292175293e-02) (35, -9.15185436606407165527e-02) (36, 4.46414388716220855713e-02) (37, -2.22472641617059707642e-02) (38, -4.68112267553806304932e-02) (39, -4.90175597369670867920e-02) (40, -7.37294331192970275879e-02) (41, 8.99845883250236511230e-02) (42, 1.58092845231294631958e-02) (43, 6.34117797017097473145e-02) (44, -9.34764463454484939575e-03) (45, -1.30837513133883476257e-02) (46, 3.49099598824977874756e-02) (47, -5.80253712832927703857e-02) (48, 9.59767177700996398926e-02) (49, -4.10060994327068328857e-02) (50, -3.17661766894161701202e-03) (51, 1.18973143398761749268e-01) (52, 1.70761328190565109253e-02) (53, 6.68434519320726394653e-03) (54, -5.45715652406215667725e-02) (55, 3.00543475896120071411e-02) (56, -9.47952177375555038452e-03) (57, -3.81825380027294158936e-02) (58, 7.21257701516151428223e-02) (59, 5.36149106919765472412e-02) (60, 7.98914805054664611816e-02) (61, -5.58044426143169403076e-02) (62, 1.33083641529083251953e-01) (63, 1.11478557810187339783e-02) (64, 1.22471772134304046631e-01) (65, 1.22283451259136199951e-01) (66, 2.77008581906557083130e-02) (67, 6.77700266242027282715e-02) (68, 7.46441073715686798096e-03) (69, 7.39610716700553894043e-02) (70, 1.28385275602340698242e-01) (71, 3.24843786656856536865e-02) (72, 7.52592906355857849121e-02) (73, 3.35010103881359100342e-02) (74, -5.18423691391944885254e-03) (75, -4.71947304904460906982e-02) (76, 1.20251841843128204346e-01) (77, 1.11082501709461212158e-01) (78, -3.65413795225322246552e-03) (79, 1.02170191705226898193e-01) (80, -3.09823285788297653198e-02) (81, 6.86222985386848449707e-02) (82, 8.96588042378425598145e-02) (83, 5.69753907620906829834e-02) (84, -4.73977215588092803955e-02) (85, 1.11016102135181427002e-01) (86, -3.59075255692005157471e-02) (87, 1.68394129723310470581e-02) (88, -5.79426400363445281982e-02) (89, 1.08356826007366180420e-01) (90, -7.07995519042015075684e-02) (91, 7.50709101557731628418e-02) (92, 1.07955344021320343018e-01) (93, 1.22108571231365203857e-01) (94, -4.65719513595104217529e-02) (95, 8.46172347664833068848e-02) (96, 1.03419952094554901123e-01) (97, 4.73922602832317352295e-02) (98, 1.64319965988397598267e-02) (99, -1.99258085340261459351e-02) (100, -4.22710888087749481201e-02) (0, 4.37388457357883453369e-02) (1, 1.00625209510326385498e-01) (2, 1.34714752435684204102e-01) (3, 1.41574054956436157227e-01) (4, 1.42667293548583984375e-01) (5, 1.45686328411102294922e-01) (6, 1.19052834808826446533e-01) (7, 1.31701827049255371094e-01) (8, 6.21400959789752960205e-03) (9, 7.93147012591361999512e-02) (10, -5.44361211359500885010e-02) (11, 1.16888396441936492920e-01) (12, 1.74684617668390274048e-02) (13, 6.61523863673210144043e-02) (14, 1.26717031002044677734e-01) (15, -1.01474048569798469543e-02) (16, 9.25286635756492614746e-02) (17, 1.15821054205298423767e-02) (18, 3.74818523414433002472e-03) (19, 6.33393749594688415527e-02) (20, -1.29794003441929817200e-02) (21, -7.08395019173622131348e-02) (22, 1.63999404758214950562e-02) (23, -1.44432736560702323914e-02) (24, -5.33118732273578643799e-02) (25, -2.06173155456781387329e-02) (26, -4.13582883775234222412e-02) (27, 5.54591231048107147217e-02) (28, 6.94786980748176574707e-02) (29, 8.43017455190420150757e-03) (30, -8.39883908629417419434e-02) (31, -4.25894744694232940674e-02) (32, -5.48414625227451324463e-02) (33, 1.01560927927494049072e-01) (34, -5.62537200748920440674e-02) (35, -5.60931153595447540283e-02) (36, 9.48989316821098327637e-02) (37, -8.36635306477546691895e-02) (38, -9.19595286250114440918e-02) (39, -5.24472035467624664307e-02) (40, 4.02567572891712188721e-02) (41, -7.64239504933357238770e-02) (42, -7.20676407217979431152e-02) (43, -7.14255794882774353027e-02) (44, 5.77460564672946929932e-02) (45, -6.72043636441230773926e-02) (46, -9.95969679206609725952e-03) (47, 2.96787824481725692749e-02) (48, 5.39719965308904647827e-03) (49, 6.60067424178123474121e-02) (50, -3.88042740523815155029e-02) (51, 8.06485190987586975098e-02) (52, 7.52582624554634094238e-02) (53, 6.84209987521171569824e-02) (54, -4.47629652917385101318e-02) (55, -8.63190963864326477051e-02) (56, -6.33169338107109069824e-02) (57, -6.37140474282205104828e-04) (58, 6.44688233733177185059e-02) (59, -1.03192321956157684326e-01) (60, -1.04646481573581695557e-01) (61, 7.08575621247291564941e-02) (62, -5.21658994257450103760e-02) (63, -6.29700198769569396973e-02) (64, 6.74967095255851745605e-02) (65, -1.21299447491765022278e-02) (66, -2.87102442234754562378e-02) (67, 6.24042116105556488037e-02) (68, -3.64053226076066493988e-03) (69, -1.79923083633184432983e-02) (70, -9.91174206137657165527e-02) (71, -7.47155919671058654785e-02) (72, -8.19632504135370254517e-03) (73, -7.03867003321647644043e-02) (74, -4.97931428253650665283e-02) (75, -4.96823526918888092041e-02) (76, -4.87841404974460601807e-02) (77, 4.46768812835216522217e-02) (78, 7.42439255118370056152e-02) (79, 6.37213066220283508301e-02) (80, 4.13384474813938140869e-03) (81, -6.42618760466575622559e-02) (82, 4.58468161523342132568e-02) (83, -2.03681159764528274536e-02) (84, -9.65936854481697082520e-02) (85, -9.99447926878929138184e-02) (86, -1.41603045631200075150e-03) (87, -5.76091967523097991943e-02) (88, 6.34009018540382385254e-03) (89, -3.46391908824443817139e-02) (90, -5.48752956092357635498e-02) (91, 8.64229071885347366333e-03) (92, -6.37449547648429870605e-02) (93, 9.12604387849569320679e-04) (94, 4.64639030396938323975e-02) (95, -8.61803367733955383301e-02) (96, -1.07185713946819305420e-01) (97, -7.70278796553611755371e-02) (98, 7.94355943799018859863e-02) (99, -4.87394165247678756714e-03) (100, 1.49117121472954750061e-02) (0, 4.56845350563526153564e-02) (1, -1.03517314419150352478e-02) (2, -1.23188450932502746582e-01) (3, -1.17530077695846557617e-01) (4, -1.43348783254623413086e-01) (5, -6.43117800354957580566e-02) (6, -5.41293062269687652588e-02) (7, -4.09834901802241802216e-04) (8, -8.20496678352355957031e-02) (9, -8.03219228982925415039e-02) (10, -4.91911284625530242920e-02) (11, -1.30024983081966638565e-03) (12, -8.94518196582794189453e-02) (13, 4.33991663157939910889e-02) (14, 1.35630825534462928772e-02) (15, -7.62617439031600952148e-02) (16, -5.13437576591968536377e-02) (17, 6.76701664924621582031e-02) (18, 3.49301584064960479736e-02) (19, 2.51536611467599868774e-02) (20, -5.04794605076313018799e-02) (21, -2.03064475208520889282e-02) (22, 1.00577607750892639160e-01) (23, 5.53883127868175506592e-02) (24, -6.11503459513187408447e-02) (25, -7.96896070241928100586e-02) (26, 6.02971576154232025146e-02) (27, -2.28709522634744644165e-02) (28, 1.13468274474143981934e-01) (29, -3.17864380776882171631e-02) (30, 9.13199037313461303711e-02) (31, 1.00508093833923339844e-01) (32, 1.02806016802787780762e-01) (33, -8.40815007686614990234e-02) (34, -6.37663602828979492188e-02) (35, 1.02993071079254150391e-01) (36, 1.69817882124334573746e-03) (37, 2.81069967895746231079e-02) (38, 5.78915588557720184326e-02) (39, 6.90487921237945556641e-02) (40, 9.66705083847045898438e-02) (41, -8.08034688234329223633e-02) (42, -2.03919541090726852417e-02) (43, -8.65948200225830078125e-02) (44, 7.12743401527404785156e-02) (45, -9.61433053016662597656e-02) (46, -5.37055172026157379150e-02) (47, -6.94148838520050048828e-02) (48, 8.35355073213577270508e-02) (49, 9.47451889514923095703e-02) (50, 5.93358837068080902100e-02) (51, -8.42065662145614624023e-02) (52, -4.24815155565738677979e-02) (53, 4.54056970775127410889e-02) (54, 5.92296831309795379639e-02) (55, -1.63128171116113662720e-02) (56, 5.30774928629398345947e-02) (57, 7.35679734498262405396e-03) (58, 4.76074628531932830811e-02) (59, 5.30733056366443634033e-02) (60, 6.26919567584991455078e-02) (61, 3.08583732694387435913e-02) (62, 4.58245314657688140869e-02) (63, 5.73760084807872772217e-02) (64, 3.97530682384967803955e-02) (65, 7.28469789028167724609e-02) (66, 5.61974160373210906982e-02) (67, -6.72922432422637939453e-02) (68, -6.30600750446319580078e-03) (69, 7.07326736301183700562e-03) (70, 9.53594595193862915039e-02) (71, -1.50061259046196937561e-02) (72, 2.40285862237215042114e-02) (73, -3.06630786508321762085e-02) (74, -4.97785117477178573608e-03) (75, -6.43713586032390594482e-03) (76, -3.02681010216474533081e-02) (77, 3.59512828290462493896e-02) (78, 2.03198399394750595093e-02) (79, -4.98737879097461700439e-02) (80, 2.67518479377031326294e-02) (81, -1.97830889374017715454e-02) (82, -3.65034006536006927490e-02) (83, 8.38018655776977539062e-02) (84, -7.33472853899002075195e-02) (85, -8.00807923078536987305e-02) (86, -3.13130691647529602051e-02) (87, 8.00208896398544311523e-02) (88, 2.84447651356458663940e-02) (89, -8.56008082628250122070e-02) (90, 2.99733038991689682007e-02) (91, -1.14204389974474906921e-02) (92, 4.39480356872081756592e-02) (93, -2.45401356369256973267e-02) (94, -5.42234815657138824463e-02) (95, -1.72897111624479293823e-02) (96, -5.23686520755290985107e-02) (97, -9.74525064229965209961e-02) (98, 1.25448377802968025208e-02) (99, 4.22804690897464752197e-02) (100, 1.46670239046216011047e-02) (0, -1.63177016656845808029e-03) (1, -8.88861864805221557617e-02) (2, -7.84929245710372924805e-02) (3, 6.42958134412765502930e-02) (4, 9.26847476512193679810e-03) (5, 1.28119317814707756042e-02) (6, -6.41258358955383300781e-02) (7, -5.47569319605827331543e-02) (8, -6.59093111753463745117e-02) (9, -1.38912992551922798157e-02) (10, 4.29483428597450256348e-02) (11, -1.40347713604569435120e-02) (12, 1.84782799333333969116e-02) (13, 3.01898401230573654175e-02) (14, 1.74816157668828964233e-02) (15, 4.57531139254570007324e-02) (16, -9.48565453290939331055e-02) (17, -8.79501644521951675415e-03) (18, -2.81193424016237258911e-02) (19, -8.15333575010299682617e-02) (20, -7.48239904642105102539e-02) (21, -1.36522054672241210938e-01) (22, -1.35183364152908325195e-01) (23, 9.51137408264912664890e-05) (24, -8.43552350997924804688e-02) (25, -5.52932098507881164551e-02) (26, 4.73305583000183105469e-02) (27, -7.84405916929244995117e-02) (28, -1.35372281074523925781e-01) (29, -9.56261809915304183960e-03) (30, 4.53046411275863647461e-02) (31, -3.85660538449883460999e-03) (32, 4.74687218666076660156e-02) (33, -1.20505705475807189941e-01) (34, -2.39954274147748947144e-02) (35, -2.80258674174547195435e-02) (36, 1.31501136347651481628e-02) (37, 2.35926602035760879517e-02) (38, 3.88469025492668151855e-02) (39, 5.66933602094650268555e-02) (40, -5.67973628640174865723e-02) (41, 3.80249619483947753906e-02) (42, 2.97266384586691856384e-03) (43, -9.65725183486938476562e-02) (44, 1.10213113948702812195e-02) (45, -4.78917509317398071289e-02) (46, 9.09913480281829833984e-02) (47, 4.96367663145065307617e-02) (48, 8.71522128582000732422e-02) (49, 2.84169567748904228210e-03) (50, -7.44065791368484497070e-02) (51, -2.78241615742444992065e-02) (52, 2.85422746092081069946e-02) (53, -6.55461996793746948242e-02) (54, 1.13300904631614685059e-01) (55, 8.24069976806640625000e-02) (56, 1.96211654692888259888e-02) (57, 1.09036728739738464355e-01) (58, -6.14852532744407653809e-02) (59, 3.00605800002813339233e-02) (60, 5.23425638675689697266e-02) (61, 1.17019400000572204590e-01) (62, -5.00283017754554748535e-02) (63, 1.41932582482695579529e-02) (64, 1.09478086233139038086e-01) (65, 4.33371663093566894531e-02) (66, 9.98259782791137695312e-02) (67, 3.45922634005546569824e-02) (68, -1.86858195811510086060e-02) (69, 4.47949245572090148926e-02) (70, 7.45623931288719177246e-03) (71, 2.88755353540182113647e-02) (72, -4.86951693892478942871e-03) (73, 1.12313807010650634766e-01) (74, 3.92224043607711791992e-02) (75, 1.04359447956085205078e-01) (76, -3.26844230294227600098e-02) (77, 2.54157874733209609985e-02) (78, 6.20011314749717712402e-02) (79, -4.64566648006439208984e-02) (80, -6.70749247074127197266e-02) (81, 7.33060836791992187500e-02) (82, 7.26616382598876953125e-03) (83, 4.36457768082618713379e-02) (84, 9.46793705224990844727e-02) (85, 6.46089110523462295532e-03) (86, 1.33457249030470848083e-02) (87, -3.10997664928436279297e-03) (88, -3.98027058690786361694e-03) (89, 3.70484441518783569336e-02) (90, 1.01624503731727600098e-01) (91, -8.42147171497344970703e-02) (92, 1.94648932665586471558e-02) (93, -7.50214904546737670898e-02) (94, 8.20764992386102676392e-03) (95, -2.02703382819890975952e-03) (96, 4.07155230641365051270e-02) (97, -1.45753799006342887878e-02) (98, 1.09991267323493957520e-01) (99, 1.03598162531852722168e-01) (100, 9.52845364809036254883e-02) (0, 4.47247968986630439758e-03) (1, 1.25417523086071014404e-02) (2, -2.34272032976150512695e-02) (3, -5.63375325873494148254e-03) (4, -7.79035910964012145996e-02) (5, -4.48866561055183410645e-02) (6, 3.60372960567474365234e-02) (7, 2.78812386095523834229e-02) (8, 8.81208404898643493652e-02) (9, 6.63064941763877868652e-02) (10, 5.06410971283912658691e-02) (11, 4.91419881582260131836e-02) (12, -3.33926826715469360352e-02) (13, -2.26578414440155029297e-02) (14, 1.60947330296039581299e-02) (15, 4.78471219539642333984e-02) (16, 6.67058750987052917480e-02) (17, 9.51297655701637268066e-02) (18, 1.26041248440742492676e-01) (19, -1.83681137859821319580e-02) (20, 7.62716457247734069824e-02) (21, -7.33957514166831970215e-02) (22, 7.51879885792732238770e-02) (23, 8.59276875853538513184e-02) (24, 1.19336247444152832031e-02) (25, -3.52554619312286376953e-02) (26, 1.35460998862981796265e-02) (27, 7.64100626111030578613e-02) (28, -3.74763309955596923828e-02) (29, 1.25532899983227252960e-03) (30, 6.32528737187385559082e-02) (31, 3.69141399860382080078e-02) (32, 7.67621472477912902832e-02) (33, -7.60001912713050842285e-02) (34, -8.76664295792579650879e-02) (35, 8.01959261298179626465e-02) (36, -4.50392067432403564453e-02) (37, 3.14433127641677856445e-02) (38, -1.49255692958831787109e-02) (39, -7.14628472924232482910e-02) (40, -3.15475799143314361572e-02) (41, -9.95794460177421569824e-02) (42, 3.92256155610084533691e-02) (43, 8.44973139464855194092e-03) (44, -4.96724769473075866699e-02) (45, -6.60378262400627136230e-02) (46, -6.99677988886833190918e-02) (47, 9.37514677643775939941e-02) (48, -9.78623703122138977051e-02) (49, -6.92361816763877868652e-02) (50, -6.18862211704254150391e-02) (51, 4.53157499432563781738e-02) (52, -8.03727582097053527832e-02) (53, 8.89567658305168151855e-02) (54, 9.81722027063369750977e-03) (55, 1.01795773953199386597e-02) (56, -7.04944208264350891113e-02) (57, -1.04032166302204132080e-01) (58, -3.36530953645706176758e-02) (59, -3.61005142331123352051e-02) (60, -3.27989049255847930908e-02) (61, -8.84753093123435974121e-02) (62, -1.14101000130176544189e-01) (63, -6.39585927128791809082e-02) (64, -7.27238133549690246582e-02) (65, -1.10763259232044219971e-01) (66, -9.09925326704978942871e-02) (67, -2.43040025234222412109e-02) (68, 1.39893330633640289307e-02) (69, -8.77887755632400512695e-03) (70, -4.93052368983626365662e-03) (71, 8.20694789290428161621e-02) (72, -1.62032619118690490723e-02) (73, -6.66431263089179992676e-02) (74, -1.50889065116643905640e-02) (75, 3.59582379460334777832e-02) (76, -3.46641167998313903809e-02) (77, 1.81974582374095916748e-02) (78, 2.47122682631015777588e-02) (79, -3.28518524765968322754e-02) (80, 4.57916930317878723145e-02) (81, 7.13720992207527160645e-02) (82, -7.66364261507987976074e-02) (83, 7.68411532044410705566e-02) (84, 6.68197199702262878418e-02) (85, 4.18915972113609313965e-02) (86, -8.47382098436355590820e-03) (87, -9.61425825953483581543e-02) (88, 4.81960773468017578125e-02) (89, 6.78950026631355285645e-02) (90, -1.57316662371158599854e-02) (91, -6.65108934044837951660e-02) (92, -1.01136289536952972412e-01) (93, -1.42796579748392105103e-02) (94, -1.67993605136871337891e-02) (95, -5.59622570872306823730e-02) (96, -7.62354163452982902527e-03) (97, 4.51371492817997932434e-03) (98, 3.38749438524246215820e-02) (99, -8.43377485871315002441e-02) (100, -8.87549594044685363770e-02) (0, -4.84395660459995269775e-02) (1, -7.52270296216011047363e-02) (2, 2.39941887557506561279e-02) (3, -2.70786113105714321136e-03) (4, 2.56331339478492736816e-02) (5, -2.61574983596801757812e-02) (6, 7.67616257071495056152e-02) (7, -4.60919998586177825928e-02) (8, -8.68688747286796569824e-02) (9, -4.34147231280803680420e-02) (10, -1.06960810720920562744e-01) (11, 7.95722529292106628418e-02) (12, -2.64055952429771423340e-02) (13, 7.79433473944664001465e-02) (14, 5.99198304116725921631e-02) (15, -7.33265802264213562012e-02) (16, -1.87788382172584533691e-02) (17, 7.28793963789939880371e-02) (18, 8.44111964106559753418e-02) (19, -3.98738272488117218018e-02) (20, -4.11350615322589874268e-02) (21, -8.07231888175010681152e-02) (22, -3.53518091142177581787e-02) (23, 5.35992793738842010498e-02) (24, 1.31913600489497184753e-02) (25, 1.40538839623332023621e-02) (26, -4.84734363853931427002e-02) (27, -7.30507746338844299316e-02) (28, -5.01334406435489654541e-02) (29, -2.60340943932533264160e-02) (30, -5.36799244582653045654e-02) (31, 9.86681901849806308746e-04) (32, 1.15947553422302007675e-03) (33, 6.13221488893032073975e-02) (34, 8.97751823067665100098e-02) (35, -8.13891217112541198730e-02) (36, -7.16290995478630065918e-02) (37, 5.76688311994075775146e-02) (38, -3.36865969002246856689e-02) (39, -6.84060975909233093262e-02) (40, -8.89749154448509216309e-02) (41, -2.89999917149543762207e-02) (42, -7.63063952326774597168e-02) (43, -7.28278094902634620667e-03) (44, -4.35570441186428070068e-02) (45, 8.76859948039054870605e-02) (46, 2.68569104373455047607e-02) (47, 4.27920110523700714111e-02) (48, 6.84383586049079895020e-02) (49, 1.70897059142589569092e-02) (50, -8.26495662331581115723e-02) (51, -5.42434044182300567627e-02) (52, 5.64173199236392974854e-02) (53, -4.56617446616291999817e-03) (54, -8.99569019675254821777e-02) (55, -1.95497125387191772461e-02) (56, -7.90598616003990173340e-02) (57, -2.49682515859603881836e-02) (58, 1.76244825124740600586e-02) (59, -1.55283128842711448669e-02) (60, 6.40370771288871765137e-02) (61, 7.17779174447059631348e-02) (62, 9.10777971148490905762e-02) (63, -3.18525172770023345947e-02) (64, 3.54238487780094146729e-02) (65, 8.38898494839668273926e-02) (66, -1.13621233031153678894e-02) (67, 6.59206733107566833496e-02) (68, 4.44251932203769683838e-02) (69, 5.46989701688289642334e-02) (70, 1.00526534020900726318e-01) (71, 5.48204667866230010986e-02) (72, -7.20357373356819152832e-02) (73, -7.73235037922859191895e-02) (74, -5.25057576596736907959e-02) (75, -1.98631137609481811523e-02) (76, 1.09047822654247283936e-01) (77, 7.02946260571479797363e-02) (78, -7.65243247151374816895e-02) (79, 7.40975067019462585449e-02) (80, -1.29670007154345512390e-02) (81, -6.74181208014488220215e-02) (82, -8.85085240006446838379e-02) (83, -6.51331767439842224121e-02) (84, 1.99779681861400604248e-02) (85, -8.53610113263130187988e-02) (86, 7.58153898641467094421e-03) (87, 3.22617180645465850830e-02) (88, -2.00964808464050292969e-02) (89, -8.22815224528312683105e-02) (90, 1.06030248105525970459e-01) (91, -6.81285038590431213379e-02) (92, 7.63483718037605285645e-02) (93, 8.59601572155952453613e-02) (94, -1.03269675746560096741e-02) (95, -6.12725736573338508606e-04) (96, 5.81402815878391265869e-02) (97, 6.79165348410606384277e-02) (98, -4.42067496478557586670e-02) (99, -6.86098216101527214050e-03) (100, 3.93235444789752364159e-04) (0, -1.32551714777946472168e-01) (1, -1.45381584763526916504e-01) (2, -4.81065139174461364746e-02) (3, -1.22035644948482513428e-01) (4, -1.01889275014400482178e-01) (5, 2.24288776516914367676e-02) (6, -1.23278938233852386475e-01) (7, -1.52436599135398864746e-01) (8, 3.18434834480285644531e-02) (9, -1.51638165116310119629e-01) (10, -6.70754676684737205505e-03) (11, -8.75029042363166809082e-02) (12, -8.78740921616554260254e-02) (13, 2.44636684656143188477e-02) (14, 2.20699459314346313477e-02) (15, -8.27314779162406921387e-02) (16, -7.92088583111763000488e-02) (17, -5.30954971909523010254e-02) (18, -2.05252654850482940674e-02) (19, -6.92773833870887756348e-02) (20, -1.22842397540807723999e-02) (21, 4.36287894845008850098e-02) (22, 1.31535276770591735840e-01) (23, -4.26541268825531005859e-02) (24, 1.21193058788776397705e-01) (25, 1.93547047674655914307e-02) (26, 1.05794094502925872803e-01) (27, 8.30845013260841369629e-02) (28, 7.41338804364204406738e-02) (29, -4.28253272548317909241e-03) (30, -2.53382027149200439453e-02) (31, 9.58204939961433410645e-02) (32, 8.83856788277626037598e-03) (33, 9.23962071537971496582e-02) (34, -4.92942109704017639160e-02) (35, 6.67008385062217712402e-02) (36, 8.02385434508323669434e-02) (37, -9.56726446747779846191e-03) (38, 9.36878249049186706543e-02) (39, 7.89796635508537292480e-02) (40, 3.80988395772874355316e-03) (41, -1.24708544462919235229e-02) (42, 9.43667516112327575684e-02) (43, 1.41025725752115249634e-02) (44, -8.59268084168434143066e-02) (45, 2.10036635398864746094e-02) (46, 3.26180085539817810059e-02) (47, -6.24184384942054748535e-02) (48, 7.53935649991035461426e-02) (49, -8.03850218653678894043e-02) (50, -4.10990193486213684082e-02) (51, -7.95528814196586608887e-02) (52, 2.24711783230304718018e-02) (53, -4.43823635578155517578e-02) (54, -5.40964826941490173340e-02) (55, 1.18883531540632247925e-02) (56, 4.25883531570434570312e-02) (57, -7.92332515120506286621e-02) (58, -3.78404408693313598633e-02) (59, -1.81416720151901245117e-02) (60, -1.88950374722480773926e-02) (61, 1.26154981553554534912e-02) (62, -4.46268916130065917969e-02) (63, 6.80101737380027770996e-02) (64, -1.44182164222002029419e-02) (65, -1.80743336677551269531e-02) (66, 2.04902291297912597656e-02) (67, -5.69071024656295776367e-02) (68, 5.26915341615676879883e-02) (69, -5.61326136812567710876e-03) (70, 1.03757657110691070557e-01) (71, -5.66715672612190246582e-02) (72, 7.09709003567695617676e-02) (73, 8.21799710392951965332e-02) (74, 4.34700772166252136230e-02) (75, 7.41673037409782409668e-02) (76, -7.74928880855441093445e-03) (77, -3.94431352615356445312e-02) (78, 9.76064428687095642090e-02) (79, -4.66791242361068725586e-02) (80, 