FANN_FLO_2.1
num_layers=3
learning_rate=0.000100
connection_rate=1.000000
network_type=0
learning_momentum=0.000000
training_algorithm=0
train_error_function=1
train_stop_function=0
cascade_output_change_fraction=0.010000
quickprop_decay=-0.000100
quickprop_mu=1.750000
rprop_increase_factor=1.200000
rprop_decrease_factor=0.500000
rprop_delta_min=0.000000
rprop_delta_max=50.000000
rprop_delta_zero=0.100000
cascade_output_stagnation_epochs=12
cascade_candidate_change_fraction=0.010000
cascade_candidate_stagnation_epochs=12
cascade_max_out_epochs=150
cascade_min_out_epochs=50
cascade_max_cand_epochs=150
cascade_min_cand_epochs=50
cascade_num_candidate_groups=2
bit_fail_limit=3.49999994039535522461e-01
cascade_candidate_limit=1.00000000000000000000e+03
cascade_weight_multiplier=4.00000005960464477539e-01
cascade_activation_functions_count=10
cascade_activation_functions=3 5 7 8 10 11 14 15 16 17 
cascade_activation_steepnesses_count=4
cascade_activation_steepnesses=2.50000000000000000000e-01 5.00000000000000000000e-01 7.50000000000000000000e-01 1.00000000000000000000e+00 
layer_sizes=7 201 4 
scale_included=1
scale_mean_in=0.450000 0.450000 0.550000 0.550000 0.385306 0.305520 
scale_deviation_in=0.287228 0.287228 0.287228 0.287228 0.146763 0.239238 
scale_new_min_in=0.000000 0.000000 0.000000 0.000000 0.000000 0.000000 
scale_factor_in=0.500000 0.500000 0.500000 0.500000 0.500000 0.500000 
scale_mean_out=0.442429 0.159676 0.356923 
scale_deviation_out=0.364629 0.235560 0.203459 
scale_new_min_out=0.000000 0.000000 0.000000 
scale_factor_out=0.500000 0.500000 0.500000 
neurons (num_inputs, activation_function, activation_steepness)=(0, 0, 0.00000000000000000000e+00) (0, 0, 0.00000000000000000000e+00) (0, 0, 0.00000000000000000000e+00) (0, 0, 0.00000000000000000000e+00) (0, 0, 0.00000000000000000000e+00) (0, 0, 0.00000000000000000000e+00) (0, 0, 0.00000000000000000000e+00) (7, 5, 5.00000000000000000000e-01) (7, 5, 5.00000000000000000000e-01) (7, 5, 5.00000000000000000000e-01) (7, 5, 5.00000000000000000000e-01) (7, 5, 5.00000000000000000000e-01) (7, 5, 5.00000000000000000000e-01) (7, 5, 5.00000000000000000000e-01) (7, 5, 5.00000000000000000000e-01) (7, 5, 5.00000000000000000000e-01) (7, 5, 5.00000000000000000000e-01) (7, 5, 5.00000000000000000000e-01) (7, 5, 5.00000000000000000000e-01) (7, 5, 5.00000000000000000000e-01) (7, 5, 5.00000000000000000000e-01) (7, 5, 5.00000000000000000000e-01) (7, 5, 5.00000000000000000000e-01) (7, 5, 5.00000000000000000000e-01) (7, 5, 5.00000000000000000000e-01) (7, 5, 5.00000000000000000000e-01) (7, 5, 5.00000000000000000000e-01) (7, 5, 5.00000000000000000000e-01) (7, 5, 5.00000000000000000000e-01) (7, 5, 5.00000000000000000000e-01) (7, 5, 5.00000000000000000000e-01) (7, 5, 5.00000000000000000000e-01) (7, 5, 5.00000000000000000000e-01) (7, 5, 5.00000000000000000000e-01) (7, 5, 5.00000000000000000000e-01) (7, 5, 5.00000000000000000000e-01) (7, 5, 5.00000000000000000000e-01) (7, 5, 5.00000000000000000000e-01) (7, 5, 5.00000000000000000000e-01) (7, 5, 5.00000000000000000000e-01) (7, 5, 5.00000000000000000000e-01) (7, 5, 5.00000000000000000000e-01) (7, 5, 5.00000000000000000000e-01) (7, 5, 5.00000000000000000000e-01) (7, 5, 5.00000000000000000000e-01) (7, 5, 5.00000000000000000000e-01) (7, 5, 5.00000000000000000000e-01) (7, 5, 5.00000000000000000000e-01) (7, 5, 5.00000000000000000000e-01) (7, 5, 5.00000000000000000000e-01) (7, 5, 5.00000000000000000000e-01) (7, 5, 5.00000000000000000000e-01) (7, 5, 5.00000000000000000000e-01) (7, 5, 5.00000000000000000000e-01) (7, 5, 5.00000000000000000000e-01) (7, 5, 5.00000000000000000000e-01) (7, 5, 5.00000000000000000000e-01) (7, 5, 5.00000000000000000000e-01) (7, 5, 5.00000000000000000000e-01) (7, 5, 5.00000000000000000000e-01) (7, 5, 5.00000000000000000000e-01) (7, 5, 5.00000000000000000000e-01) (7, 5, 5.00000000000000000000e-01) (7, 5, 5.00000000000000000000e-01) (7, 5, 5.00000000000000000000e-01) (7, 5, 5.00000000000000000000e-01) (7, 5, 5.00000000000000000000e-01) (7, 5, 5.00000000000000000000e-01) (7, 5, 5.00000000000000000000e-01) (7, 5, 5.00000000000000000000e-01) (7, 5, 5.00000000000000000000e-01) (7, 5, 5.00000000000000000000e-01) (7, 5, 5.00000000000000000000e-01) (7, 5, 5.00000000000000000000e-01) (7, 5, 5.00000000000000000000e-01) (7, 5, 5.00000000000000000000e-01) (7, 5, 5.00000000000000000000e-01) (7, 5, 5.00000000000000000000e-01) (7, 5, 5.00000000000000000000e-01) (7, 5, 5.00000000000000000000e-01) (7, 5, 5.00000000000000000000e-01) (7, 5, 5.00000000000000000000e-01) (7, 5, 5.00000000000000000000e-01) (7, 5, 5.00000000000000000000e-01) (7, 5, 5.00000000000000000000e-01) (7, 5, 5.00000000000000000000e-01) (7, 5, 5.00000000000000000000e-01) (7, 5, 5.00000000000000000000e-01) (7, 5, 5.00000000000000000000e-01) (7, 5, 5.00000000000000000000e-01) (7, 5, 5.00000000000000000000e-01) (7, 5, 5.00000000000000000000e-01) (7, 5, 5.00000000000000000000e-01) (7, 5, 5.00000000000000000000e-01) (7, 5, 5.00000000000000000000e-01) (7, 5, 5.00000000000000000000e-01) (7, 5, 5.00000000000000000000e-01) (7, 5, 5.00000000000000000000e-01) (7, 5, 5.00000000000000000000e-01) (7, 5, 5.00000000000000000000e-01) (7, 5, 5.00000000000000000000e-01) (7, 5, 5.00000000000000000000e-01) (7, 5, 5.00000000000000000000e-01) (7, 5, 5.00000000000000000000e-01) (7, 5, 5.00000000000000000000e-01) (7, 5, 5.00000000000000000000e-01) (7, 5, 5.00000000000000000000e-01) (7, 5, 5.00000000000000000000e-01) (7, 5, 5.00000000000000000000e-01) (7, 5, 5.00000000000000000000e-01) (7, 5, 5.00000000000000000000e-01) (7, 5, 5.00000000000000000000e-01) (7, 5, 5.00000000000000000000e-01) (7, 5, 5.00000000000000000000e-01) (7, 5, 5.00000000000000000000e-01) (7, 5, 5.00000000000000000000e-01) (7, 5, 5.00000000000000000000e-01) (7, 5, 5.00000000000000000000e-01) (7, 5, 5.00000000000000000000e-01) (7, 5, 5.00000000000000000000e-01) (7, 5, 5.00000000000000000000e-01) (7, 5, 5.00000000000000000000e-01) (7, 5, 5.00000000000000000000e-01) (7, 5, 5.00000000000000000000e-01) (7, 5, 5.00000000000000000000e-01) (7, 5, 5.00000000000000000000e-01) (7, 5, 5.00000000000000000000e-01) (7, 5, 5.00000000000000000000e-01) (7, 5, 5.00000000000000000000e-01) (7, 5, 5.00000000000000000000e-01) (7, 5, 5.00000000000000000000e-01) (7, 5, 5.00000000000000000000e-01) (7, 5, 5.00000000000000000000e-01) (7, 5, 5.00000000000000000000e-01) (7, 5, 5.00000000000000000000e-01) (7, 5, 5.00000000000000000000e-01) (7, 5, 5.00000000000000000000e-01) (7, 5, 5.00000000000000000000e-01) (7, 5, 5.00000000000000000000e-01) (7, 5, 5.00000000000000000000e-01) (7, 5, 5.00000000000000000000e-01) (7, 5, 5.00000000000000000000e-01) (7, 5, 5.00000000000000000000e-01) (7, 5, 5.00000000000000000000e-01) (7, 5, 5.00000000000000000000e-01) (7, 5, 5.00000000000000000000e-01) (7, 5, 5.00000000000000000000e-01) (7, 5, 5.00000000000000000000e-01) (7, 5, 5.00000000000000000000e-01) (7, 5, 5.00000000000000000000e-01) (7, 5, 5.00000000000000000000e-01) (7, 5, 5.00000000000000000000e-01) (7, 5, 5.00000000000000000000e-01) (7, 5, 5.00000000000000000000e-01) (7, 5, 5.00000000000000000000e-01) (7, 5, 5.00000000000000000000e-01) (7, 5, 5.00000000000000000000e-01) (7, 5, 5.00000000000000000000e-01) (7, 5, 5.00000000000000000000e-01) (7, 5, 5.00000000000000000000e-01) (7, 5, 5.00000000000000000000e-01) (7, 5, 5.00000000000000000000e-01) (7, 5, 5.00000000000000000000e-01) (7, 5, 5.00000000000000000000e-01) (7, 5, 5.00000000000000000000e-01) (7, 5, 5.00000000000000000000e-01) (7, 5, 5.00000000000000000000e-01) (7, 5, 5.00000000000000000000e-01) (7, 5, 5.00000000000000000000e-01) (7, 5, 5.00000000000000000000e-01) (7, 5, 5.00000000000000000000e-01) (7, 5, 5.00000000000000000000e-01) (7, 5, 5.00000000000000000000e-01) (7, 5, 5.00000000000000000000e-01) (7, 5, 5.00000000000000000000e-01) (7, 5, 5.00000000000000000000e-01) (7, 5, 5.00000000000000000000e-01) (7, 5, 5.00000000000000000000e-01) (7, 5, 5.00000000000000000000e-01) (7, 5, 5.00000000000000000000e-01) (7, 5, 5.00000000000000000000e-01) (7, 5, 5.00000000000000000000e-01) (7, 5, 5.00000000000000000000e-01) (7, 5, 5.00000000000000000000e-01) (7, 5, 5.00000000000000000000e-01) (7, 5, 5.00000000000000000000e-01) (7, 5, 5.00000000000000000000e-01) (7, 5, 5.00000000000000000000e-01) (7, 5, 5.00000000000000000000e-01) (7, 5, 5.00000000000000000000e-01) (7, 5, 5.00000000000000000000e-01) (7, 5, 5.00000000000000000000e-01) (7, 5, 5.00000000000000000000e-01) (7, 5, 5.00000000000000000000e-01) (7, 5, 5.00000000000000000000e-01) (7, 5, 5.00000000000000000000e-01) (7, 5, 5.00000000000000000000e-01) (7, 5, 5.00000000000000000000e-01) (7, 5, 5.00000000000000000000e-01) (7, 5, 5.00000000000000000000e-01) (7, 5, 5.00000000000000000000e-01) (7, 5, 5.00000000000000000000e-01) (7, 5, 5.00000000000000000000e-01) (7, 5, 5.00000000000000000000e-01) (7, 5, 5.00000000000000000000e-01) (7, 5, 5.00000000000000000000e-01) (7, 5, 5.00000000000000000000e-01) (0, 5, 0.00000000000000000000e+00) (201, 3, 5.00000000000000000000e-01) (201, 3, 5.00000000000000000000e-01) (201, 3, 5.00000000000000000000e-01) (0, 3, 0.00000000000000000000e+00) 
connections (connected_to_neuron, weight)=(0, 8.83319750428199768066e-02) (1, 1.84527620673179626465e-01) (2, 5.17854699864983558655e-03) (3, -6.89050406217575073242e-02) (4, -4.60998602211475372314e-02) (5, 3.09325959533452987671e-02) (6, 6.32384493947029113770e-02) (0, -5.89678324759006500244e-02) (1, 2.06353679299354553223e-01) (2, 8.86623263359069824219e-02) (3, -9.37507897615432739258e-02) (4, -6.87362020835280418396e-03) (5, 9.97743606567382812500e-02) (6, 9.16403755545616149902e-02) (0, -2.13538222014904022217e-02) (1, 1.34839311242103576660e-01) (2, 4.70937937498092651367e-02) (3, -1.99132129549980163574e-01) (4, 5.34248463809490203857e-02) (5, 6.68799728155136108398e-02) (6, 8.63259211182594299316e-02) (0, -1.12621434032917022705e-01) (1, -2.58243799209594726562e-01) (2, 2.64652948826551437378e-02) (3, 2.10953444242477416992e-01) (4, 1.03220820426940917969e-01) (5, 5.34989163279533386230e-02) (6, -2.45957281440496444702e-02) (0, -4.80225160717964172363e-02) (1, 1.75036281347274780273e-01) (2, 2.59521808475255966187e-02) (3, 6.84572830796241760254e-02) (4, 7.93270580470561981201e-03) (5, 9.27321091294288635254e-02) (6, 1.04117162525653839111e-01) (0, -6.50799870491027832031e-02) (1, 1.45761683583259582520e-01) (2, -1.89927770406939089298e-04) (3, -1.54474109411239624023e-01) (4, -1.27322062849998474121e-01) (5, -5.86610250174999237061e-02) (6, -4.19119782745838165283e-02) (0, 7.38874524831771850586e-02) (1, -1.36170879006385803223e-01) (2, 6.40950351953506469727e-02) (3, -6.31695939227938652039e-03) (4, 1.06464140117168426514e-02) (5, -2.37458385527133941650e-02) (6, -4.63084280490875244141e-02) (0, -5.75934760272502899170e-02) (1, -1.98485463857650756836e-01) (2, 2.96361204236745834351e-02) (3, 3.50957624614238739014e-02) (4, -4.81137819588184356689e-03) (5, 6.84897415339946746826e-03) (6, -1.36794701218605041504e-01) (0, 1.10463418066501617432e-01) (1, 1.13655678927898406982e-01) (2, 6.37782216072082519531e-02) (3, -1.94262221455574035645e-01) (4, -9.84239801764488220215e-02) (5, -6.50550499558448791504e-02) (6, -5.37773482501506805420e-02) (0, 8.73919129371643066406e-02) (1, -2.37871676683425903320e-01) (2, 4.85448837280273437500e-02) (3, 2.49808460474014282227e-01) (4, 9.82809066772460937500e-02) (5, -5.63931055366992950439e-02) (6, -6.72016143798828125000e-02) (0, 3.26090701855719089508e-03) (1, -2.17956621199846267700e-02) (2, -7.89851844310760498047e-02) (3, -6.75576105713844299316e-02) (4, -4.51291352510452270508e-02) (5, 7.92051330208778381348e-02) (6, -3.30992005765438079834e-02) (0, 7.71151483058929443359e-02) (1, 8.85452032089233398438e-02) (2, 5.01688532531261444092e-02) (3, -1.59119293093681335449e-01) (4, -5.19881881773471832275e-02) (5, -3.94087051972746849060e-03) (6, 4.30394485592842102051e-02) (0, 6.39297142624855041504e-02) (1, -3.19415420293807983398e-01) (2, 2.83407308161258697510e-02) (3, 2.86178559064865112305e-01) (4, 6.03409782052040100098e-02) (5, -1.64332929998636245728e-02) (6, 7.96623677015304565430e-02) (0, 7.19950571656227111816e-02) (1, 2.40740433335304260254e-01) (2, 1.34405001997947692871e-01) (3, -1.35422393679618835449e-01) (4, -1.99646707624197006226e-02) (5, 6.03553280234336853027e-02) (6, 8.49542021751403808594e-02) (0, -7.28484317660331726074e-02) (1, 9.20737460255622863770e-02) (2, 2.07143384614028036594e-04) (3, 3.84186324663460254669e-03) (4, -9.91651341319084167480e-02) (5, 4.11732010543346405029e-02) (6, -8.26643034815788269043e-02) (0, 2.12704087607562541962e-03) (1, 1.25697910785675048828e-01) (2, 5.28433024883270263672e-02) (3, -1.19350813329219818115e-01) (4, 6.47791251540184020996e-02) (5, -2.48534753918647766113e-02) (6, 4.84814122319221496582e-03) (0, -1.56170874834060668945e-02) (1, 3.09530586004257202148e-01) (2, -7.74343535304069519043e-02) (3, -2.86332964897155761719e-01) (4, -1.49177825078368186951e-02) (5, 3.01455147564411163330e-02) (6, 1.08251795172691345215e-01) (0, -6.03266581892967224121e-02) (1, -2.67424106597900390625e-01) (2, 3.52640226483345031738e-02) (3, 2.21462488174438476562e-01) (4, 8.59043747186660766602e-02) (5, 5.01201413571834564209e-02) (6, -5.42492084205150604248e-02) (0, -3.10762003064155578613e-02) (1, -5.35871163010597229004e-02) (2, 8.62688049674034118652e-02) (3, 6.76365643739700317383e-02) (4, -2.45222337543964385986e-02) (5, -7.27504305541515350342e-03) (6, -8.07865348178893327713e-04) (0, -2.36911401152610778809e-02) (1, -1.26210704445838928223e-01) (2, 8.03287420421838760376e-03) (3, 1.36529907584190368652e-01) (4, 1.12265765666961669922e-01) (5, -2.99589410424232482910e-02) (6, -5.75806088745594024658e-02) (0, 7.64719396829605102539e-02) (1, 1.13386914134025573730e-01) (2, 3.83932292461395263672e-02) (3, -1.12229190766811370850e-01) (4, -3.14863361418247222900e-02) (5, 2.34390366822481155396e-02) (6, 7.90372863411903381348e-03) (0, -6.11986182630062103271e-02) (1, -4.16515499353408813477e-01) (2, -9.01474505662918090820e-02) (3, 3.14327687025070190430e-01) (4, 9.10745263099670410156e-02) (5, -9.23273786902427673340e-02) (6, -8.51577222347259521484e-02) (0, 8.87169241905212402344e-02) (1, 9.88266766071319580078e-02) (2, 6.96040689945220947266e-02) (3, -1.07884280383586883545e-01) (4, -8.21133404970169067383e-02) (5, 2.42125466465950012207e-02) (6, 2.24649682641029357910e-02) (0, -4.47574406862258911133e-02) (1, -1.84704214334487915039e-01) (2, 3.99620458483695983887e-02) (3, 8.57949778437614440918e-02) (4, -2.60897129774093627930e-02) (5, -2.70445384085178375244e-02) (6, -5.15047907829284667969e-02) (0, -1.20827406644821166992e-01) (1, -1.98332384228706359863e-01) (2, -1.07860714197158813477e-02) (3, 2.23439335823059082031e-01) (4, 9.66981705278158187866e-03) (5, -6.41670525074005126953e-02) (6, -1.57502055168151855469e-01) (0, 2.40383129566907882690e-02) (1, 2.35274434089660644531e-01) (2, -1.95278003811836242676e-02) (3, -2.77868658304214477539e-01) (4, -1.55922740697860717773e-01) (5, 1.96786690503358840942e-02) (6, 5.37412613630294799805e-03) (0, 1.10344560816884040833e-02) (1, 1.41329452395439147949e-01) (2, -5.99240325391292572021e-02) (3, -6.58377632498741149902e-02) (4, -2.42722257971763610840e-02) (5, 7.99746587872505187988e-02) (6, 5.22766187787055969238e-02) (0, 1.87155380845069885254e-02) (1, 2.79040001332759857178e-02) (2, -9.51523110270500183105e-02) (3, -1.37212574481964111328e-01) (4, -8.52144905366003513336e-04) (5, 7.99165740609169006348e-02) (6, 1.83646921068429946899e-02) (0, 7.19738900661468505859e-02) (1, -6.89402297139167785645e-02) (2, -3.78464274108409881592e-02) (3, 1.12173274159431457520e-01) (4, 1.20029136538505554199e-01) (5, 1.08146823942661285400e-01) (6, 4.18041869997978210449e-02) (0, -4.55094277858734130859e-02) (1, 1.66111439466476440430e-02) (2, 7.28956013917922973633e-02) (3, 3.51407267153263092041e-02) (4, -1.01596146821975708008e-01) (5, -4.55360785126686096191e-02) (6, 1.16969518363475799561e-01) (0, -6.23285733163356781006e-02) (1, 9.89388003945350646973e-02) (2, 1.31181832402944564819e-02) (3, 1.09499031677842140198e-02) (4, 3.86721082031726837158e-02) (5, 3.33002917468547821045e-02) (6, -9.16743427515029907227e-02) (0, -5.55665791034698486328e-02) (1, 8.70363041758537292480e-02) (2, 2.59415823966264724731e-02) (3, 2.05606296658515930176e-02) (4, -9.57474112510681152344e-02) (5, 5.19957467913627624512e-02) (6, -7.95719102025032043457e-02) (0, 5.93973770737648010254e-02) (1, 1.66679963469505310059e-01) (2, 9.07422974705696105957e-02) (3, -8.09779390692710876465e-02) (4, -1.26509845256805419922e-01) (5, -4.93893101811408996582e-02) (6, 2.18436904251575469971e-02) (0, -1.22795060276985168457e-01) (1, -2.04615622758865356445e-01) (2, -8.13741087913513183594e-02) (3, 3.41455936431884765625e-02) (4, 3.75192947685718536377e-02) (5, -9.03883129358291625977e-02) (6, -1.36005595326423645020e-01) (0, 6.30887283477932214737e-04) (1, -8.07763338088989257812e-02) (2, -7.31759369373321533203e-02) (3, 7.82137289643287658691e-02) (4, -5.16253635287284851074e-02) (5, 4.28204424679279327393e-02) (6, -3.12386266887187957764e-02) (0, 6.51414319872856140137e-02) (1, -2.72471725940704345703e-01) (2, -4.06311862170696258545e-02) (3, 1.31844669580459594727e-01) (4, 1.72016412019729614258e-01) (5, -1.00200124084949493408e-01) (6, -1.25877797603607177734e-01) (0, -6.30567893385887145996e-02) (1, 6.75612688064575195312e-02) (2, -5.57355731725692749023e-02) (3, 9.68662649393081665039e-02) (4, 7.43175391107797622681e-03) (5, -8.52059274911880493164e-02) (6, 4.04447689652442932129e-02) (0, 2.43164971470832824707e-02) (1, -1.20329700410366058350e-01) (2, -9.41574648022651672363e-02) (3, 1.13162674009799957275e-01) (4, 4.74263988435268402100e-02) (5, -2.91381385177373886108e-02) (6, 9.00384932756423950195e-02) (0, 8.73349979519844055176e-02) (1, -2.89555937051773071289e-02) (2, -9.88371223211288452148e-02) (3, -9.80684906244277954102e-03) (4, 3.29528525471687316895e-02) (5, -6.68751895427703857422e-02) (6, -7.43191093206405639648e-02) (0, 9.44349393248558044434e-02) (1, 1.80701464414596557617e-01) (2, 3.60621921718120574951e-02) (3, -8.67447536438703536987e-03) (4, -9.26296785473823547363e-02) (5, 9.07799676060676574707e-02) (6, 1.14501014351844787598e-01) (0, -7.29401484131813049316e-02) (1, 1.93293727934360504150e-02) (2, 6.60273358225822448730e-02) (3, 3.08534107170999050140e-03) (4, 6.70512840151786804199e-02) (5, -1.08732543885707855225e-01) (6, -1.06722168624401092529e-01) (0, -1.02137118577957153320e-01) (1, -4.79318767786026000977e-01) (2, -4.75296191871166229248e-02) (3, 3.33777487277984619141e-01) (4, 6.99289217591285705566e-02) (5, 1.09366385731846094131e-03) (6, -1.29894256591796875000e-01) (0, 6.91494643688201904297e-02) (1, 1.75245225429534912109e-01) (2, -4.47241812944412231445e-02) (3, -2.91438288986682891846e-02) (4, -8.36685448884963989258e-02) (5, -4.59996201097965240479e-02) (6, -2.59698498994112014771e-02) (0, 5.47704547643661499023e-02) (1, -2.45915129780769348145e-01) (2, -4.22623567283153533936e-02) (3, 2.24468842148780822754e-01) (4, 2.69667003303766250610e-02) (5, -1.01159974932670593262e-01) (6, -5.34613952040672302246e-02) (0, 2.49285176396369934082e-02) (1, -2.68187493085861206055e-01) (2, -1.20029198005795478821e-02) (3, 2.33714580535888671875e-01) (4, 1.59917041659355163574e-01) (5, -2.44224257767200469971e-02) (6, 1.15028686821460723877e-01) (0, 4.23398427665233612061e-02) (1, -2.03258637338876724243e-02) (2, -8.19538608193397521973e-02) (3, 7.30278193950653076172e-02) (4, -3.72964926064014434814e-02) (5, 3.07477638125419616699e-02) (6, 3.90779376029968261719e-02) (0, 3.21584083139896392822e-02) (1, -6.64726793766021728516e-02) (2, -9.08455625176429748535e-02) (3, -1.77730328869074583054e-03) (4, -7.22616314888000488281e-02) (5, -3.58079932630062103271e-02) (6, -4.97459545731544494629e-02) (0, -3.63969169557094573975e-02) (1, 1.27207130193710327148e-01) (2, 1.74429733306169509888e-02) (3, -1.63223788142204284668e-01) (4, 5.46079948544502258301e-02) (5, -9.55279842019081115723e-02) (6, 1.16726957261562347412e-01) (0, -7.79774934053421020508e-02) (1, -4.60723131895065307617e-01) (2, -3.88046093285083770752e-02) (3, 3.53361368179321289062e-01) (4, 2.64024306088685989380e-02) (5, 9.08576101064682006836e-02) (6, -6.76233097910881042480e-02) (0, -9.47647839784622192383e-02) (1, -2.61617541313171386719e-01) (2, -3.87621531262993812561e-03) (3, 2.54112720489501953125e-01) (4, 1.13907597959041595459e-01) (5, 3.61035130918025970459e-02) (6, 1.64766442030668258667e-02) (0, 7.42174983024597167969e-02) (1, -1.40780910849571228027e-01) (2, -5.44013567268848419189e-02) (3, 7.40421935915946960449e-02) (4, 2.20777597278356552124e-02) (5, -1.86437293887138366699e-02) (6, -1.31477102637290954590e-01) (0, 1.24167958274483680725e-02) (1, 1.16890087723731994629e-01) (2, -1.64934061467647552490e-02) (3, 5.03032142296433448792e-03) (4, -7.79985636472702026367e-02) (5, 8.05961862206459045410e-02) (6, -7.92274326086044311523e-02) (0, -5.86388371884822845459e-02) (1, 4.54711876809597015381e-02) (2, -9.87620353698730468750e-02) (3, 2.91350185871124267578e-02) (4, 1.08232103288173675537e-01) (5, 1.47604094818234443665e-02) (6, -4.13897223770618438721e-02) (0, -1.11628778278827667236e-01) (1, -2.16401442885398864746e-02) (2, 6.57846182584762573242e-02) (3, -7.94345512986183166504e-02) (4, 6.41874298453330993652e-02) (5, -2.67620030790567398071e-02) (6, 3.63055355846881866455e-02) (0, 1.42178665846586227417e-02) (1, -1.97001621127128601074e-01) (2, -3.98510089144110679626e-03) (3, 1.31609320640563964844e-01) (4, 3.26167531311511993408e-02) (5, 7.83275514841079711914e-02) (6, -5.43878301978111267090e-02) (0, 7.07578137516975402832e-02) (1, -2.60060233995318412781e-03) (2, -4.54074554145336151123e-02) (3, -6.57419189810752868652e-02) (4, 7.78846368193626403809e-02) (5, 2.78574377298355102539e-02) (6, -5.64276240766048431396e-02) (0, -5.70203959941864013672e-02) (1, 8.50615128874778747559e-02) (2, -4.50658202171325683594e-02) (3, -9.04213860630989074707e-02) (4, -4.78419102728366851807e-02) (5, -5.24704679846763610840e-02) (6, 8.48707184195518493652e-02) (0, -2.16542705893516540527e-02) (1, 2.26134270429611206055e-01) (2, -5.03359660506248474121e-02) (3, -1.65223062038421630859e-01) (4, -8.73336568474769592285e-02) (5, -9.87508371472358703613e-02) (6, 3.26079828664660453796e-03) (0, -5.21453917026519775391e-02) (1, -1.94550365209579467773e-01) (2, -7.00120031833648681641e-02) (3, 2.28023841977119445801e-01) (4, 7.80109539628028869629e-02) (5, 3.57873141765594482422e-02) (6, -6.05597794055938720703e-02) (0, 1.15969829261302947998e-01) (1, -8.52904170751571655273e-02) (2, 1.60125887487083673477e-03) (3, 1.90777927637100219727e-01) (4, 1.09267011284828186035e-01) (5, 5.54278269410133361816e-02) (6, -1.73739157617092132568e-02) (0, 3.63230146467685699463e-02) (1, -2.17551678419113159180e-01) (2, -3.78847829997539520264e-02) (3, 2.36075609922409057617e-01) (4, 1.29903256893157958984e-01) (5, 3.48213911056518554688e-02) (6, -6.33799284696578979492e-02) (0, -2.77768410742282867432e-02) (1, 2.94170230627059936523e-01) (2, -2.51866281032562255859e-02) (3, -1.33940517902374267578e-01) (4, -1.60466916859149932861e-02) (5, -1.54776824638247489929e-02) (6, -4.20788675546646118164e-02) (0, -9.76306349039077758789e-02) (1, -1.57969087362289428711e-01) (2, -3.32459174096584320068e-02) (3, 7.33748972415924072266e-02) (4, 1.13736398518085479736e-01) (5, 2.27795466780662536621e-02) (6, -1.13630227744579315186e-01) (0, 9.44944191724061965942e-03) (1, -1.88643559813499450684e-01) (2, -1.14380475133657455444e-02) (3, 1.58144891262054443359e-01) (4, 1.39611274003982543945e-01) (5, 8.05908143520355224609e-02) (6, -3.47100682556629180908e-02) (0, 4.06176634132862091064e-02) (1, 1.74245491623878479004e-01) (2, 1.32824108004570007324e-02) (3, -1.49512276053428649902e-01) (4, 1.95690058171749114990e-02) (5, 7.31170848011970520020e-02) (6, 3.70409665629267692566e-03) (0, 2.70547680556774139404e-02) (1, -1.10188014805316925049e-01) (2, 6.73654582351446151733e-03) (3, 1.68263345956802368164e-01) (4, 1.20138879865407943726e-02) (5, 6.69824779033660888672e-02) (6, -1.27969896420836448669e-02) (0, -9.66118946671485900879e-02) (1, -3.18359464406967163086e-01) (2, -1.42320077866315841675e-02) (3, 1.53392627835273742676e-01) (4, 1.14161968231201171875e-01) (5, -9.62732434272766113281e-02) (6, -3.35222594439983367920e-02) (0, 8.77644028514623641968e-03) (1, -2.92055774480104446411e-03) (2, 5.36031424999237060547e-02) (3, 1.50555998086929321289e-01) (4, -9.21107456088066101074e-02) (5, -7.29520916938781738281e-02) (6, -9.11862216889858245850e-03) (0, 8.01443159580230712891e-02) (1, -2.66256451606750488281e-01) (2, 2.28097066283226013184e-02) (3, 1.67868390679359436035e-01) (4, 6.71969354152679443359e-02) (5, -8.73538181185722351074e-02) (6, 7.00481086969375610352e-02) (0, -8.47512669861316680908e-03) (1, 3.91423970460891723633e-01) (2, -4.61962744593620300293e-02) (3, -3.52258145809173583984e-01) (4, -1.34244844317436218262e-01) (5, 4.05700691044330596924e-02) (6, -4.82695326209068298340e-02) (0, 4.14660163223743438721e-02) (1, -9.79645922780036926270e-02) (2, 1.09499096870422363281e-02) (3, 1.62118434906005859375e-01) (4, 7.68863409757614135742e-02) (5, -6.42680227756500244141e-02) (6, -1.01744398474693298340e-01) (0, -5.12378178536891937256e-02) (1, -2.83584743738174438477e-01) (2, -6.83817267417907714844e-03) (3, 2.43056029081344604492e-01) (4, 1.47231265902519226074e-01) (5, -2.59146038442850112915e-02) (6, 1.05155874043703079224e-02) (0, 1.11090451478958129883e-01) (1, 1.57130464911460876465e-01) (2, -1.59258600324392318726e-02) (3, -3.89500297605991363525e-02) (4, -2.34998241066932678223e-02) (5, 9.58012491464614868164e-02) (6, 3.13000800088047981262e-03) (0, -8.87540727853775024414e-02) (1, 2.10564717650413513184e-01) (2, -8.17015022039413452148e-02) (3, -1.31441906094551086426e-01) (4, 2.20255516469478607178e-02) (5, -6.53820261359214782715e-02) (6, 6.84182951226830482483e-03) (0, -6.83502480387687683105e-02) (1, 3.86465452611446380615e-02) (2, 8.23449809104204177856e-03) (3, 1.12879276275634765625e-01) (4, 5.03581203520298004150e-03) (5, -6.25539645552635192871e-02) (6, 4.22981977462768554688e-02) (0, -3.18663455545902252197e-02) (1, 8.63734632730484008789e-02) (2, 9.89816039800643920898e-02) (3, -3.85656952857971191406e-02) (4, 1.17034129798412322998e-02) (5, 2.46522445231676101685e-02) (6, 5.31816855072975158691e-02) (0, 3.62337306141853332520e-02) (1, 2.30395019054412841797e-01) (2, 1.60231124609708786011e-02) (3, -8.43063890933990478516e-02) (4, -4.05900105834007263184e-02) (5, 4.75109666585922241211e-02) (6, 2.14676670730113983154e-02) (0, -8.23324397206306457520e-02) (1, 1.44741162657737731934e-01) (2, 3.52168530225753784180e-02) (3, -1.67404904961585998535e-01) (4, -2.49042510986328125000e-02) (5, 3.58699895441532135010e-02) (6, 5.09833768010139465332e-02) (0, -3.74567024409770965576e-02) (1, 1.50814518332481384277e-01) (2, -7.45210200548171997070e-02) (3, -8.60367491841316223145e-02) (4, 1.80925205349922180176e-02) (5, 4.64067086577415466309e-02) (6, -2.23273895680904388428e-02) (0, -3.84394191205501556396e-02) (1, 2.84080088138580322266e-01) (2, -8.93641170114278793335e-03) (3, -1.57540321350097656250e-01) (4, -9.31529626250267028809e-02) (5, -6.41392245888710021973e-02) (6, -4.60992977023124694824e-02) (0, 7.59521275758743286133e-02) (1, 1.04539111256599426270e-01) (2, -2.78981192968785762787e-03) (3, -9.11028906702995300293e-02) (4, 1.77544658072292804718e-03) (5, 8.79304856061935424805e-02) (6, -1.32381349802017211914e-01) (0, -8.25622007250785827637e-02) (1, 7.78895709663629531860e-03) (2, -4.93297129869461059570e-02) (3, -5.82564808428287506104e-02) (4, -3.51326167583465576172e-02) (5, 6.88621848821640014648e-02) (6, -6.39520436525344848633e-02) (0, 9.19572860002517700195e-02) (1, -2.77480687946081161499e-02) (2, 9.03827399015426635742e-02) (3, 2.56564952433109283447e-02) (4, 1.05477785691618919373e-02) (5, -8.62976536154747009277e-02) (6, 9.82226654887199401855e-02) (0, -5.29179237782955169678e-02) (1, 9.22738239169120788574e-02) (2, -2.52269618213176727295e-02) (3, -2.71755009889602661133e-02) (4, 4.31980565190315246582e-02) (5, 2.53317002207040786743e-02) (6, 8.65389034152030944824e-02) (0, -3.84419746696949005127e-02) (1, 1.81584790349006652832e-01) (2, 1.19695633649826049805e-01) (3, -1.26976296305656433105e-01) (4, -1.18273226544260978699e-02) (5, 4.70844376832246780396e-03) (6, 8.94286930561065673828e-02) (0, -5.97001798450946807861e-02) (1, 2.96234246343374252319e-02) (2, 2.76213232427835464478e-02) (3, -6.70240297913551330566e-02) (4, -8.24631601572036743164e-02) (5, 8.50307643413543701172e-02) (6, 2.72374833002686500549e-04) (0, -1.01736625656485557556e-02) (1, 2.30963841080665588379e-01) (2, 6.16621337831020355225e-02) (3, -1.97218120098114013672e-01) (4, -7.68919214606285095215e-02) (5, 2.98202317208051681519e-02) (6, 1.86031032353639602661e-02) (0, 7.32551887631416320801e-02) (1, 3.50020706653594970703e-01) (2, 5.80997718498110771179e-03) (3, -3.63246828317642211914e-01) (4, -9.46206748485565185547e-02) (5, 4.88482899963855743408e-02) (6, 2.97033246606588363647e-02) (0, -4.61419597268104553223e-02) (1, -2.79310137033462524414e-01) (2, -4.77940700948238372803e-02) (3, 2.15959429740905761719e-01) (4, 3.43838967382907867432e-02) (5, -3.44750210642814636230e-02) (6, -2.45718136429786682129e-02) (0, 8.94547775387763977051e-02) (1, 5.15674054622650146484e-01) (2, 1.04259643703699111938e-02) (3, -4.56297606229782104492e-01) (4, -1.75858259201049804688e-01) (5, 8.60742852091789245605e-02) (6, 5.41230961680412292480e-02) (0, -1.67041588574647903442e-02) (1, 1.63771375082433223724e-03) (2, 6.05373010039329528809e-02) (3, 1.29487395286560058594e-01) (4, 4.87596169114112854004e-02) (5, 2.90289539843797683716e-02) (6, -7.63693302869796752930e-02) (0, -9.20518785715103149414e-02) (1, -1.17959827184677124023e-01) (2, 6.35112002491950988770e-02) (3, 1.55103653669357299805e-01) (4, -5.54108768701553344727e-02) (5, -3.70369069278240203857e-02) (6, -1.20225206017494201660e-01) (0, 4.80917356908321380615e-02) (1, 1.07673741877079010010e-02) (2, 3.16963270306587219238e-02) (3, -1.53699457645416259766e-01) (4, -1.46578513085842132568e-02) (5, -8.93134847283363342285e-02) (6, 4.37581427395343780518e-02) (0, 6.70639574527740478516e-02) (1, -2.78673451393842697144e-02) (2, -4.50256615877151489258e-02) (3, 4.48773987591266632080e-02) (4, -4.00213338434696197510e-02) (5, 1.06845609843730926514e-02) (6, 4.68304492533206939697e-02) (0, -1.49241671897470951080e-03) (1, 7.46819600462913513184e-02) (2, -1.04540213942527770996e-01) (3, -1.96292906999588012695e-01) (4, -8.21277126669883728027e-02) (5, 7.48862177133560180664e-02) (6, -1.18498675525188446045e-01) (0, -8.88398885726928710938e-02) (1, -3.78946214914321899414e-02) (2, -2.11054645478725433350e-02) (3, -2.05780402757227420807e-03) (4, 1.29440456628799438477e-01) (5, -4.14160713553428649902e-02) (6, -7.17817544937133789062e-02) (0, -6.15321323275566101074e-02) (1, 2.99268782138824462891e-01) (2, -3.47108580172061920166e-02) (3, -1.70045673847198486328e-01) (4, -4.97027821838855743408e-02) (5, 5.80246523022651672363e-02) (6, 1.18772193789482116699e-01) (0, -4.93500269949436187744e-02) (1, 3.85686993598937988281e-01) (2, 1.22554926201701164246e-02) (3, -3.96497488021850585938e-01) (4, -1.89414471387863159180e-01) (5, 2.56206896156072616577e-02) (6, 6.00363127887248992920e-02) (0, -2.25077904760837554932e-02) (1, -1.91673353314399719238e-01) (2, -5.31919039785861968994e-02) (3, 1.72636657953262329102e-02) (4, 8.03376510739326477051e-02) (5, -3.25278379023075103760e-02) (6, -8.98052081465721130371e-02) (0, 1.04303158819675445557e-01) (1, 1.79266005754470825195e-01) (2, -3.27292941510677337646e-02) (3, -2.91320770978927612305e-01) (4, 1.11171221360564231873e-02) (5, 2.88681741803884506226e-02) (6, -3.87028157711029052734e-02) (0, 7.53302648663520812988e-02) (1, 3.02578002214431762695e-01) (2, -3.85510921478271484375e-02) (3, -3.16452383995056152344e-01) (4, -8.45499113202095031738e-02) (5, -2.72461194545030593872e-02) (6, 6.20817430317401885986e-02) (0, -6.99091702699661254883e-02) (1, -2.92775988578796386719e-01) (2, -3.98673815652728080750e-03) (3, 1.73657625913619995117e-01) (4, 1.72446191310882568359e-01) (5, -8.60349014401435852051e-02) (6, -4.85785678029060363770e-02) (0, -6.98559507727622985840e-02) (1, 3.18699590861797332764e-02) (2, -6.64585083723068237305e-02) (3, 3.62632684409618377686e-02) (4, 9.17522758245468139648e-02) (5, -1.61318220198154449463e-02) (6, 2.96587459743022918701e-02) (0, 5.34823536872863769531e-02) (1, 2.23967790603637695312e-01) (2, 7.57336169481277465820e-02) (3, -8.39068144559860229492e-02) (4, -1.32272288203239440918e-01) (5, 8.98593068122863769531e-02) (6, 9.38621014356613159180e-02) (0, 9.14273932576179504395e-02) (1, -3.04116848856210708618e-02) (2, 3.96265611052513122559e-02) (3, 1.04201339185237884521e-01) (4, -3.50442132912576198578e-03) (5, 9.34389010071754455566e-02) (6, 7.48101845383644104004e-02) (0, 1.07267431914806365967e-01) (1, 2.69722998142242431641e-01) (2, 6.08111992478370666504e-02) (3, -3.05882036685943603516e-01) (4, -8.73442217707633972168e-02) (5, -4.85051088035106658936e-02) (6, 8.05175602436065673828e-02) (0, -6.59793429076671600342e-03) (1, -1.69131800532341003418e-01) (2, -1.00303128361701965332e-01) (3, 1.26512333750724792480e-01) (4, 1.51935800909996032715e-01) (5, -6.30460530519485473633e-02) (6, -9.68897864222526550293e-02) (0, 7.53992050886154174805e-02) (1, 1.87615200877189636230e-01) (2, 1.95114240050315856934e-02) (3, -1.87014698982238769531e-01) (4, -1.14366635680198669434e-01) (5, -5.99546097218990325928e-02) (6, 9.94220450520515441895e-02) (0, -4.79817911982536315918e-02) (1, -2.29424282908439636230e-01) (2, -1.03118633851408958435e-02) (3, 7.18900933861732482910e-02) (4, 7.64143168926239013672e-02) (5, -5.96317127346992492676e-02) (6, -1.14738449454307556152e-01) (0, 9.69011783599853515625e-02) (1, -1.97080522775650024414e-01) (2, 5.89182302355766296387e-02) (3, 1.96896985173225402832e-01) (4, 3.71037684381008148193e-02) (5, -1.22869051992893218994e-02) (6, -1.00560195744037628174e-01) (0, -1.16569250822067260742e-01) (1, -7.02754482626914978027e-02) (2, -5.02243638038635253906e-03) (3, 4.90471757948398590088e-02) (4, 1.04315266013145446777e-01) (5, 1.73939056694507598877e-02) (6, -1.37948811054229736328e-01) (0, 7.58485943078994750977e-02) (1, 1.90706085413694381714e-02) (2, -8.49585309624671936035e-02) (3, 8.72385650873184204102e-02) (4, -3.70501466095447540283e-02) (5, 2.25834306329488754272e-02) (6, -5.64842000603675842285e-02) (0, 2.18857917934656143188e-03) (1, -4.13537025451660156250e-02) (2, -8.34778845310211181641e-02) (3, 1.48767918348312377930e-01) (4, 1.33134856820106506348e-01) (5, 3.94145324826240539551e-02) (6, -1.23146042227745056152e-01) (0, 2.75485720485448837280e-02) (1, 2.75020688772201538086e-01) (2, -6.02574758231639862061e-02) (3, -1.42769366502761840820e-01) (4, 3.61265018582344055176e-02) (5, 7.54158794879913330078e-02) (6, 3.73952277004718780518e-02) (0, -1.61765776574611663818e-02) (1, -2.21725597977638244629e-01) (2, -3.52116711437702178955e-02) (3, 1.37281611561775207520e-01) (4, 1.37213528156280517578e-01) (5, -9.30989980697631835938e-02) (6, 5.83440549671649932861e-02) (0, 7.84059986472129821777e-02) (1, -1.14781424403190612793e-01) (2, -8.86084586381912231445e-02) (3, 2.10691541433334350586e-01) (4, 4.71388734877109527588e-02) (5, -7.76022225618362426758e-02) (6, 1.80369317531585693359e-02) (0, 3.49608995020389556885e-02) (1, -9.71239805221557617188e-02) (2, 1.57408658415079116821e-02) (3, 7.11699128150939941406e-02) (4, 5.33507019281387329102e-02) (5, 5.85383735597133636475e-02) (6, -9.77455526590347290039e-02) (0, -2.55336072295904159546e-02) (1, -1.32162682712078094482e-02) (2, -8.84433314204216003418e-02) (3, -1.19730159640312194824e-01) (4, -3.98738794028759002686e-02) (5, -8.03819373250007629395e-02) (6, -3.14110927283763885498e-02) (0, -4.40647937357425689697e-02) (1, -8.55536609888076782227e-02) (2, 7.51371607184410095215e-02) (3, 2.73474063724279403687e-02) (4, -5.11251576244831085205e-02) (5, -1.62545572966337203979e-02) (6, -6.53657466173171997070e-02) (0, -6.89080432057380676270e-02) (1, -2.26801961660385131836e-01) (2, -4.75123412907123565674e-02) (3, 2.87012994289398193359e-01) (4, -6.66575785726308822632e-03) (5, -2.77730077505111694336e-02) (6, 4.38811862841248512268e-03) (0, -2.80645284801721572876e-02) (1, -1.29872187972068786621e-01) (2, -1.14405587315559387207e-01) (3, -3.18827992305159568787e-03) (4, -5.68581297993659973145e-02) (5, 2.98417396843433380127e-02) (6, -6.63674250245094299316e-02) (0, 2.44547501206398010254e-02) (1, 4.94842268526554107666e-02) (2, 1.68967060744762420654e-02) (3, -1.17536723613739013672e-01) (4, -1.14478349685668945312e-01) (5, 3.58522683382034301758e-02) (6, -7.71687626838684082031e-02) (0, -8.40424187481403350830e-03) (1, 4.86586652696132659912e-02) (2, 3.66273932158946990967e-02) (3, 9.61641222238540649414e-02) (4, 1.12489841878414154053e-01) (5, 4.30177636444568634033e-02) (6, 3.30564826726913452148e-02) (0, -5.77461309731006622314e-02) (1, -2.06946179270744323730e-01) (2, -8.82959663867950439453e-02) (3, 1.02061808109283447266e-01) (4, 4.60792332887649536133e-02) (5, -1.03188958019018173218e-02) (6, -3.27183753252029418945e-02) (0, 2.51293983310461044312e-02) (1, 1.32969304919242858887e-01) (2, -8.69262516498565673828e-02) (3, -1.45487457513809204102e-01) (4, -7.51123428344726562500e-02) (5, -6.94890320301055908203e-02) (6, -3.36405262351036071777e-02) (0, -3.82373780012130737305e-02) (1, 2.06370770931243896484e-01) (2, 8.09561461210250854492e-02) (3, -2.24691256880760192871e-01) (4, -6.84800669550895690918e-02) (5, -1.58366728574037551880e-02) (6, -7.18833431601524353027e-02) (0, 2.30614524334669113159e-02) (1, -1.16878829896450042725e-01) (2, -1.36267151683568954468e-02) (3, -1.21530983597040176392e-02) (4, -2.50372067093849182129e-02) (5, -6.28673881292343139648e-02) (6, 8.81571024656295776367e-02) (0, -7.07397013902664184570e-02) (1, 1.47531196475028991699e-01) (2, 2.64472775161266326904e-02) (3, -9.21192690730094909668e-02) (4, -1.24664604663848876953e-01) (5, 4.69720475375652313232e-02) (6, 7.03788176178932189941e-02) (0, 1.59969311207532882690e-02) (1, -5.73243200778961181641e-02) (2, -2.32258383184671401978e-02) (3, -3.74708436429500579834e-02) (4, -9.28988456726074218750e-02) (5, -1.04155139997601509094e-02) (6, -3.48479300737380981445e-03) (0, 1.54653424397110939026e-02) (1, 2.14054897427558898926e-01) (2, 1.27795293927192687988e-01) (3, -3.78947332501411437988e-02) (4, -6.10789097845554351807e-03) (5, 8.81879255175590515137e-02) (6, 1.57510474324226379395e-01) (0, -7.38509967923164367676e-02) (1, 4.17360849678516387939e-02) (2, -7.65187367796897888184e-02) (3, -1.69712621718645095825e-02) (4, 4.09030029550194740295e-03) (5, 8.69046058505773544312e-03) (6, 6.51367381215095520020e-02) (0, 1.09678626060485839844e-01) (1, 4.16287660598754882812e-01) (2, 9.53820869326591491699e-02) (3, -3.74516278505325317383e-01) (4, -9.14359688758850097656e-02) (5, -1.77391786128282546997e-02) (6, 9.18010175228118896484e-02) (0, 1.43538683187216520309e-03) (1, -2.79325574636459350586e-01) (2, -5.19306957721710205078e-02) (3, 9.51789990067481994629e-02) (4, 4.48185876011848449707e-02) (5, 4.76443991065025329590e-02) (6, -5.70126548409461975098e-02) (0, 1.07320211827754974365e-02) (1, -1.04412538930773735046e-02) (2, 1.02853514254093170166e-01) (3, 5.07048703730106353760e-02) (4, 9.35409218072891235352e-02) (5, 9.09874811768531799316e-02) (6, 4.06747609376907348633e-02) (0, 2.93128918856382369995e-02) (1, 1.82013452053070068359e-01) (2, 6.38440297916531562805e-03) (3, -5.95561638474464416504e-02) (4, -1.26968249678611755371e-01) (5, -2.09619966335594654083e-03) (6, 2.46775336563587188721e-02) (0, 5.08077405393123626709e-02) (1, 3.11476081609725952148e-01) (2, -5.37610799074172973633e-02) (3, -1.73829957842826843262e-01) (4, -3.69372628629207611084e-02) (5, 6.40266463160514831543e-02) (6, 4.83500696718692779541e-02) (0, -4.80305179953575134277e-02) (1, -1.98448136448860168457e-01) (2, -1.01718902587890625000e-01) (3, 1.95570290088653564453e-01) (4, 2.91788987815380096436e-02) (5, 3.69249726645648479462e-03) (6, -9.89673882722854614258e-02) (0, 4.22880724072456359863e-02) (1, -9.42229926586151123047e-02) (2, 1.24037489295005798340e-02) (3, -2.47321333736181259155e-02) (4, -2.43841530755162239075e-03) (5, -2.75312922894954681396e-03) (6, 9.91128981113433837891e-02) (0, -7.75124135543592274189e-05) (1, 2.67883092164993286133e-02) (2, 3.03817894309759140015e-02) (3, 7.56678134202957153320e-02) (4, -8.59437733888626098633e-02) (5, 9.77703705430030822754e-02) (6, 5.76338507235050201416e-02) (0, -9.96255949139595031738e-02) (1, -3.49259406328201293945e-01) (2, 3.74865941703319549561e-02) (3, 3.20104092359542846680e-01) (4, 7.44806900620460510254e-02) (5, -9.92992818355560302734e-02) (6, -9.37569215893745422363e-02) (0, -1.01834937930107116699e-01) (1, 1.65643334388732910156e-01) (2, 9.09572914242744445801e-02) (3, -1.42069101333618164062e-01) (4, -1.42285659909248352051e-01) (5, 8.64646434783935546875e-02) (6, -6.90478384494781494141e-02) (0, -7.32264667749404907227e-02) (1, -1.50512471795082092285e-01) (2, -9.02346298098564147949e-02) (3, -3.17940264940261840820e-02) (4, 4.90011908113956451416e-02) (5, 3.73537801206111907959e-02) (6, -1.37704566121101379395e-01) (0, -7.68755227327346801758e-02) (1, -1.37080466374754905701e-02) (2, -5.65911866724491119385e-02) (3, -2.24524885416030883789e-02) (4, 2.02303919941186904907e-02) (5, 4.68621514737606048584e-02) (6, -1.68864466249942779541e-02) (0, 5.38740754127502441406e-02) (1, -4.35596741735935211182e-02) (2, 9.47806313633918762207e-02) (3, 1.54369428753852844238e-01) (4, -7.68039524555206298828e-02) (5, 6.99375942349433898926e-02) (6, 4.43632900714874267578e-02) (0, 6.63373013958334922791e-03) (1, 3.57688546180725097656e-01) (2, -4.39620651304721832275e-02) (3, -2.23132908344268798828e-01) (4, -3.70610989630222320557e-02) (5, 1.05250947177410125732e-01) (6, 1.15303061902523040771e-01) (0, 9.04289707541465759277e-02) (1, 4.36180174350738525391e-01) (2, 1.22995845973491668701e-01) (3, -3.26288580894470214844e-01) (4, -1.10024899244308471680e-01) (5, -7.38653168082237243652e-02) (6, 2.27204505354166030884e-02) (0, -9.09282863140106201172e-02) (1, 1.08993835747241973877e-01) (2, -3.13443802297115325928e-02) (3, -9.80611145496368408203e-02) (4, -9.40830036997795104980e-02) (5, -7.03432410955429077148e-03) (6, 3.40002626180648803711e-02) (0, 6.09989017248153686523e-02) (1, -7.71924629807472229004e-02) (2, -8.62074941396713256836e-02) (3, 2.86434050649404525757e-02) (4, 9.74870547652244567871e-02) (5, -7.62237682938575744629e-02) (6, -3.41453291475772857666e-02) (0, 9.74853113293647766113e-02) (1, -9.41058993339538574219e-03) (2, -7.12059214711189270020e-02) (3, 7.01259374618530273438e-02) (4, 1.12711392343044281006e-01) (5, -6.08754530549049377441e-02) (6, 4.23396788537502288818e-02) (0, 1.07628712430596351624e-02) (1, -1.88700601458549499512e-01) (2, -3.22566777467727661133e-02) (3, 8.14705044031143188477e-02) (4, -3.12575548887252807617e-02) (5, -6.19103647768497467041e-02) (6, -2.87026856094598770142e-02) (0, 5.98639920353889465332e-02) (1, 1.01734846830368041992e-01) (2, 4.92621921002864837646e-02) (3, -2.43473127484321594238e-02) (4, -7.58352726697921752930e-02) (5, 1.05902850627899169922e-01) (6, 1.61556109786033630371e-01) (0, -2.04778965562582015991e-02) (1, 2.44956668466329574585e-02) (2, 3.62453311681747436523e-02) (3, -7.24125429987907409668e-02) (4, 3.82859893143177032471e-02) (5, 6.10608085989952087402e-02) (6, 8.02408456802368164062e-02) (0, 4.16113696992397308350e-02) (1, 5.28542920947074890137e-02) (2, -2.76887286454439163208e-02) (3, 6.38320222496986389160e-02) (4, 8.94701555371284484863e-02) (5, 5.32172573730349540710e-03) (6, 9.40543636679649353027e-02) (0, 8.40954035520553588867e-02) (1, 1.82309553027153015137e-01) (2, 7.15712755918502807617e-02) (3, -9.68849137425422668457e-02) (4, 6.25826492905616760254e-02) (5, -7.57545232772827148438e-02) (6, 1.01501829922199249268e-01) (0, -1.00474953651428222656e-01) (1, -2.19317227602005004883e-01) (2, -1.08945280313491821289e-01) (3, 1.65616571903228759766e-01) (4, 7.04178586602210998535e-02) (5, 3.32715436816215515137e-02) (6, -7.00594410300254821777e-02) (0, 3.98606844246387481689e-02) (1, -6.63279220461845397949e-02) (2, -3.93329784274101257324e-02) (3, -9.24534723162651062012e-03) (4, -7.67160281538963317871e-02) (5, -1.04588948190212249756e-01) (6, -4.20389845967292785645e-02) (0, 6.54930397868156433105e-02) (1, 1.58393979072570800781e-01) (2, -2.93640606105327606201e-02) (3, -7.74941220879554748535e-02) (4, 3.98118384182453155518e-02) (5, 5.04049174487590789795e-02) (6, -6.39705210924148559570e-02) (0, 5.76830469071865081787e-02) (1, 1.33145108819007873535e-01) (2, -3.56669276952743530273e-02) (3, -1.42034187912940979004e-01) (4, -1.41149744391441345215e-01) (5, 9.03432443737983703613e-02) (6, 1.01192444562911987305e-01) (0, -1.14785142242908477783e-01) (1, -2.01028045266866683960e-02) (2, 2.88884621113538742065e-03) (3, -1.76454931497573852539e-01) (4, -8.64172652363777160645e-02) (5, 2.82425489276647567749e-02) (6, 5.22372126579284667969e-02) (0, 1.09701640903949737549e-01) (1, -1.62173137068748474121e-01) (2, -1.26577103510499000549e-02) (3, 2.22894936800003051758e-01) (4, 1.66853189468383789062e-01) (5, 6.60705193877220153809e-02) (6, 1.26488715410232543945e-01) (0, -8.55593159794807434082e-02) (1, 1.42560228705406188965e-01) (2, -2.03657057136297225952e-02) (3, 1.16865765303373336792e-02) (4, 1.20682530105113983154e-02) (5, 5.19467890262603759766e-02) (6, 4.60789771750569343567e-03) (0, -1.31533807143568992615e-02) (1, -3.77494702115654945374e-03) (2, 3.05941868573427200317e-02) (3, -7.62250348925590515137e-02) (4, 4.71104346215724945068e-02) (5, 8.14277678728103637695e-02) (6, 1.79031118750572204590e-02) (0, 9.39967110753059387207e-02) (1, -7.38285668194293975830e-03) (2, 4.11105453968048095703e-02) (3, 1.97322502732276916504e-01) (4, 1.15003190934658050537e-01) (5, -5.40040992200374603271e-02) (6, -5.93269318342208862305e-02) (0, -4.28498685359954833984e-02) (1, 4.96098518371582031250e-01) (2, 1.33076533675193786621e-01) (3, -4.42274212837219238281e-01) (4, -1.93712815642356872559e-01) (5, -4.07741852104663848877e-02) (6, 1.14647716283798217773e-01) (0, -4.84574623405933380127e-02) (1, -3.02252680063247680664e-01) (2, 2.30067577213048934937e-02) (3, 1.70254111289978027344e-01) (4, 1.64130777120590209961e-01) (5, -8.18218886852264404297e-02) (6, -5.83188384771347045898e-02) (0, 5.25866113603115081787e-02) (1, 2.46412575244903564453e-01) (2, 8.99146795272827148438e-02) (3, -1.86545476317405700684e-01) (4, -8.04220959544181823730e-02) (5, 6.56838854774832725525e-03) (6, 5.37651367485523223877e-02) (0, -8.41441750526428222656e-02) (1, 9.81292799115180969238e-02) (2, -6.92205950617790222168e-02) (3, -2.16778874397277832031e-01) (4, -7.07267001271247863770e-02) (5, 5.73151297867298126221e-02) (6, 6.87005445361137390137e-02) (0, -7.09411725401878356934e-02) (1, -4.58534598350524902344e-01) (2, -1.43797263503074645996e-01) (3, 2.89184868335723876953e-01) (4, 2.09947153925895690918e-01) (5, 9.24505665898323059082e-02) (6, -6.02786354720592498779e-02) (0, -7.52584561705589294434e-02) (1, 2.84114782698452472687e-03) (2, -4.09753769636154174805e-02) (3, -7.86018818616867065430e-02) (4, -5.41877634823322296143e-02) (5, -1.03019386529922485352e-01) (6, 3.06963324546813964844e-02) (0, -9.26491841673851013184e-02) (1, -3.31286191940307617188e-01) (2, -1.46795079112052917480e-01) (3, 2.19200626015663146973e-01) (4, 1.34569168090820312500e-01) (5, 4.60911802947521209717e-02) (6, 3.43249319121241569519e-03) (0, -8.52877497673034667969e-02) (1, -2.32355013489723205566e-01) (2, -5.62172457575798034668e-02) (3, 9.96800512075424194336e-02) (4, 1.05866387486457824707e-01) (5, 5.93078881502151489258e-03) (6, -7.85360932350158691406e-02) (0, -6.21912255883216857910e-02) (1, -9.20180231332778930664e-02) (2, -2.74220034480094909668e-02) (3, 7.43181928992271423340e-02) (4, 1.70408710837364196777e-02) (5, -3.35405431687831878662e-02) (6, 9.81082469224929809570e-02) (0, -5.07176145911216735840e-02) (1, -1.33586987853050231934e-01) (2, -4.50635366141796112061e-02) (3, 5.13877905905246734619e-02) (4, 3.23300324380397796631e-02) (5, 4.01916801929473876953e-02) (6, 4.85937967896461486816e-02) (0, 1.34401798248291015625e-01) (1, 3.63579243421554565430e-01) (2, 1.03329680860042572021e-01) (3, -2.77694612741470336914e-01) (4, -2.58197486400604248047e-02) (5, 6.23649843037128448486e-02) (6, 2.04511284828186035156e-01) (0, 2.90768817067146301270e-02) (1, -2.56492972373962402344e-01) (2, 7.06853345036506652832e-02) (3, 3.03676664829254150391e-01) (4, 1.51367232203483581543e-01) (5, -3.23180891573429107666e-02) (6, -8.95940661430358886719e-02) (0, -3.34413466043770313263e-03) (1, -4.82249557971954345703e-02) (2, -1.39420637860894203186e-02) (3, 1.25168383121490478516e-01) (4, -1.06941070407629013062e-02) (5, 5.39906173944473266602e-02) (6, 8.00480544567108154297e-02) (0, 6.21080212295055389404e-02) (1, 6.66340887546539306641e-02) (2, 1.00554145872592926025e-01) (3, -1.79142951965332031250e-01) (4, -5.66271133720874786377e-02) (5, -4.15219068527221679688e-02) (6, 7.36172944307327270508e-02) (0, 1.05586290359497070312e-01) (1, 1.52779519557952880859e-01) (2, 3.07248979806900024414e-02) (3, 5.19086159765720367432e-02) (4, 1.98634881526231765747e-02) (5, -4.14333269000053405762e-02) (6, -5.89329004287719726562e-02) (0, -8.36937129497528076172e-03) (1, 6.33241161704063415527e-02) (2, -9.29501131176948547363e-02) (3, -2.35326677560806274414e-01) (4, -5.36619611084461212158e-02) (5, 9.34610962867736816406e-02) (6, 8.69842916727066040039e-02) (0, -5.68681918084621429443e-02) (1, -1.06393456459045410156e-01) (2, -9.77541133761405944824e-02) (3, 8.71713012456893920898e-02) (4, -4.98730204999446868896e-02) (5, 2.37824432551860809326e-02) (6, -5.32832667231559753418e-02) (0, -2.74764262139797210693e-02) (1, -4.73503917455673217773e-02) (2, -2.08043865859508514404e-02) (3, -6.46396428346633911133e-02) (4, 6.74826139584183692932e-03) (5, -5.55427968502044677734e-02) (6, -8.90756100416183471680e-02) (0, 7.15420544147491455078e-02) (1, 7.59796798229217529297e-02) (2, 3.05997859686613082886e-02) (3, -2.00056135654449462891e-02) (4, -3.95748168230056762695e-02) (5, -5.17319776117801666260e-02) (6, 3.09220980852842330933e-02) (0, -3.87222580611705780029e-02) (1, -9.53391641378402709961e-02) (2, 7.19677135348320007324e-02) (3, 1.75579026341438293457e-01) (4, 6.62699192762374877930e-02) (5, 7.62070491909980773926e-02) (6, 1.01434729993343353271e-01) (0, -4.80150692164897918701e-02) (1, 2.09784388542175292969e-01) (2, 9.79971066117286682129e-02) (3, -1.00475355982780456543e-01) (4, -1.15048818290233612061e-01) (5, 9.23505201935768127441e-02) (6, 1.02431066334247589111e-02) (0, -1.75081379711627960205e-02) (1, 1.63369309157133102417e-02) (2, 5.73897063732147216797e-02) (3, 8.52219760417938232422e-02) (4, 1.14265389740467071533e-01) (5, -7.16659873723983764648e-02) (6, 1.09847642481327056885e-01) (0, 1.42198847606778144836e-02) (1, 7.60184153914451599121e-02) (2, 9.08856093883514404297e-02) (3, -9.14304777979850769043e-02) (4, 3.36600951850414276123e-02) (5, 1.68679859489202499390e-02) (6, -2.24392022937536239624e-03) (0, -6.19745850563049316406e-02) (1, 1.27656117081642150879e-01) (2, -9.83449518680572509766e-02) (3, -1.04375429451465606689e-01) (4, -7.84406214952468872070e-02) (5, 6.14739954471588134766e-02) (6, -9.72701758146286010742e-02) (0, 5.68489395081996917725e-02) (1, 2.30625029653310775757e-02) (2, -1.12605184316635131836e-01) (3, -1.24184533953666687012e-01) (4, -1.19256973266601562500e-02) (5, 5.16582801938056945801e-02) (6, -6.32239878177642822266e-02) (0, 2.84668505191802978516e-02) (1, 2.66077667474746704102e-02) (2, 2.71574556827545166016e-02) (3, 1.07946477830410003662e-01) (4, -1.95505917072296142578e-02) (5, -4.41434904932975769043e-02) (6, 7.60727236047387123108e-03) (0, -5.73986135423183441162e-02) (1, -1.85872808098793029785e-01) (2, -7.05169215798377990723e-02) (3, 1.76330178976058959961e-01) (4, 6.92912042140960693359e-02) (5, -8.66159796714782714844e-02) (6, -8.95940139889717102051e-02) (0, -4.13726121187210083008e-02) (1, -1.40029206871986389160e-01) (2, -3.65958064794540405273e-02) (3, 1.45550847053527832031e-01) (4, 1.83952208608388900757e-02) (5, 3.79666360095143318176e-03) (6, -1.17907971143722534180e-01) (0, 8.53776112198829650879e-02) (1, -8.53706151247024536133e-02) (2, 2.01500728726387023926e-02) (3, 1.70215427875518798828e-01) (4, -1.29224900156259536743e-02) (5, 1.86392050236463546753e-02) (6, 9.22556146979331970215e-02) (0, 4.47374023497104644775e-02) (1, 8.55968669056892395020e-02) (2, -6.95482119917869567871e-02) (3, -1.29949629306793212891e-01) (4, -1.08557350933551788330e-01) (5, 4.23330478370189666748e-02) (6, -4.94050905108451843262e-02) (0, 3.16743925213813781738e-02) (1, 1.96143701672554016113e-01) (2, 6.99334144592285156250e-02) (3, 2.45276205241680145264e-02) (4, -5.67365400493144989014e-02) (5, 8.88286456465721130371e-02) (6, 8.11664909124374389648e-02) (0, 8.24882015585899353027e-02) (1, 1.55053153634071350098e-01) (2, 5.43346107006072998047e-02) (3, -8.03857594728469848633e-02) (4, -2.35415305942296981812e-02) (5, -6.09217621386051177979e-02) (6, -6.46545812487602233887e-02) (0, -9.89955961704254150391e-02) (1, 2.68612176179885864258e-01) (2, 3.60342371277511119843e-03) (3, -1.35297611355781555176e-01) (4, -1.08187645673751831055e-01) (5, 8.77399817109107971191e-02) (6, -4.22383751720190048218e-03) (0, 2.03724112361669540405e-02) (1, 1.68589279055595397949e-01) (2, -5.20886741578578948975e-02) (3, -1.87227502465248107910e-01) (4, 2.77490746229887008667e-02) (5, -4.91790622472763061523e-02) (6, 4.96122390031814575195e-02) (0, -7.80576616525650024414e-02) (1, 3.09439480304718017578e-01) (2, 7.01381415128707885742e-02) (3, -1.78276956081390380859e-01) (4, 1.28365475684404373169e-02) (5, -1.89237501472234725952e-02) (6, 2.45211103901965543628e-05) (0, -7.55677297711372375488e-02) (1, -1.23753808438777923584e-01) (2, 4.94261234998703002930e-02) (3, -2.09030937403440475464e-02) (4, -4.51561436057090759277e-02) (5, -7.19704723451286554337e-04) (6, -1.73738673329353332520e-02) (0, 7.29219093918800354004e-02) (1, 2.12455298751592636108e-02) (2, 4.43647652864456176758e-02) (3, 1.15984559059143066406e-01) (4, 6.41874670982360839844e-02) (5, -5.11003956198692321777e-02) (6, 2.62212473899126052856e-02) (7, -2.05073639750480651855e-01) (8, -1.56434163451194763184e-01) (9, -2.12376698851585388184e-01) (10, 2.31455981731414794922e-01) (11, -6.91083632409572601318e-03) (12, -2.03292459249496459961e-01) (13, 1.06278158724308013916e-01) (14, 1.02125242352485656738e-01) (15, -1.56987965106964111328e-01) (16, 2.33276337385177612305e-01) (17, -1.68352741748094558716e-02) (18, -1.42510131001472473145e-01) (19, 3.96130174398422241211e-01) (20, -2.39806473255157470703e-01) (21, -1.15461781620979309082e-01) (22, -1.36189699172973632812e-01) (23, -3.26360076665878295898e-01) (24, 2.44016051292419433594e-01) (25, 8.10751542448997497559e-02) (26, 1.00093536078929901123e-01) (27, -1.06411404907703399658e-01) (28, 3.89881342649459838867e-01) (29, -1.20127521455287933350e-01) (30, 6.55104070901870727539e-02) (31, 2.22631484270095825195e-01) (32, -2.95864105224609375000e-01) (33, -3.18859778344631195068e-02) (34, -9.46087837219238281250e-02) (35, 5.19711337983608245850e-02) (36, -3.53483445942401885986e-02) (37, -1.04855038225650787354e-01) (38, -7.65820294618606567383e-02) (39, -1.70963644981384277344e-01) (40, 6.15976378321647644043e-02) (41, 1.27062976360321044922e-01) (42, 2.54621028900146484375e-01) (43, 3.62044312059879302979e-02) (44, 1.17510952055454254150e-01) (45, 1.70485805720090866089e-02) (46, -2.33748555183410644531e-02) (47, -2.17541190795600414276e-03) (48, 4.53128606081008911133e-01) (49, -1.46382212638854980469e-01) (50, 2.49967202544212341309e-01) (51, 3.75116258859634399414e-01) (52, 6.56202211976051330566e-02) (53, -4.47750724852085113525e-02) (54, -1.73152789473533630371e-01) (55, 4.31939452886581420898e-01) (56, 2.86592513322830200195e-01) (57, 7.50434845685958862305e-02) (58, -5.59401661157608032227e-02) (59, 5.58102561626583337784e-04) (60, 4.25932928919792175293e-02) (61, 1.82822003960609436035e-01) (62, -2.84088551998138427734e-02) (63, -8.47942531108856201172e-02) (64, -1.91127061843872070312e-01) (65, 2.82432347536087036133e-01) (66, 1.77355036139488220215e-01) (67, 2.51414716243743896484e-01) (68, -2.41136759519577026367e-01) (69, 1.67512640357017517090e-01) (70, 2.31325268745422363281e-01) (71, -1.37868657708168029785e-01) (72, 1.33456513285636901855e-01) (73, 2.50371307134628295898e-01) (74, 1.63681820034980773926e-01) (75, 3.17334681749343872070e-01) (76, -4.26170021295547485352e-01) (77, 2.16912135481834411621e-01) (78, 3.08111459016799926758e-01) (79, -1.35586380958557128906e-01) (80, -2.39799067378044128418e-01) (81, 6.57141162082552909851e-03) (82, -1.11997783184051513672e-01) (83, -1.46081849932670593262e-01) (84, -1.64509177207946777344e-01) (85, -1.58230781555175781250e-01) (86, -2.22114190459251403809e-01) (87, -1.64286345243453979492e-01) (88, -5.20051829516887664795e-02) (89, 7.98867195844650268555e-02) (90, -1.31928836926817893982e-02) (91, -1.49896427989006042480e-01) (92, -7.40020722150802612305e-02) (93, -3.01473319530487060547e-01) (94, -4.29141074419021606445e-01) (95, 2.83255040645599365234e-01) (96, -5.56907713413238525391e-01) (97, 9.34813320636749267578e-02) (98, 1.43787622451782226562e-01) (99, -1.15755356848239898682e-01) (100, 4.42157983779907226562e-02) (101, -1.77974402904510498047e-01) (102, 3.97524274885654449463e-02) (103, -2.59855538606643676758e-01) (104, -4.73063319921493530273e-01) (105, 1.09843775629997253418e-01) (106, -2.84253001213073730469e-01) (107, -3.71290236711502075195e-01) (108, 2.25489467382431030273e-01) (109, 5.36514297127723693848e-02) (110, -1.80413663387298583984e-01) (111, 7.36990049481391906738e-02) (112, -3.12581300735473632812e-01) (113, 1.62928253412246704102e-01) (114, -2.48796030879020690918e-01) (115, 1.67243748903274536133e-01) (116, 2.70513266324996948242e-01) (117, 5.76289817690849304199e-02) (118, 8.07354301214218139648e-02) (119, 6.23373873531818389893e-02) (120, -1.87232136726379394531e-01) (121, 1.95295467972755432129e-01) (122, 2.41130694746971130371e-01) (123, 1.13943263888359069824e-01) (124, -3.91859374940395355225e-02) (125, 2.79813888482749462128e-03) (126, 3.04607987403869628906e-01) (127, 6.31639286875724792480e-02) (128, -6.78140595555305480957e-02) (129, -1.24462395906448364258e-02) (130, 2.48458072543144226074e-01) (131, -2.12378144264221191406e-01) (132, -2.05948546528816223145e-01) (133, 3.96486744284629821777e-02) (134, -2.01454430818557739258e-01) (135, 5.75015917420387268066e-02) (136, -1.52089357376098632812e-01) (137, -2.33034677803516387939e-02) (138, -4.44834858179092407227e-01) (139, 1.78927913308143615723e-01) (140, -1.37629481032490730286e-02) (141, -1.24697744846343994141e-01) (142, -2.79116481542587280273e-01) (143, 1.47377938032150268555e-01) (144, 9.32530239224433898926e-02) (145, 1.27807715907692909241e-02) (146, 3.53234320878982543945e-01) (147, -1.73226669430732727051e-01) (148, 9.37708914279937744141e-02) (149, 3.37609946727752685547e-02) (150, 1.58762872219085693359e-01) (151, -2.96004980802536010742e-01) (152, -4.31061297655105590820e-01) (153, -6.14999122917652130127e-02) (154, 3.48310135304927825928e-02) (155, 7.06850811839103698730e-02) (156, 2.12973415851593017578e-01) (157, -1.16768091917037963867e-01) (158, -3.27264629304409027100e-02) (159, 3.40983159840106964111e-02) (160, -1.25165030360221862793e-01) (161, 1.96953147649765014648e-01) (162, 7.88172483444213867188e-02) (163, -1.87330946326255798340e-01) (164, -1.89629554748535156250e-01) (165, -1.05298109352588653564e-01) (166, 2.85796850919723510742e-01) (167, -7.32023343443870544434e-02) (168, -2.64089480042457580566e-02) (169, 2.05267176032066345215e-01) (170, -5.47640979290008544922e-01) (171, 2.77995198965072631836e-01) (172, -2.42646962404251098633e-01) (173, -2.24227815866470336914e-01) (174, 4.14892941713333129883e-01) (175, -6.84877932071685791016e-02) (176, 3.00125390291213989258e-01) (177, 1.72786027193069458008e-01) (178, 1.47633820772171020508e-01) (179, 8.29454511404037475586e-02) (180, -3.44263911247253417969e-01) (181, 3.30890774726867675781e-01) (182, 9.10803154110908508301e-02) (183, -1.25081330537796020508e-01) (184, 2.25395616143941879272e-02) (185, -2.07401156425476074219e-01) (186, 4.30229604244232177734e-02) (187, 3.06281093508005142212e-02) (188, -9.05357226729393005371e-02) (189, 1.82391658425331115723e-01) (190, -1.72090530395507812500e-01) (191, 8.69272127747535705566e-02) (192, -6.78892806172370910645e-02) (193, -1.36271938681602478027e-01) (194, -7.31240808963775634766e-02) (195, 3.62769551575183868408e-02) (196, 2.52279818058013916016e-01) (197, 1.47728621959686279297e-01) (198, 1.87327727675437927246e-01) (199, -1.14743642508983612061e-01) (200, -6.09542205929756164551e-02) (201, -5.58990426361560821533e-02) (202, -2.64892697334289550781e-01) (203, -2.22168102860450744629e-01) (204, -2.78925657272338867188e-01) (205, 1.13868996500968933105e-01) (206, 1.05374800041317939758e-02) (207, -1.36907190084457397461e-01) (7, -1.11375510692596435547e-01) (8, -1.89594313502311706543e-01) (9, -1.44709840416908264160e-01) (10, 2.16722697019577026367e-01) (11, -1.89721003174781799316e-01) (12, -1.11740268766880035400e-01) (13, 3.38056893087923526764e-03) (14, 1.99613347649574279785e-01) (15, -1.37612491846084594727e-01) (16, 1.38976395130157470703e-01) (17, 3.10749467462301254272e-02) (18, -1.27786323428153991699e-01) (19, 7.38385319709777832031e-02) (20, -2.56904542446136474609e-01) (21, 5.30195161700248718262e-02) (22, -6.48518204689025878906e-02) (23, -1.93673461675643920898e-01) (24, 1.97533100843429565430e-01) (25, -4.30969372391700744629e-02) (26, 9.51108410954475402832e-02) (27, -1.25244483351707458496e-01) (28, 3.59356284141540527344e-01) (29, -8.05809274315834045410e-02) (30, 1.95364475250244140625e-01) (31, 2.48563259840011596680e-01) (32, -1.07855387032032012939e-01) (33, -1.70526236295700073242e-01) (34, 4.07637096941471099854e-02) (35, 7.76438713073730468750e-02) (36, -6.48710578680038452148e-02) (37, 4.02031429111957550049e-02) (38, -1.88010130077600479126e-02) (39, -1.14238470792770385742e-01) (40, 2.76395767927169799805e-01) (41, 1.83094050735235214233e-02) (42, 2.12676376104354858398e-01) (43, -7.30122178792953491211e-02) (44, 3.89254093170166015625e-02) (45, 4.45130094885826110840e-02) (46, -2.28587463498115539551e-01) (47, 7.16595426201820373535e-02) (48, 4.05648410320281982422e-01) (49, -8.01614522933959960938e-02) (50, 2.23303839564323425293e-01) (51, 3.35152484476566314697e-02) (52, -1.48225082084536552429e-02) (53, 7.57128000259399414062e-02) (54, -9.28162038326263427734e-02) (55, 3.51972520351409912109e-01) (56, 1.73177495598793029785e-01) (57, 1.80579066276550292969e-01) (58, -6.78124129772186279297e-02) (59, 3.79547923803329467773e-02) (60, -6.44388701766729354858e-03) (61, 8.40972214937210083008e-02) (62, 5.66432531923055648804e-03) (63, -8.01789760589599609375e-02) (64, -1.43934518098831176758e-01) (65, 1.33249357342720031738e-01) (66, -1.72189343720674514771e-03) (67, 1.77827224135398864746e-01) (68, -1.74186915159225463867e-01) (69, 1.58532798290252685547e-01) (70, 7.50691816210746765137e-02) (71, -1.73140674829483032227e-01) (72, 1.03549242019653320312e-01) (73, 2.57128477096557617188e-01) (74, -6.52020946145057678223e-02) (75, 4.29737009108066558838e-02) (76, -2.17741563916206359863e-01) (77, 6.20703473687171936035e-02) (78, 2.27296814322471618652e-01) (79, -1.27482444047927856445e-01) (80, -2.62369923293590545654e-02) (81, 4.32953201234340667725e-02) (82, -9.51290279626846313477e-02) (83, -2.00095206499099731445e-01) (84, -1.22723802924156188965e-01) (85, 2.33522383496165275574e-03) (86, -1.84772282838821411133e-01) (87, 4.52536121010780334473e-02) (88, 5.46990483999252319336e-02) (89, -8.53383839130401611328e-02) (90, -7.63869956135749816895e-02) (91, -1.93195641040802001953e-01) (92, -1.66423581540584564209e-02) (93, -9.21764448285102844238e-02) (94, -2.06547021865844726562e-01) (95, 2.21392318606376647949e-01) (96, -3.64711582660675048828e-01) (97, 6.71491995453834533691e-02) (98, 1.17100402712821960449e-01) (99, -6.33365437388420104980e-02) (100, -2.80784927308559417725e-02) (101, 3.48076596856117248535e-02) (102, 5.75733706355094909668e-02) (103, -2.33169108629226684570e-01) (104, -2.30066195130348205566e-01) (105, 1.48946017026901245117e-01) (106, -1.25077381730079650879e-01) (107, -1.60185456275939941406e-01) (108, 2.53577113151550292969e-01) (109, -3.94216477870941162109e-02) (110, -2.53978997468948364258e-01) (111, -2.70398166030645370483e-02) (112, -2.79434800148010253906e-01) (113, 1.48564368486404418945e-01) (114, -1.31580814719200134277e-01) (115, 1.63733512163162231445e-01) (116, 7.30180069804191589355e-02) (117, 1.56574010848999023438e-01) (118, -1.49841215461492538452e-02) (119, 1.62753582000732421875e-01) (120, -2.10213840007781982422e-01) (121, 1.64969474077224731445e-01) (122, 8.99453740566968917847e-03) (123, 9.37415435910224914551e-02) (124, 4.80278283357620239258e-02) (125, 1.04844659566879272461e-01) (126, 1.48557379841804504395e-01) (127, 1.56841233372688293457e-01) (128, -3.30888815224170684814e-02) (129, 4.84461747109889984131e-02) (130, 9.94487404823303222656e-02) (131, 5.60496840626001358032e-03) (132, -8.64087566733360290527e-02) (133, 3.23673970997333526611e-02) (134, -3.62819731235504150391e-02) (135, -2.96202115714550018311e-02) (136, -2.50535368919372558594e-01) (137, -4.30239066481590270996e-02) (138, -3.71822327375411987305e-01) (139, 2.27353245019912719727e-01) (140, -1.39458728954195976257e-02) (141, -1.80068224668502807617e-01) (142, -1.88190311193466186523e-01) (143, 1.98755666613578796387e-01) (144, -3.30056436359882354736e-02) (145, -9.13408473134040832520e-02) (146, 3.05179059505462646484e-01) (147, -7.67696052789688110352e-02) (148, 1.99115768074989318848e-01) (149, -7.17232935130596160889e-03) (150, -4.63581867516040802002e-02) (151, -3.04772585630416870117e-01) (152, -3.48698973655700683594e-01) (153, -7.00873583555221557617e-02) (154, 1.07559517025947570801e-01) (155, 2.12877951562404632568e-02) (156, 6.47134557366371154785e-02) (157, -1.74684286117553710938e-01) (158, -4.43535521626472473145e-02) (159, -2.23461519926786422729e-02) (160, -1.97937905788421630859e-01) (161, 2.35323742032051086426e-01) (162, 4.70415018498897552490e-02) (163, 9.46960237342864274979e-04) (164, -1.39672338962554931641e-01) (165, 5.32324239611625671387e-03) (166, -3.30976955592632293701e-02) (167, -4.81791310012340545654e-02) (168, 3.25787886977195739746e-02) (169, -3.86138930916786193848e-02) (170, -3.51809084415435791016e-01) (171, 1.83686912059783935547e-01) (172, -2.36038327217102050781e-01) (173, -1.67909543961286544800e-02) (174, 3.66917550563812255859e-01) (175, 1.96522157639265060425e-02) (176, 3.00127387046813964844e-01) (177, 2.23715454339981079102e-01) (178, -3.00776790827512741089e-02) (179, 1.25890269875526428223e-01) (180, -3.98506760597229003906e-01) (181, 1.76203578710556030273e-01) (182, 5.14984838664531707764e-02) (183, -1.72171562910079956055e-01) (184, -1.34257212281227111816e-01) (185, -4.78785894811153411865e-02) (186, 1.48233562707901000977e-01) (187, 3.27312648296356201172e-02) (188, -1.50388814508914947510e-02) (189, -1.83366890996694564819e-02) (190, -1.97254240512847900391e-01) (191, -1.09957650303840637207e-01) (192, -1.10636666417121887207e-01) (193, 1.69965699315071105957e-02) (194, 5.50615303218364715576e-02) (195, -8.85997340083122253418e-03) (196, 1.42024323344230651855e-01) (197, 2.06707626581192016602e-01) (198, -7.78965801000595092773e-02) (199, -7.88107290863990783691e-02) (200, -2.14590743184089660645e-01) (201, -1.06659471988677978516e-01) (202, -1.12986929714679718018e-01) (203, -1.23315230011940002441e-01) (204, -1.84586495161056518555e-01) (205, 4.36273999512195587158e-02) (206, 3.08878272771835327148e-02) (207, -1.05181217193603515625e+00) (7, -3.25194224715232849121e-02) (8, 9.56984981894493103027e-02) (9, -2.82960794866085052490e-02) (10, -1.49786233901977539062e-01) (11, -1.86528824269771575928e-02) (12, 3.05573381483554840088e-02) (13, -4.81875911355018615723e-02) (14, 1.94754581898450851440e-02) (15, 1.20119228959083557129e-01) (16, -2.22928851842880249023e-01) (17, 1.13990008831024169922e-01) (18, 4.06679213047027587891e-02) (19, -1.82752668857574462891e-01) (20, -6.11961111426353454590e-02) (21, 4.28933575749397277832e-02) (22, 3.55730205774307250977e-02) (23, 1.58534631133079528809e-01) (24, -1.39475390315055847168e-01) (25, -9.97490435838699340820e-02) (26, -1.60199165344238281250e-01) (27, 2.04363018274307250977e-02) (28, -1.87894091010093688965e-01) (29, 1.58370528370141983032e-02) (30, -4.86475452780723571777e-02) (31, -3.37749943137168884277e-02) (32, 2.18172803521156311035e-01) (33, 8.43443199992179870605e-02) (34, 9.88433733582496643066e-02) (35, -1.34293645620346069336e-01) (36, -1.24153802171349525452e-02) (37, -6.31949603557586669922e-02) (38, 4.14449349045753479004e-02) (39, 5.93177787959575653076e-02) (40, -4.28060777485370635986e-02) (41, 4.68633882701396942139e-02) (42, -1.38873979449272155762e-01) (43, -5.45938760042190551758e-02) (44, -1.39123171567916870117e-01) (45, 3.78362499177455902100e-02) (46, 9.32063907384872436523e-02) (47, -1.98180340230464935303e-02) (48, -9.38324108719825744629e-02) (49, 3.21374051272869110107e-02) (50, -7.70825147628784179688e-02) (51, -1.19454614818096160889e-01) (52, 3.99770177900791168213e-02) (53, -7.25821331143379211426e-02) (54, 3.38327661156654357910e-02) (55, -1.79488599300384521484e-01) (56, -1.95487514138221740723e-01) (57, -1.84566285461187362671e-02) (58, 6.17540590465068817139e-02) (59, -5.27990460395812988281e-02) (60, 9.57263037562370300293e-02) (61, -1.34868174791336059570e-01) (62, 3.20369414985179901123e-02) (63, 8.31031799316406250000e-02) (64, 1.77202850580215454102e-01) (65, -8.49787145853042602539e-02) (66, -1.86268210411071777344e-01) (67, -1.30765810608863830566e-01) (68, 8.43762159347534179688e-02) (69, 6.32636155933141708374e-03) (70, -1.78864955902099609375e-01) (71, 8.54670852422714233398e-02) (72, -7.75262117385864257812e-02) (73, -1.44745975732803344727e-01) (74, 7.21798092126846313477e-02) (75, -8.46384391188621520996e-02) (76, 2.46069833636283874512e-01) (77, 2.88330595940351486206e-02) (78, -7.87813365459442138672e-02) (79, -1.30058387294411659241e-02) (80, 5.76676540076732635498e-02) (81, -5.36458119750022888184e-02) (82, -7.22690150141716003418e-02) (83, 2.34853141009807586670e-02) (84, 5.63510917127132415771e-02) (85, 7.50125944614410400391e-02) (86, 1.47057041525840759277e-01) (87, 4.51002083718776702881e-02) (88, 7.44512071833014488220e-03) (89, -6.33672550320625305176e-02) (90, 4.62244413793087005615e-02) (91, -2.52769645303487777710e-02) (92, 2.98148691654205322266e-02) (93, 7.01690167188644409180e-02) (94, 2.00267165899276733398e-01) (95, -1.08938723802566528320e-01) (96, 2.72872537374496459961e-01) (97, 2.69248746335506439209e-02) (98, 2.29800026863813400269e-02) (99, 6.56507862731814384460e-03) (100, -2.93442551046609878540e-02) (101, 1.56998559832572937012e-01) (102, -6.71101883053779602051e-02) (103, 1.44251897931098937988e-01) (104, 2.61130809783935546875e-01) (105, -8.74700322747230529785e-02) (106, 1.08920074999332427979e-01) (107, 1.60231545567512512207e-01) (108, -1.83190047740936279297e-01) (109, -2.49838307499885559082e-02) (110, -3.87115404009819030762e-02) (111, -8.09411257505416870117e-02) (112, 1.50804817676544189453e-01) (113, -1.14152655005455017090e-01) (114, 1.16565309464931488037e-01) (115, -8.55216905474662780762e-02) (116, -2.52882689237594604492e-02) (117, -1.44637441262602806091e-02) (118, 2.91678477078676223755e-02) (119, -1.28151178359985351562e-01) (120, 9.32580977678298950195e-02) (121, -1.17834977805614471436e-01) (122, -1.39419436454772949219e-01) (123, -7.75204896926879882812e-02) (124, 1.22634038329124450684e-01) (125, 5.94899542629718780518e-02) (126, -1.03355795145034790039e-01) (127, 5.15714250504970550537e-02) (128, 1.33390501141548156738e-01) (129, -1.09886400401592254639e-01) (130, 4.63869161903858184814e-02) (131, 4.82344254851341247559e-02) (132, 2.23069131374359130859e-01) (133, -9.27851498126983642578e-02) (134, 1.53136225417256355286e-02) (135, 8.88767838478088378906e-02) (136, -9.04501676559448242188e-02) (137, 5.79390078783035278320e-02) (138, 1.27022102475166320801e-01) (139, -1.13927930593490600586e-01) (140, -1.23378828167915344238e-01) (141, 5.32042123377323150635e-02) (142, 9.23352092504501342773e-02) (143, -1.58012241125106811523e-01) (144, 2.25820131599903106689e-02) (145, -5.69646954536437988281e-02) (146, -1.65977135300636291504e-01) (147, 1.32881164550781250000e-01) (148, 9.15412604808807373047e-02) (149, 8.03956314921379089355e-02) (150, -2.03183945268392562866e-02) (151, 8.89163613319396972656e-02) (152, 1.12523049116134643555e-01) (153, 1.47426202893257141113e-01) (154, -1.08819780871272087097e-02) (155, -1.21931925415992736816e-01) (156, 2.67057493329048156738e-02) (157, -1.00825935602188110352e-01) (158, 2.60132234543561935425e-02) (159, -4.02271859347820281982e-02) (160, -2.15141717344522476196e-02) (161, -4.39104177057743072510e-02) (162, 9.21087116003036499023e-02) (163, -3.94870527088642120361e-03) (164, 6.83466196060180664062e-02) (165, 1.50709241628646850586e-01) (166, -2.24337518215179443359e-01) (167, 5.57233467698097229004e-02) (168, 6.84081912040710449219e-02) (169, -6.10890947282314300537e-02) (170, 2.81604558229446411133e-01) (171, -1.72980114817619323730e-01) (172, 5.43991848826408386230e-03) (173, 8.91192108392715454102e-02) (174, -2.26040139794349670410e-01) (175, 9.11495834589004516602e-02) (176, -5.56824766099452972412e-02) (177, -7.95689597725868225098e-02) (178, -5.56746535003185272217e-02) (179, -1.38084916397929191589e-02) (180, 7.10261170752346515656e-04) (181, -2.18277841806411743164e-01) (182, -1.01786784827709197998e-01) (183, 3.42202894389629364014e-02) (184, 6.77809119224548339844e-02) (185, 1.18332311511039733887e-01) (186, -2.41693500429391860962e-02) (187, 6.94536864757537841797e-02) (188, 7.49159529805183410645e-02) (189, -1.66358351707458496094e-01) (190, 6.55597727745771408081e-03) (191, -1.05856887996196746826e-01) (192, 4.88637909293174743652e-02) (193, 1.64433553814888000488e-01) (194, 8.40009003877639770508e-02) (195, -5.71097657084465026855e-02) (196, 1.50707559660077095032e-02) (197, 8.57149809598922729492e-03) (198, -1.54550433158874511719e-01) (199, 1.10134318470954895020e-01) (200, -3.90953198075294494629e-02) (201, 1.55495762825012207031e-01) (202, 1.38911426067352294922e-01) (203, 2.46594101190567016602e-02) (204, 8.49163085222244262695e-02) (205, 9.21983495354652404785e-02) (206, -1.30686774849891662598e-01) (207, -3.78951847553253173828e-01) 
